0.12401311746423402,-1.1252995838016349,0.23135447314141921,-1.0215070109910367,1.533468223424457,-1.5956230405384848,0.12430124142358824,2.101096500181971,0.8274088063607777,-1.9068640652535516,-0.9238485097503535,1.0922192039788379,-1.109364091743439,1.669692852161649,-1.5395517104661327,-0.4596097992652568,0.13264839154566996,4.128840878533542,1.2360201959287218,-0.6034361508210351,-2.032792469827882,3.44890409503374,0.6374169592766709,0.0763099580220967,-0.8524858662020104,-1.2272084040081819,1.1457487092832863,-0.05861668720977794,0.21209047677555073,0.03975527973044584,2.8993929391364506,1.0963738033904855,-2.7203368377374475,-1.3207571859675236,-3.5432569647758565,-1.7571872264715322,-1.5639282394123035,-0.5160096129089095,0.2496654665855626,-0.6371381462148673,-1.485750945319524,2.1814309438283406,0.9260337896249952,1.4255822008096006,3.2240525321017555,-2.5612710611998137,0.5677579782543261,-0.9754896804931553,2.094013088212166,2.926714128142471,-0.6243989400560394,-0.7423327887125101,1.1582029663381075,-0.9728588590720667,-2.363989812990784,-3.3911242069635628,0.04623493287633881,-0.5002177766742165,-0.07191441831523247,-0.001724427406414643,0.3043043340371706,0.17890690931186756,0.8698069880411566,1.5016263566154262,0.7959309064997313,-2.367473819885054,0.921393318352798,-1.5921185608795145,-1.4637923646089654,-2.0948923650921927,0.5887741781820539,0.06763713027142773,0.9873445673772675,-0.2512393379889913,0.8705274526891205,1.064474665895091,-1.6516034678334501,4.319817159104805,-1.1660206308660754,1.14342876036377,0.34196997640611443,-0.6655261088646854,-0.6295123155901753,0.7065481503995276,-0.7608429518823718,1.975883893217359,-0.0393342202123677,-1.1979343859839615,0.5647655075198905,1.9034791188304685,-0.8363912264545611,-0.1937795538364871,-0.8409306446935222,-1.997629536230913,0.315165825512242,-0.4858280919759184,0.9225859468190573,-2.486112302618436,-1.7671237232943464,-0.49276643667481645,0.5173204675617129,-2.2087828413047057,-0.7713021126960393,-1.5497907528573824,0.22425586520276267,0.7240964453127784,0.3054086574948233,0.014808356576588829,-0.1899952657066322,-0.9579706596495291,-2.7971690960939344,1.2031535790380308,1.993537861505229,1.3547167686420665,2.6959109294296977,-0.15489124412628885,1.1288968114168634,-0.001207489202041905,-0.2998998985978818,0.061768761826665894,1.0867323719757431,-1.1134882947190523,0.6052387684559812,-0.7656758601200144,-2.236930625171271,0.8694950365688183,-1.742737397387718,8.48937577976118E-4,-1.403945865185755,-3.1403755606502926,0.5740979112009883,-0.43550455712519826,-3.1102304860011065,0.40040707288978367,2.236558968252313,0.9065793888455608,0.3119951325095178,-0.66733361587813,1.512987620398917,-1.7077983159705619,-0.01854011658041948,-0.06650921469146252,-0.4833598711601663,-0.8924043973497041,1.5473795902677878,2.551508108068631,-1.234275931855511,2.288277833389694,-0.6850093617913695,0.5081973656232335,-0.7056091641779643,-0.13935256995826975,-1.710512700423853,-1.2844692880808577,-2.2885873794990195,0.43813994961654723,-0.20572411377102592,-3.8254544414249363,0.5930537450563923,-0.8278557330009,-0.2521135848578577,0.8986047257360257,-0.9118311953342716,-0.40791822684216184,0.5995947534977301,0.7490632785840861,-0.11147319539592793,-1.4710226023918835,-0.3423118514233088,0.02044250164494731,1.3710098703399485,-0.11646086669485832,-0.7020652577104433,0.6124788990473224,1.0732773472841908,0.6900788707388593,-0.7361956409469795,-1.3534126333678194,0.3781106772451451,-0.5363833124862665,0.7467970423269672,-1.5768274032089278,0.7634169855675179,-0.24305767372387554,0.959417357531657,0.9561097227030144,0.9833737411711068,-0.4398337820648065,-0.08699253184695423,0.32569997584743454,0.3268510712639431,-0.9128264420127823,-0.198258228636048,1.031134187929942,0.9279935763247285,0.3071778372405827,0.4116898464020222,-0.11253695623806127,0.9045730379210731,-0.3208157789166612,-0.22978383421604198,-0.7636449484008375,-0.011851591606655321,-0.4623515629831524,-0.7698289497420422,1.8535165683797172,0.48985593653973464,0.29019554689554344,1.19446606234705,-0.9207183664652273,0.1288238948811151,0.565221514935354,-0.5501940332614083,0.4831220264315304,-0.09048937130401696,0.40654962968616376,0.3252148744288212,0.5194231783220559,0.255990453247122,0.6034466489217964,-0.6648602687588986,0.697615467325334,-0.6586310169688223,-0.8151952064933532,-0.5324788990339903,0.7627042911518462,-0.8697953059340088,0.8376848552608289,0.8646924908132617,0.9912412309001828,-0.6099335473502787,0.23182538954805876,-0.3896739597393681,-0.9811783979159132,0.5669247449546814,-0.7924282504174409,-0.4826223311930142,-1.2971847470880684,-0.6412201477946315,-1.0952515112705612,-0.2698238979001023,1.2428206882553918,-5.03027691096593,0.8833892675528674,-3.0594994779697124,0.8823141909811572,-2.2642767201430045,-1.2154103454963856,-5.235885671218006,1.6632661473531931,-3.7154331750651246,-0.3317582863806079,0.49204913152069313,-3.310097056903562,-1.1852844171228398,-2.6594358629145938,1.4983135655944708,-0.29510323482900297,-1.8408325957624656,-1.748354789233774,0.718032374121242,-2.0049221551629657,1.202107179009995,1.1900864612154096,-0.6121818260158123,2.8002022643547777,4.591015928940243,3.074719636750632,2.8598413157272877,-0.4813402618779116,-0.9361402101538678,-0.17951286830783658,4.553386593599522,0.6288182938326357,1.1062056129305171,-0.2903232184946928,2.0988427788944306,0.7617551280665192,-2.375227123891663,-0.12248417753869137,-1.4886991533653766,-2.4969978784886866,0.9561107619362657,-0.3106010526246825,-0.6043619359972634,-5.455636114880124,-1.612767763966107,-0.9767740922179605,-1.6454474882796517,-6.5115553844929,-1.3486945588217736,1.4263030304318098,-4.207480235627295,3.2166519239845863,0.6420438134388178,-1.6935671735790478,-0.6064293970006698,-3.4031226310374922,3.4418366266772296,-1.3163212957372858,-2.253605908800568,0.23092367698846708,1.3071386320368445,0.8030154898497929,2.8736277571419215,-2.6503122741748895,-0.4306299482134376,3.3742541773525354,0.505352026704302,3.828946496431792,4.812425308439451,-0.14607962706611546,-5.225508515868604,0.42237913897196866,-2.3350116507886733,-3.8176083502657474,-1.4801716304164263,-0.09532663673567272,1.574789103513259,2.575335878932448,1.476520429494818,-0.32480094852501523,3.73649020364573,-2.117493245735101,2.372092345609232,-1.2317274847490698,2.07552430197505,0.6164057526073039,2.81263701271557,-1.8612360804834096,0.9471436772215426,1.696726649419908,0.16542670336984444,1.5010029530497322,0.5772135204140988,1.5800367713521442,-0.1321603313591121,0.8494850762859386,-0.4140660983239733,2.4532401563004087,0.5665757690079694,1.8915486149278444,-2.8337511034557217,-1.297207460942991,-0.1618463489075087,0.12477094847678037,-2.733769238354126,-4.369355685925239,-2.146984366395182,1.4798154970512303,-1.1141344592184914,0.736794545206259,0.4589306071382466,0.45672972060161826,-0.777384612916907,-1.520562999623529,-2.754896319668409,-2.0038026112247724,1.540467557484655,0.39948672757295467,-0.31345753379347796,3.648951375278778,0.39059428264421653,0.8284983470458012,0.4068334008519741,3.3396407371414893,3.4369692494040254,-0.1792302721518824,1.0792542067722908,3.5109720525844113,1.1577944517007066,-2.5350757648214595,2.8851377561674223,-2.373508967846536,0.7133374215480506,0.9463158410140577,0.8360236411429053,2.5016395790582093,-2.6132983831282606,-1.281615762686861,0.4338675631002571,-0.7851546965541445,1.4851889825442923,-0.49635183036985975,-2.8703701768492356,4.62459830682851,-2.9646549130690385,0.8667665214554646,-1.6427922831784958,-5.867747961239846,-1.9866914160277056,-0.47464125488625303,3.557081394624073,-2.6043498030139878,2.770380752152413,3.0404594317873057,-0.4373609818224688,-1.5559910416960734,-2.1523759172939587,-0.9725404099494548,-1.8663361166373518,-0.6431258978392759,-0.3045873159050675,0.46362207565445285,2.2335383972197813,1.8561057518530202,-0.5076762248382503,-0.255621855145445,0.4063751853438293,-2.064057001002873,0.8224487638192567,0.4586340571395137,0.07090491525404333,3.1390079161466655,-0.4251317008243853,-0.35291128648583736,-0.7920058676965092,-0.3033051993633685,0.5066063336425675,1.3754050966099656,-1.5214444768883617,2.174230431809977,2.47147298883346,0.03616276149445755,0.6101164265837167,-1.892281851209418,-1.4874857022030668,0.40129616969210247,-1.418716843205635,0.551734582622659,0.3675830388396659,1.2024838027762854,-5.572047589402922,0.28721427020796464,-2.514289323562387,-0.15806977238449213,-0.2844365470513748,-0.061086690303546735,2.1705962919409676,-0.9196610125369539,-0.6273633851301414,-1.2090630929548787,-1.0541808498881935,-0.5434038691284279,-0.6919885361615585,1.7095769653912263,-0.031029697680756776,1.1973512656880436,1.3016256140581708,3.4241952458368705,1.1232143941460828,0.2944901692158313,2.140815289390925,0.06082105620696394,-0.7978078295448267,-1.0106234502097073,-0.7089550137895543,0.5456557888875331,-0.330600418935564,-0.006600356384729229,0.9393440999607303,0.09354173026795753,0.0049843163635398795,-0.18817143985275808,-0.2620790889120807,-1.9547663238912703,3.512086756582296,-4.578777867020288,1.1691636114588235,1.631662379789143,-2.1647698243884053,0.9971910543903981,1.6861821081037363,-0.4198566438879863,0.08524170938437148,2.5382230750329757,1.0367863345161525,1.7597999292620614,-0.8758187779070106,-0.5220475183837993,-0.7869946433020257,-1.4105002826016186,-2.1162232803062766,-0.5076981569335032,1.7836418317308504,-7.239864326632115,3.5740650367628968,-3.4443151822071685,-3.388943983907508,4.586179340907803,1.635267772584848,-5.163282038055162,3.2229584315798894,-1.168036616548119,-0.12104581913687178,-3.338318931549179,-1.3704227185460374,-0.42159530643278625,1.1878206417966897,0.4883127712118986,-1.5916319249361788,-1.294805794794221,10.02639863281762,1.2433204385840324,0.012362033731595166,-3.932420454945951,-6.37114568776056,1.637210204224171,4.361731717735524,0.4380493853004567,-0.5716593281239674,-1.569653616244968,3.233310537186271,-0.17250096977456017,7.3348709630357645,-0.18862944598268266,0.40650111617222323,4.877969184316885,4.612335907337103,-2.401624131273336,-2.0274416809789884,-1.9871100538419106,-0.7450846664249009,-0.5327805937115413,-3.7868479771214427,3.169273031172546,-1.87087768525875,-0.44105497279122163,-1.9379205092227891,1.5988129083235423,0.3961345315219636,-5.191445232115881,0.7521643291432621,3.972514749993764,8.085541484490202,-4.120366303841019,4.709604535738904,-0.9750256802383349,2.679242983164667,0.951645557150065,-1.9883997817201877,1.4031198483393637,0.1714338556299743,4.208921335297159,1.8540278593007893,-7.3517130470655045,6.95699488219515,5.786187606842544,-1.3232197949118776,0.2020304123714551,4.254256665561657,-3.8110595406599357,0.03357483355833508,-0.45714716386545656,1.446005475400079,-7.242184261715141,3.5760657033495,4.201600487944639,-0.32410807633713845,1.7216721600863967,0.8027377555857899,-1.5920561307654568,-0.4990263175797855,1.1313783638054755,-2.7230504719066735,3.5161836945676854,-3.0229617990984297,2.4401568648500405,0.408918576622872,-2.613603861689014,-2.3875748125915526,1.2421114360649197,-0.6142252101518222,-0.7036186375286819,-0.5714868708000036,2.5948712313656133,3.246006284755938,0.7264946606032173,-1.3872106082726063,-0.9283873907177201,0.428993503086711,3.5333895984758144,-1.8068940070574528,-0.6006700634678246,0.6271094845687774,1.5037860310093174,3.8952843190073674,-0.22264069439331868,-2.1550748447427854,0.6765725525947283,2.1179095126740277,0.17278423589817357,-3.4292380602700967,0.7349993542821524,-5.9767031084327344,-1.5372843421917708,-2.1676183499696267,-2.0870018752878683,-4.6493734317163495,1.839824015356223,0.8642288925513323,-1.1885557822402633,-0.2088454930615696,0.16304984987105198,2.2458011062601257,-1.5646354317414664,-0.3732176570762137,-1.2388724614975901,1.1169886180359936,-2.8452778140316806,-0.8807415778229802,1.4920736937424757,-2.955864148752514,-1.413165584833336,-2.1416516990980328,2.37317524751105,-3.2877002860292697,0.11547045833964063,-0.07021940618502069,0.3363208423609224,-0.23167087486245969,-1.842532541612586,0.45263826301635335,-1.2449471588557242,0.014851985192385678,3.276246656471857,-4.1698081446424995,-4.186809006173473,0.4638303631631488,-0.08549953921121288,-2.295231348043529,2.551404524573511,-0.2724500460043092,-1.255077440994394,1.1147022450370718,2.0974176483594595,-2.01117633124118,-0.23523223040212105,0.35244359236203526,-2.6464493149183634,1.000629433409944,-0.13051674583227393,2.5204393429879004,0.31522691183202267,-1.4836043935325702,2.7941111416718636,-1.6129276914752986,2.27490128466501,3.3556543946428663,-2.9226206489165723,-0.3727428624501492,3.8576318221134525,-2.5763528584908046,1.5556710206685935,1.5984243273534156,2.156350831169626,-0.6201457468193876,1.422607198023643,-1.3144306364497935,0.20128979716571074,2.251231889113865,-2.391365758308067,-7.2916116241897155,0.692632618583997,-2.2921694850111334,1.8744337177529202,2.367584948819752,-2.8650299010795113,-2.3774768032959317,-1.0119668984437036,0.2194224431494056,1.9977691316159087,-1.0089961460027335,-0.3889723552258361,-0.6227160004243598,0.8856607236329953,-0.47470535023861654,-3.120358711938922,1.2689710987101344,1.2546745235323031,2.0511430282695895,2.973509228611845,2.508812479915129,0.10923409359477519,-0.2109141347596236,0.5586494699632966,2.1822499336888064,1.053068817995591,2.2135121412411896,1.1995322754552717,0.16125027352593704,2.421711092299068,0.7806163996990939,-4.513308598359103,-6.170958646684392,2.387695383559216,-1.2063396960803863,-0.7629561609298392,-2.7648553072773905,-1.9787383488825783,1.4339519691963736,-1.6465327059170412,0.21702943314184792,-1.980622866209375,-1.0118447364777394,4.658496318327996,-4.786647397474787,-2.8922435740922627,-1.9633452912923641,-1.5744508888906634,-1.0647370629426332,0.8586788440707157,0.9173441747510153,0.6636336577632682,-1.3357384229610088,6.32096926917359,-3.297394833003597,-5.682145598786356,-0.5373879513081528,0.2963138232594569,-0.7106680187674201,-2.4724025605847912,1.3469108393138056,0.6912096446317278,-2.73420117477843,-1.845250196445051,1.3493285893005138,2.716908465889765,1.440952843879938,0.8138954781833523,-3.3464714186318796,0.15077257832496216,0.7621414564860632,3.7624041109973994,1.1353107479314584,-2.776335735495658,0.9966466490435166,3.630494419027746,-1.64228120678984,-1.3177799545013051,-1.1552420957079375,-0.8608789250166948,-4.081660079200288,2.390851570610656,-5.86060802279443,3.637759103861995,-0.8886955832525304,-3.351935846975928,4.72772364009438,-1.9388081222866576,0.5459095509786133,-3.7049032004176485,6.7759656523954925,-1.9201199688798942,-3.3967026776173297,1.484813113345082,-4.184962642141708,-3.0322150370476413,-0.6252593604071801,-1.2660092826684604,1.3136846730376848,0.31113915010615706,4.562685526193859,1.6717901502039159,-2.3583837318278436,0.10505780243088952,1.1686922664443957,-0.04417460939133665,1.623770243499516,-2.1017806710975453,2.1506168372188994,2.1544019541648263,-0.033962475760824756,-4.838139995708685,-4.956312185390996,4.22412112087602,-0.9123026835459505,2.56546864371632,2.8920042749017743,-1.86346978214579,-0.9991445640296588,-0.14123721051341614,-0.15758946010791916,-0.6890688683939314,0.8098823252974549,0.9685558069077047,-1.370715777190751,0.8569954588270802,-1.0140904799424941,0.014949102546181868,-4.53369466231326,-5.125320078171744,-6.902972799059709,0.49072451684337953,-1.1038439694804116,-2.7208107043369325,0.2735508146427961,-3.5787079841670795,-0.36306421006253314,0.3340839089905016,0.6869275793456908,1.1995392959748614,2.2158376349439974,-2.897852336523906,0.378624870421741,1.2266729384034756,-0.22819515362193238,-1.4560945754811692,-1.5252723535098582,-0.25368098222701546,-0.114448456773313,-0.39078242428192417,-1.5260139701676172,-1.7878265955892134,-1.3136640094430758,-1.4394234802761483,0.12038320301672736,-1.0367804165229644,0.6169301152171592,1.6894275070719342,-2.213894337857489,0.4259353217501128,1.4458976600071214,-0.6890975242482729,3.5647536497214545,-2.279562732210985,-0.07732626531128887,-0.3275763176332645,-2.126908825025917,-0.562210817653152,0.5602036076091892,0.25978133309394025,-1.0974328978918184,2.1086340908757855,4.01902250148586,-0.823368517321562,-0.02718852441628942,2.868392342432799,-0.29956813504521546,-0.7407826554174135,1.8074873265322067,0.2606419730571253,-1.7179233098222182,0.526399064177087,1.0542421032850873,-0.5143292586751712,-2.5515410870719677,0.08997230692641077,-0.4866694870003756,-2.0898834287563406,0.5309909931458783,0.5085819133198518,-0.2713672821281933,2.3200600915292964,2.986838925038928,1.3081608692880036,-1.7291966097845926,0.6199577491313084,-0.9939751929819888,0.6890440619754324,1.3408778873328362,1.510140622369521,0.3116218164981441,0.537461747159122,1.07548641832633,-0.32061858629880974,0.9587882341134563,-1.0917147341674072,0.9615419669352334,0.5546477606375041,0.24999683314782203,0.2789052447459572,-1.977044153841714,1.0878652211630595,2.1200985641074195,0.1975580028402594,1.936892842017938,2.5100332151491265,1.2594519547714578,-1.1455389482569114,0.5076617201631305,0.9638660392596656,-3.6008652467427167,1.3703164891902904,3.0610304936313764,0.4028175842050157,-0.45432934257283464,-1.480398264801196,-0.9623852122020905,-1.68034888400039,2.8966498755755112,0.36683372991112906,-0.6223265802026445,-0.6995554098714929,-1.547947266106242,2.0121218365248374,-1.9997136870073724,-1.5469984915885224,0.7623165704597881,0.38694789798926615,1.23009220909151,1.1983710619989216,0.9515143434617811,-1.533114237441337,3.1609924263169926,-0.5055940379224653,4.387965727622094,3.59934652327963,-2.968285699460505,1.6488331200992836,-0.1292123974711025,3.0998038721095953,-5.840183162859881,0.914159896738841,-1.960402543087467,-0.3421355650309375,2.4904710596990083,0.15246689939450084,-1.050677355625334,-0.748554427911155,-3.149333904558362,-0.6750755731357583,-2.8472941948536206,0.4476298409788761,1.952603170993049,1.6693706813886746,-0.5131719964214267,-0.45312955580142905,-2.072554126694901,4.319624875961393,-3.4552063208200408,-1.2679553506812666,-0.6951285126232221,1.882354347557688,1.8744497014911423,-5.719303292114508,1.7123987649510646,-3.6596274837439107,-1.2335309272753776,1.6214161367994882,0.5775532144941614,-0.892427342773717,-0.22524637086285368,1.4880601361847579,-1.310999772669033,2.37881039646538,0.6139654393489729,-1.0990097123838487,0.3575380612873127,-2.390417335730237,4.171614934162686,4.345742102783687,9.345605237894274,-2.9908825854895427,-0.8616652483327687,2.099581696389483,-3.139385358308491,2.0303473665502096,-1.9206288530630797,-0.5326094297941175,-4.489659198076539,-0.5727704090817847,1.0992273215570025,-3.9799922774040724,1.3993032527362075,-12.21808549327869,-2.116646594016548,-0.5897800192677678,-5.782032134390991,-4.368080562126871,0.5711446322897744,-7.410314946763522,7.456412853328237,-3.4624254464884627,-3.118725644520711,-5.231226126374129,2.2161650450268393,-2.7069051526956955,-1.6909536549434474,1.0720551919272516,-0.44643463279347273,3.2064662673873814,-5.034185527740339,2.345268241235915,2.2152775928712916,1.6806216662433056,1.5070074183347588,-2.6158189395750417,-1.97651910219292,-2.3580146592158915,-0.7954886037970773,5.126236695565625,-2.7827185526546003,-2.681567390621216,-2.518299947254879,-4.140962840952776,-3.424311159423798,3.3342336573167137,-3.711669381914102,-4.714711748561047,0.13686856302866984,-0.14335938043761473,-0.11306862787912689,1.9147012655481634,-2.3884925293031127,9.50015242779999,-1.8304772652506447,2.766582537906642,1.0534918879874977,6.0032152571320045,-4.518937034354801,-0.7612457051802982,-3.953103814955472,0.00303468107007035,-6.931968474590732,1.7420329692343737,3.274052737115242,-1.3302467649424834,-1.4481835063068969,3.0669475496758873,-1.1683605736736449,-2.3771928527546518,1.2461029973526236,2.195531630213696,6.6786725972898235,9.38608692535129,1.5435758533931243,0.9736087864028463,0.40796628703521665,-1.1641379840243984,2.9377266484516253,0.3764308169264921,4.838818645463465,-1.4139860414285204,-1.1601666502713213,4.709574893860323,0.958813584128813,2.2585929517159102,0.6999299166978625,-3.354833321823681,1.9049416548572857,0.32170070456300015,1.3524168109459715,4.884924449315612,-4.520859836319087,5.092999273557508,0.2851754621081194,-1.451770481599812,4.245279299041908,1.3265593472675572,-1.670879090032338,2.6476666811458593,-7.461954479685352,3.397985949188911,0.9743683291584082,2.507092918432531,0.6725883872056547,-1.371989012196407,0.37835200819906734,0.24410478879232594,2.37957942568947,-3.296124125319025,1.7923924081793412,1.1863287521982702,-1.9095979229107225,0.9508407220992576,-1.319530251371248,3.3484426481143537,1.687914368730234,-0.13645968866777589,-0.024298076488746236,-3.519715378199715,-2.529539493577556,1.304353741286066,0.9294456388961616,1.9698031211176437,1.297938267863787,-5.833264560342811,-0.6718298302806294,3.9931647712507665,0.9345197092721005,-2.0333216574423,1.931111611231084,0.2085756755514522,1.1756197668844826,-6.114481906179524,2.3586016952300803,-2.5948987703675135,-0.44321376562408976,-3.923109906968541,3.4162470618181118,1.3675316754420461,0.10606807043319728,0.45084343421831374,2.3295181199957264,0.2797371893541493,-4.673335147871028,3.0032509103563187,0.977684835608076,-0.5011949229162831,2.2511315946834194,-0.0024575905965534043,-2.2131648153001713,0.9328759944741144,-3.8836021914013434,-5.381064738190274,-0.011991705066119301,-2.2179371779557497,-0.4871963189287411,0.4094814909053484,-0.7701100748104049,-1.0632835671910088,-2.573907580919938,1.365781006904615,-1.5995631751602553,-1.665499620715091,-1.6669017767330494,-0.8724725230020525,-0.2165577240881291,1.7735697502508072,3.065230155182202,0.28763471923142714,-0.740217092143728,-2.434797396640851,2.4360823852265927,8.035375550736568,1.5203221882342828,1.0619460826199478,1.2518513908990205,2.8688068048352644,-1.0088518045733952,4.716138902239335,-0.6706220194593389,-1.3150031567409053,1.707311257552643,1.03667764723473,-1.0509127483876644,5.148746242302989,0.051122834375487265,-0.7095197766097733,-1.037268262512959,0.12805046090580702,1.8070431028512492,-3.8269034220244014,-0.5934708310719067,-1.279799628820161,0.7147632963975241,-2.8574968953609794,1.0981824344344395,1.1318421168607098,0.022233293468360796,-3.0998014201324797,3.925335399288,1.9361551069151763,2.5857637259643242,1.837349260441068,0.8403995517989844,1.4541107818388224,3.065809677874312,-0.48242916312550477,-3.737149089176067,4.32723958013636,1.1086585622139942,-1.108957754920509,1.3144472291352525,-2.534800688031571,-1.5539033178824893,-2.2816753045301867,0.1061609307364723,-2.2842972749050223,1.0873906856133302,-0.8991220481145625,3.5885799896727124,1.0878661915590417,6.484200470232426,-2.072615215011996,1.6859811512024432,-1.1014490414883404,-0.5640417023754537,-2.6380015828643106,-1.059642847931862,1.8646771708213448,-0.17566222451230104,0.27759944020745825,-3.3246606431563204,-2.5015466740879613,-2.8176282780545656,2.429262062051997,-0.6781155908136735,0.8199506627086856,-2.5783536257892354,0.5789128436727955,-0.8663151538041683,-0.38674418933226706,2.8691675692424576,-3.460358601792868,-0.7813155965440266,0.27650368729941943,-0.8830720539806537,1.03551348419425,-0.8363142572785783,-1.3754100729306273,2.881593544539977,3.585934065223509,2.551097173866043,-1.407583443132884,4.6001109003470315,-4.713701564279647,4.827424051742383,2.116204949536995,2.224819546408594,0.3951436688002172,-0.4251415958666074,0.05691276495286007,1.34378993602822,-1.541482272938505,3.702974551004176,6.065315265341145,1.0465333217251156,1.7860203676114004,0.3266350715750084,-2.011722192413924,1.0840136026176357,4.775748136557525,8.397454479252422,0.9362570873885916,-4.214567588736895,5.120513430903854,0.9109313990367001,-0.04415130917090007,0.9674905823052078,0.7946724697791824,-4.979037126953104,-4.217470362370967,0.42286092810491527,0.31061983923363057,3.489024381091162,5.606321532793566,-2.4462150547531105,-2.9441376800949093,-5.392041328543104,1.9275129986563284,-0.5620448152414631,1.7714525968370594,1.5500519584068047,-7.55810629299335,-0.6819798636296217,-0.9083493256535538,4.949992351373201,2.609278103560351,-2.2805686811019226,0.8531933325939943,-4.6217673692273085,-2.7054641950114195,4.779863677362153,-1.0082803951076955,4.655420528167065,-6.02432150068068,0.498488801565476,-1.6461294189424267,1.359267221422666,-2.467405235191275,-1.358092409742646,0.6693868930026917,0.8052692883760534,-6.6419025826523646,-0.5597671153672399,8.153703171901668,-2.673917124255371,-3.6463344941146785,3.224804030521607,3.8170052961739223,-2.066453554742698,-3.516312472486728,-4.552982200942565,-2.372715332020756,-3.215462537253404,-0.6051563737673947,-5.723874227002986,-3.6478160596812494,2.9208894178288825,-0.5060080120094312,-1.5556603599311183,-2.292880661361365,-0.01035254226780257,-1.6313663107531695,-4.309564711766649,2.389278723308814,-0.8918394102798718,-1.0364109153459262,0.0053231451873000735,-0.7660390902429248,-1.272981694931553,1.863876178609625,-0.06972590260048438,0.8684719192758411,-0.7685941300722905,-6.121993347472876,-1.1544573015274349,-0.9142682948837434,1.2466029180940936,-1.9966442813720766,-1.8171615405952926,-2.0238288414988213,-4.55315055312199,-0.30190646336797594,0.29093283384380586,-4.882927368356288,0.07844094193591943,-0.7328254143755265,1.9665141577594554,-0.06478464903925435,1.838726450804842,2.140881810075855,3.043115502471865,-0.11119850912990999,-1.0815028111089477,-5.097668019024682,3.3158750732630686,1.0417706793869346,2.6217596226873563,0.7364757754740989,1.1506283095300744,-1.0937160869951523,0.786028617684239,2.6535192510823005,0.19606351841108843,-0.6825459849402061,-1.129549676688973,0.49634815079658234,1.4751476790266547,1.928596250543532,2.2150272559566906,1.8149798982662528,-4.004095440024109,0.9069869728405008,-0.5596649731134352,3.5026392171632876,-4.905047624178789,1.86286108725398,1.3474121851085876,2.8879913509764132,2.608947832776841,-0.7410182057030023,-2.1531686333283835,3.2322652714702103,1.9212863482234186,-6.810871914265837,0.3437417400440242,-2.128897920122588,-1.5852083045969214,-1.72405420467535,3.2640925361229525,-0.6907599616481557,0.4126441005666879,3.987027187495804,-0.5695798507333232,-2.234580205966534,0.5988964168983418,1.6801661526024643,-0.2433201413553221,0.18478398696593662,-1.0585759431395796,-2.6502956001307436,-1.3821589083800991,2.50622858952012,-0.9234604062657665,2.0564910150859004,-2.5840065945932573,-2.564634339999665,-2.566717043692733,-0.4059376016246554,0.37930671771198693,-0.7873674352294112,-1.3650829771860817,-0.26096764405486894,-0.4307343189184061,-0.4289150838190925,-0.5157737393304642,-1.6158616969961586,-2.0400944967777486,4.800626111201027,1.1224865085376892,-0.8319092315433789,-3.509542958308884,-0.10856698170098947,4.7003550984692595,0.4338434709147989,-0.7072882927813089,-0.08030352444664064,-2.6763219490261188,1.8557771425986798,3.0142962016321753,2.7997143006665364,-2.127193743318462,-1.173373348608083,-1.8050141184646618,-1.6790000451197715,1.0605351017013591,1.8439717619510034,3.3053402005691166,-0.5686994786030224,0.16567433313144359,0.9917882417160591,-2.7314588771805766,4.580997511911591,1.3208042335595693,-1.4731829229167905,-5.4999903175237135,-4.4140315657816105,-0.7329933075971499,-2.6429076936439584,1.9211265161041318,0.10172350407521868,0.8336584621198199,1.0661860963707652,-4.568405826796985,0.963947296488934,3.235552188289003,-1.3826776600033364,-2.553306836934433,-0.8645449992539394,-0.06924062158770282,-1.0851457123063364,2.7649102909549423,4.74821867730079,0.05311293725088383,-3.0954249573500667,0.5837928657591017,5.410268590524922,-1.876429429300155,-1.055130635748081,-0.32770161719118585,3.293491411717647,2.4425689702841087,-0.8155527713037418,1.067888991323954,3.120099535096831,4.119841588610074,0.9244440940579769,-2.401800957940504,-0.703430474494963,3.627502777568888,-0.022492838512612492,1.7321476704377305,1.6487778365460168,1.602693581401703,1.2586017719801206,4.959489703408029,-1.0295076674638397,-0.8045367504325822,3.154874008901345,-1.1998320325764094,-2.1456437198241782,-1.7247561228473112,-4.698437613495079,3.636063999569966,1.9385501517323,-0.4259667002032626,1.3257386638221074,-3.6607741354385377,-0.7297979353640328,-1.874740816698307,1.411261651510078,3.2988349990093906,1.0807197735378518,-0.7270689841214203,2.226652558457886,0.1467327239484644,-0.8248387080113512,-3.022376921040751,1.2613770490882914,2.5607616375556264,-1.315480142607942,-3.748953344514854,-0.38578288624549495,-0.8191182371047743,-1.9846566784930002,-2.204140952449406,1.3067894680311263,0.4650202495192901,-1.2201740160379229,-1.8059552265177718,1.3634873883460399,-2.423208991268678,-2.7315039930962115,-0.5524686622773682,-2.161707150607055,2.326254127955446,-0.5069341523391583,-1.6778891715183881,0.5324613996521893,-0.0863020367342745,2.234333314317103,1.3381594679105024,-4.430847668327643,0.25566658205933646,-0.4790144763538819,-0.5313523532078137,-1.3552447964869576,-0.9202210239603937,-2.1119993649644577,-0.5560320076746257,2.7893126987562735,1.3137636265832846,-5.781954852087687,-1.6970466170093643,4.873457380500338,-0.6895852708317639,2.0106627841027795,-0.4938810781938607,1.6957161974547807,-4.640583243167947,-0.009912205529792353,-1.865716209300634,0.8408406027093114,-1.5107504444473012,-2.054759571316004,1.0725386051251111,-1.2955424194691856,1.2623605597800824,-0.6507101488991814,-1.7618283640035046,2.21141578703042,-1.2830022469900675,0.6352171043163566,-2.685946894887915,-0.03171710960715774,-1.996508966199511,0.36003139250992783,-0.8634248447822251,1.056472306973409,0.5779813160429526,0.7450649773319045,1.0759551678920862,0.8032377988717002,-2.9641846602106154,-0.11934792109045626,-0.7577258104161461,-1.4659800008624841,0.2842718353966949,2.6454406444120893,2.067923172202631,-1.1906157731422287,-1.5397425982657658,-0.10079837619479154,1.2531414419427014,-1.7189530308913041,0.586783626649351,-0.5442636986048651,1.0129323597064948,-2.133750345583793,0.0559332034089834,-0.7777168658170441,-0.33470519296786216,0.7315079689945211,0.909795947334079,-0.7766157833295978,3.5611757300778666,1.2284607506344973,-1.4080859169821025,1.0159005480618357,-0.2644633477465156,-0.2811891376260546,-0.16769611808629123,0.06111992152352204,-0.9230407850399802,0.090476283130459,0.5896396914083126,0.8664638592054722,1.2343801004001658,-1.7453234187270448,0.5207124439028961,-1.6052663495809947,0.9626261762960773,1.4007772431237562,-0.8203633514433661,0.4899797934109455,0.655159881851075,1.2411066199743377,1.2804062705318489,0.8296505656375727,-0.9461250138583488,-0.7857442813267117,-3.4058564396451705,2.8192553972957994,3.419366656832798,-2.9156513282341194,0.37974532356337826,1.0114937480686899,-0.32425956236624404,0.20974410613040337,2.013050945304359,0.44318550321580447,-2.2464712681333765,-1.1231168529114273,-0.09433034894827151,0.3722745746744508,0.2879402965591443,2.4651511283452456,0.4825988476202829,0.4132857630286293,-2.4361857715082347,-2.7898572919200535,0.13551538436314536,-1.415794007994463,-0.06842716549111394,-1.0984515204946668,-3.5574362117187555,-1.4603919952094258,0.19903067011264683,-3.7208215122650614,0.1565511697636304,2.5075813005123355,0.8630733497512378,2.553054858850956,-0.334823877587403,-1.1119995511710998,-0.40926655961448477,-0.2513227881013566,3.3672733969045887,-0.29616045727006995,-1.6626266957309073,0.4180390112920245,-0.9128996153436666,-2.062264968443475,0.06488847237770932,-1.5241408975079285,-0.6498711997485186,0.6548254592405662,1.413730078767722,-0.40771254291913156,-2.9192321547564752,1.0995865134872949,3.2930116910748355,-1.0964508955663657,-0.7097081417167619,1.1173872786252974,0.028248262489098296,-0.2311011954262666,1.0515063210659858,0.7668224041279694,0.17447955087307915,-1.0020127179821554,2.881455659668214,3.7979139009966447,0.6901259086518703,0.08009050253377575,-0.5672885905775222,-0.7781378455461296,0.4534441604626046,-0.4642202824850767,1.2710762102144928,-1.2001145557580544,-1.9343673876688194,1.8195453003233193,1.7954112234403876,0.36579963962940093,0.903447807283318,0.7871221546042657,-1.0204432718876184,0.26743573832699796,0.11514545480851991,0.4160683105826903,1.0482918375600492,3.831625477091894,-0.9105201631331044,-1.784678840103973,2.0991789885788936,-2.4066551068314497,1.4619526351159682,-2.9048524037442527,3.9645082568823704,-1.071902510295367,3.59324225423503,-0.1364333037493382,0.5996240378661888,2.528816555510809,-1.3838932025252444,-0.8780774531336504,-2.3347810826648554,-0.12109387950037442,-5.082228210447176,-0.8313965197661717,-1.427043311059256,-1.0524699724176114,-0.4351232841566076,0.4980863642120652,-1.5356969319975418,1.5044458762207236,-2.9733465536025,0.19253931833554144,-1.864647930064286,-0.36921712753711144,-0.6905760932459277,-2.627697386823121,3.0079514313695634,2.226052322238845,-0.02496085367800151,0.6425204291241025,-1.2093498716487157,-0.12056013476482194,3.6314606753358976,-0.6824912171908815,-1.7612966381691961,-0.4138773348444033,-3.828706607460234,3.5437602208124863,-3.1199752838464105,-0.40824336040797793,-1.8707180883593675,2.809857879402037,-1.4259014521603486,2.8516740080263197,0.9278010785939584,0.6686714132065898,0.7858452988827616,-1.0179438953686493,-1.2222942300070727,1.1047361564077987,0.7645478847463562,-1.0112363055890965,-0.1597937582198406,-0.3829956797799671,-0.20087936222360758,-0.8176723261429529,0.04441056090917366,1.3347422396759872,1.904240703632728,-1.763454276405451,-1.2295406851369888,1.3130679997098733,-1.7569040828220273,0.0020861187409512098,-3.2509599003291783,-1.570279492753705,-1.9268299911948044,-0.44003417084096214,0.03677094062085612,-2.5515777063350464,-0.16508129051493875,1.1768427563169015,-0.3366144419164934,1.728280437122672,1.1812689876157656,-5.516634447270994,-1.2473725048653914,2.6786302724695035,-0.6729126085003256,1.9931602942769848,2.109129621860853,-1.512932008258729,-3.93014389798293,-0.010772877508895344,-3.8201254421587225,2.229612199784909,-2.292271541721984,3.053271338660619,2.295183217180078,-1.8366877501851295,-0.5553017835004107,0.9904272135035722,2.2492767293651865,0.26532525770620025,0.013302180793164949,-1.0941066628483258,0.6690750272131805,0.0830965279355949,0.6111223225538011,-0.6869291001407511,2.0651122623982303,-1.3538834467979213,1.0393498789103008,-2.2081890972991145,-0.06078814368339316,1.2183640015841062,-0.060232183115463855,-0.43707640470093995,-0.7086309890829772,0.005796945208203056,0.1694475003972874,0.09339811832160871,-2.358146079986041,-1.1007274731739103,1.5246573710249698,-1.165012299371397,0.7166240169166426,0.9266867047256844,-0.8763323264417731,-0.19957040006804905,-0.23647237258673381,-0.3899007251524291,0.9565634394429416,-0.7572084833645427,0.6703214657736739,0.7481802272671834,-0.9090042201320017,0.5725922810676322,2.630934703690853,-1.861293160483087,0.16657360201906418,1.333468522333408,0.297391158575017,-0.34909849358067024,-0.0297450460223939,2.1806459717682913,-0.7876435073842164,0.030428446362739926,0.02439785195972735,0.8632731570357922,1.2550876342674924,-1.5398044425697466,0.42359032157361326,1.8109282100225141,0.6877472439878273,0.019288288585173927,0.31946472091841976,0.00451900173518139,1.69045805467991,-0.3968092194216292,-0.6253009516448852,-0.9465382288281604,1.084516572336279,0.196313847545949,-1.2083970258614742,0.4795783223668813,-0.5101599651143929,-0.9941672959526873,0.5843325479172637,-0.9733008081663912,-0.7433537353074803,-1.2670191012094423,2.252489078987467,0.51975459897941,0.028008403525316274,-1.6690587871472562,-0.15390127701201403,-0.5254641339403113,0.8212143287845057,0.6865516081107078,2.681704353765826,0.6576623185794864,1.3465172602113573,-0.024699774881314373,1.1596025647322585,2.8843582526226594,0.3173077615416131,-1.5561578291781035,1.0995479830437906,-0.4849502174680907,0.24831819256837165,0.5242948227754339,2.043551527653707,2.957782870667604,0.39160969585166777,0.13599921044911886,-0.28233991489892474,-0.02190250857750294,-0.9701992212420872,-1.29049697430087,1.7511552627935392,0.37873998908018874,-1.7666229239883655,-0.48320473645371376,0.5493994690514189,1.014084352316185,3.3204623488552563,-4.940251818695679,2.143663003854796,-0.5430938300514043,2.706998338016081,-1.1709581139300822,-1.1969905202201827,-1.1662141924469935,-1.6989486060034042,-1.5456461885045132,-1.0051577273995649,-0.08435335789122758,-0.848135070875824,-0.43735554392465154,-1.6998531724609935,-0.04183210251052889,0.3988691665202933,1.0372475177792229,0.07910762694208127,0.4377852035748678,0.6352915500890141,-1.6885030777564118,-1.420973670478198,1.7358404173071929,0.65300307898619,-0.2481286692180474,0.323410794976516,-1.4851517056898804,0.6278787511904385,0.2584574218251378,0.2668262877467938,1.1566942998761998,-1.472616949979466,3.5902400621378048,-0.14261971113197203,-1.4823021649854362,0.036021202197811304,0.3545308596081543,-1.0549612346058395,5.748535425566415,0.6610194389641346,-1.7669309575080931,0.3226513068918615,-2.394895973175082,-1.911942080514509,1.839945033372745,-0.5662088597140109,-0.911664757330488,2.461288708117747,0.07603103209996094,-0.7053155239039122,-2.551328545540909,-3.0439422248395465,2.4965348776446565,-0.9004473561509388,0.09549020114982597,-0.7054881378103857,-0.8188013111081087,-0.2726211887923988,0.7532235723083288,0.5050733743684465,-0.4892665593615539,0.09743080924211381,0.4243396363739912,-0.9958441755275486,2.028564425669185,-0.7989826819877089,0.8572460774947935,0.2277589179849439,-1.6656424791361766,2.0034649175981745,0.2830520349123615,-0.6642807145769531,0.5300375234072842,-0.33337329284450107,0.7942918126343451,-0.33046468000587054,0.5914060175396691,-0.05915906651835086,-0.054878591595277026,0.8062068987398061,0.7443824319098682,-0.060645527306314305,-0.7558231022440159,-1.2737559430877816,0.49877572182110597,0.6699563447211692,0.7366674842625032,-0.6502062136169359,0.2160332655566577,0.7795487051066491,-1.4682672380120185,0.052141994285885465,-1.092768766031874,-1.4557087774016235,0.899218781588283,-0.16212442408264666,1.6265324936909589,-2.318515187058905,-0.3936700672484439,0.4224250908662694,0.11850808710954522,-1.2164234434336687,-0.7723552124690936,-1.0731719602113057,-0.06407538328521063,-1.2748121834212274,-1.728070955103091,-1.2426766045283646,-0.009658035943330614,0.022854686625151888,-2.0474889920982013,0.1017246271381904,-0.5575510388606251,-0.1493978028946762,-0.229333978900463,0.998431966781367,1.705061729266062,0.6481431415402038,-1.4065560050768986,-0.5949692967751757,-2.2370849806703847,-0.7977662474024828,0.9652366667975986,0.6103661565009317,-1.419417583849631,1.1189742488210344,-0.5467208870670388,-3.383186053172028,0.03980747959340658,-0.6378425647982233,-0.5868497612506741,0.006440124213686052,-0.004727534719195969,-0.7688534717389651,-0.7076870891306907,0.3883377591654552,0.8722284844377246,-0.45334609525857317,0.4988170844892564,-0.41175316907633763,0.41208921510934987,-1.052036150815386,0.49621322856502315,-0.7192153088327805,0.2733680675370032,-0.9074775773173359,-0.9201904755011484,-0.6456805962533951,1.0178404379694213,-0.426811963691293,-0.0326671981577125,0.5872537061858413,-0.3223864100328977,-0.5761575572901626,-0.5869802687306357,1.8340672035740042,0.27392786897435545,0.7557830174975783,-0.927327580062989,-0.17050380044210572,-0.8155720920865546,0.29536659917855823,0.6379374882385628,1.1589299445100156,-0.07435329329793575,-1.357178380925646,0.5670062293753824,-8.478522861640304E-4,0.5170893496419963,0.3802021834138579,0.5863262677553882,-0.019691682903968367,-0.0431476206260091,-0.6189930174304528,0.42847902367925483,-0.37042049333005944,0.004780562760069144,0.8844638885803098,1.0420655095187874,0.3417928342328297,-0.6493925715323204,-0.5114058055227151,0.4827719527051093,-0.2558815152139299,-0.21817411752529303,0.9540394373161556,1.4961480334034403,-0.5489885386378655,-0.26246598111187375,0.4863095292117241,-0.22447344611085301,0.22535025620562124,0.7027720667554452,-1.1427199592186414,0.29439010927986664,-0.3609608253531447,0.18194344993230308,0.726774396815136,0.3353399324480815,0.7696289919454484,-1.6037694877942217,0.11925252382362825,-1.0413138739764898,-1.603605796825735,-0.24296909833835628,-0.2734496815812831,-0.4990181222404971,0.2413384252504231,0.0044123795176212385,0.685822213644261,1.1744355333115202,-0.9175463924518359,-0.6387223604998173,1.0184063689807883,-0.885386807303394,0.6152517333757472,0.5669187142033805,-0.46702424754756555,-0.342427856323202,0.428230119985342,0.10269850155529865,0.3126905893881915,0.07570656219068288,-0.9565497203237086,-0.6919503062022199,-0.09578958806240886,0.7460401435510072,0.8841130500616,-0.3077940116767615,-0.44425006326162203,-0.033155461623278905,0.2496959453709309,-1.0740173095343608,0.6095326495556439,0.792260643301933,-0.2799585309271064,0.5168929680542842,0.08484573919177713,0.6687627420667765,0.00808855844762833,-1.4251772798656785,0.3509319374766341,0.6843893164626506,1.2292655038989484,-0.7347598686801986,-1.0119299346684392,0.12059034340706548,0.08105306468200052,-0.6560914366698839,-0.40651695813274275,-0.9301967524144991,0.7028066901395662,0.13167870744950694,0.2085693311865586,1.0759535503615973,0.42217621308959163,0.11113027200620738,0.870426671267095,-0.9146318562027813,-0.4937643995877519,-0.43614127193821944,0.4440879430064563,0.7218195083651961,0.5114832790939444,-0.28800731435081395,0.2561412916755836,1.1827260589917892,0.16978494101332503,-0.9726182175797844,-0.8145830001485332,0.9265289900763973,-0.3502527705387192,0.5533528281604482,0.11253093973126184,0.11656546803663917,-0.2567994600284101,-0.14239794248419646,-0.09500068957857492,0.5328392766911366,0.9814449996160874,2.5184378390016997,-0.679750097262955,-0.9726675881321717,0.7838450534601259,-0.15963355366256501,-1.0862898264932428,0.9662185878221313,1.6638629337911857,1.3618204515576235,0.7739730396025949,0.40971135470604336,0.3206198115723999,0.7897734409171323,-2.894588849058971,0.9641934932836154,1.1200690198083278,1.1219902459375939,-0.9350797328314402,2.2501976002187054,-1.5465770735174462,-0.5016991316628296,-1.9314374693182237,-0.2807028548597745,-3.3467777720984624,-5.020039772399036,0.642723334765322,-0.4835473605830526,0.2680010023233064,-7.47086498521559,-0.9226295558136478,-1.9366302256756662,-2.212995879825483,-0.5608244029360182,0.7709415226067305,-1.8970073401867462,0.4462624471135195,0.5492043063007658,0.49259201824598303,-0.4808819325855506,-2.8723941207169252,2.550818100497292,0.5895338608020869,-1.3973227215324644,-1.6282087466986652,-0.22075155201708777,-0.5310092409659787,-0.6211497244709779,2.334958031035021,0.6301263758638619,-1.0982603561440158,1.2035195464662498,-4.096102101971061,2.8045355268719234,1.5347123364004942,-2.209435678769984,-0.9109946347843804,0.34065635097675573,-1.0332155178433284,-4.824217834376583,-0.5192468527977392,-1.427147374581022,-0.2649358581696659,-1.5251556407583433,-1.552932638603221,-1.4240496738141422,-6.214923354261125,-2.613493891866769,-3.519962308197334,-4.935774848987196,-1.1202237868783385,-1.049459346812362,1.7855410208204587,0.5346303139619963,-1.8250608768604442,2.492314965822447,2.2183555772760966,-0.768225403403838,-1.2880341589588031,0.07003292614240314,0.3766079279036267,6.641354856146012,-0.9519351256077706,-6.217118897635448,1.7018828697823318,2.509435374106123,-0.1894003045655218,0.8731887165017155,0.48530933672531984,1.262180164379437,-1.4929991105553662,-2.700979897630778,-2.916862439416794,3.974071392324318,-0.9484581438008275,-0.9757302152322055,-0.979066347965874,0.4064264357216109,2.058056017254057,-2.383814298369178,1.4760374496284274,0.7766752080384607,0.9243844153493365,0.3186203292516817,1.245538129156621,2.4920153957098323,-0.7360766361759139,2.4411744559905744,-0.4823473246031805,0.9946954275527566,1.1332000400099491,-0.6832149252537137,2.1341681044340164,1.7887257107316599,-0.40292338514683956,-2.185215542361546,-1.8202135259845782,0.32674691729199873,1.1405239512590908,-1.6431952199887914,-0.066313258774597,-0.7963333153460741,-0.7645995276379227,-0.7503125325420302,1.3032964484529441,0.7548218452690812,-0.5370104008926372,-0.6734746669978843,1.236742748927703,-0.4465587787946173,-0.44321923013308,-0.7610427010044633,3.503654817878185,-1.3046742975391141,-0.23153043046746025,-0.5642155935001238,0.7319387385423199,1.1941197307751876,0.007228816894481005,3.676827131547555,-0.4711942820191305,0.9681638144716448,-0.22444704586876477,-0.20372224730488533,2.656165138926634,1.1219295134243141,2.9297015920704497,1.0667338023218977,1.9021367925254469,3.677916525370526,0.30098439102904717,-0.3171539865976307,-0.7036328470729623,-1.3041132026464277,2.595615509886484,-0.7705369083549206,-0.5910423051487859,0.9336103831377628,1.514830443470308,-4.16513211555908,1.084627736757929,-0.9597015512802227,2.962412179343657,3.4362729550537976,-0.9332702454109378,-0.6622222884938623,-0.5395419739526838,0.33477471838530637,0.03802355323124289,0.2790045245028779,-1.1357583690888589,3.342608419208348,-0.04447740714066275,-1.6355556798396704,2.9490435832571356,-1.288409853714859,0.9473992466521177,-0.6430075328015941,-0.9805279493026486,0.7365874592730494,0.7245424598662108,1.4870606620724909,-0.5523330603750847,-0.3600842716965229,1.1702630508257212,2.605455620751469,-1.6962861070003368,-1.2979645709120549,-1.4702432546704352,6.642967117077671,0.9414895167977348,2.647155692796828,1.9793402573042984,-1.2771094361952904,-1.5120410658609602,2.9583521560758594,0.8294094885995764,0.5015172208143165,-1.582957113324582,0.36893129631292676,4.452860517682159,-1.9502687868619593,-1.362580778303955,-0.2599824310862808,-1.1601328217767657,0.4225527206887969,-0.21019107636643047,0.8780049101113344,-3.9372668402392836,-0.21218195747569252,-0.43455878628245564,0.2292892084214851,-0.714302224236767,-1.0715137010951048,-3.0502811295801155,0.7475302954904204,1.4171257161740283,0.15020599095137302,1.1118490069619382,2.4678357013356034,1.1098294679588807,-1.0527484721781326,1.8135564282040815,0.11789751943358942,-1.112997074726595,0.5313230829311439,1.8818248102686872,2.809977991896387,0.35622904096339986,1.4301587414250871,0.19033551667998344,-0.7891311285471033,0.8154981362195705,0.20620315965230424,-1.6471255612062707,-1.3775910440442791,-0.9845293287194767,-0.4859513109227488,0.04313820628883051,2.91624175739898,-0.8615122712209691,-5.879665069310093,-2.5454868511148736,2.2906828611461676,-1.8888928551163076,-2.3266710803840955,2.3009394183094605,-0.9814242281735864,-2.221960449281481,-1.2786286215502736,-1.0343283978988747,0.10992067889691612,2.9335778718844994,-2.5535924997957693,-3.3298999580188933,-0.2893514293210595,-4.793547626213915,-2.2160810746046407,-3.1085654386501473,-4.239568717542827,-0.42166913371758413,-0.7857074895800603,-0.6828494880708528,0.19409377147545426,-0.5945693034122506,-6.033831640731369,1.0833337839783306,-1.7161317853294604,-0.404010713392591,0.3365227726143363,-0.06978700415921453,-0.41585306401201405,-0.5090848136452629,-0.3518379041644237,3.1005597712993884,-1.868196247862293,1.1814173745273557,1.0719741008228216,-2.205870961003581,0.1397435170104628,-0.9680345224311008,-1.769977226937213,4.967805203953406,-1.5177281510880212,-0.29947714064067243,-1.7923526260075577,0.9601076247608891,0.5953968353047464,-1.8131628640883555,1.0144337481740011,0.13150579646474408,1.4286915676306573,0.9196099430504975,-2.272413033914941,3.3210625730682337,0.3755076957120013,-3.4323831856318,1.1691364557043815,0.7096197530289112,-1.2582109046989571,0.2907888021090972,-2.0322376292328896,-1.7124751007696926,-0.49347061168872713,-2.60607128283049,-0.9333138400589728,-2.05371317995081,0.426475995752805,2.5178306608778884,2.53966645649307,-0.031964066279157995,-2.530314108045277,6.329667081496468,-0.14217254554379033,-2.2696613885127133,0.6171876091818616,0.8334273646084261,0.6684789086318735,-2.827770875868687,-0.9041061444460702,4.445981697114425,3.64449574623538,1.1446400679285667,0.7957827405487861,1.979825546611635,-1.020099557423732,-3.570888127194601,2.781492396253847,2.4887428104073837,-1.5230047049991324,2.110500396950221,-4.739505282840554,0.48443231188193375,-0.4325243194636989,3.386070893224302,-0.06494334376714206,2.467711641576057,1.3452841237692916,1.0659100195010212,3.4448889069179134,0.5532040840580372,-1.0240107980140036,-0.9547617382845095,-1.907122093894525,0.8746627910495848,3.8840250813845634,-0.2177855379045503,1.1587695714114103,0.32516010255626254,2.0119895360815656,-0.6940414701963553,0.48905213363569966,1.1732132079189779,-1.186877346860219,-2.459683903211941,3.861218812539967,-3.6316831229230466,-0.8617606526622782,-0.0030455367284756988,-0.36335369980753585,-0.6061003008228498,2.2474908725754297,-2.398794411436861,1.0749788801890587,-0.46554590377522415,0.5875658490271611,1.1501087363736966,-0.37767467650630776,1.777401869454903,-0.8803634087889636,-1.550567870250035,-2.241341559845528,-1.0082060208347914,-0.7523611597943006,-0.20386747410669087,2.9920807431093546,2.301009348135467,0.24527858363515948,-2.516917247614904,3.477844009224974,0.47202927127422467,-0.3820832512372689,-0.31109514161880825,-2.529366826647046,-0.02422630864064596,-2.7608686434554937,0.4666991854793858,-0.28731379905934157,-4.322887384293581,-2.2799144175231225,3.6879794536587998,0.3878559726618514,-1.3904140792768478,6.323838927757896E-4,-1.0163214676682528,-0.9862094328262904,1.983152929185479,0.17122235372457362,2.01444636754546,2.6981309907881643,0.6262305857929755,-3.3462329068683876,1.1189621229224247,1.0525209769992092,-0.36159372598304956,-1.3140644265925123,3.9809945528058206,-2.673820316704034,-0.612071675444927,1.0842075607788535,-1.6979015600984222,0.779762845123767,1.8706084284325413,2.313647637688636,1.8374837037836946,-0.11557699391704741,2.223617418878847,0.767758238512731,1.5687109860802424,2.5740024970279665,-0.34952400422415,0.9998263182020803,1.4628732478052653,0.628850751060422,-2.2498453081395304,2.556001711856135,-1.9696218669679189,3.1310554807019697,0.8273847706802202,-1.7100196712622535,0.3681235039564582,1.0119282940201155,1.6039574932719454,2.502218809497211,-0.34637609454952406,-1.0956510570602975,0.6418237807371153,0.28250721502011217,2.3886809761214693,0.06616037626758565,1.6806297126923362,-1.398053388336546,-2.512139628941239,0.09412698601171753,-0.2191286319981972,2.342812741995676,-3.207690079679903,-0.40271555738026377,-1.6114649211599472,-0.9814431694870922,0.8766514561886264,-1.7079816200344144,1.416153954546174,2.1262303754772733,-1.9907474373556322,-2.0584516258261356,1.5997736634973265,1.2651290206579207,1.4065899901638728,-2.313906382425248,-2.0790723846662384,-0.47001825150350823,1.597412723712034,3.6491670902368414,1.1592380737911439,2.7129999973234318,-0.3072927084419739,-0.7935566818690208,2.002726917816304,-0.3527269308567245,-3.500066052758791,1.1733239339609676,-5.898048551414779,-0.09318316603020696,3.353486018730725,-1.5755286591334843,-0.5867106492845704,-0.4362381836648638,-0.47674953317466656,-0.6381215053223662,-4.031675990895859,-2.292160032754229,-1.9871253880986863,-3.866750509274787,-1.922576485840202,0.3680290333828535,0.26465845807981897,-1.14670313614076,-0.40991824397990995,1.9493872262449121,-0.989650117588432,4.043421105709418,-1.1279251281509104,-1.970227831507575,-2.277158053268256,-1.700456452717,-9.782282049445497,-8.348015929450687,-6.449789272836374,1.049792020109138,-2.2100785684454034,2.8990596843014904,-1.1254546703972803,9.074789009439844,-6.165652807181546,-1.3126850958076866,5.445258805349396,-4.169010134727622,1.6165668276230847,11.188161190367524,-1.1131723492741121,0.35441287530950655,-2.368959028113923,-0.8303037069388222,-2.665417477680505,7.031012580444505,-3.126448874170769,-1.944123657002339,-0.8045715718535543,-1.392547623219815,-0.5597496486151864,9.11069590889203,4.8923764139440955,-1.0619385004349238,-1.3632540336020724,-3.143624486192322,4.082165572755921,5.346925179488052,0.19190238703298226,1.1406623291178326,-4.007119602374382,0.7861093125314461,-2.0906137544674994,-3.6417516579397584,0.6008746701290361,6.698941167180275,-0.5369871390202083,-0.1072726643459748,5.806339105946301E-4,-1.261478365274655,2.40394199476061,-5.784662027648911,3.8441587431465845,-2.128004849996524,-3.522335086900578,-3.1522083888367174,-5.385701515244452,-5.127533761825103,-2.2640314729146596,-1.9740379713322358,-3.655846751809792,1.6459821370430756,2.0415119372901893,-2.7273720281165277,-5.431361448676378,-2.0485405333128486,0.9310429857230389,0.7290169889270776,-3.6127722415193073,4.772053264115663,-6.770248114054381,-1.6873847758917988,0.1577412525179171,4.984446921350398,-1.270069689857,-3.1641737566163175,4.444516098534876,1.03874382973252,2.4716311493276946,-2.977825573894675,-7.324448357666977,-2.699512220126962,3.378578162603751,-1.3548570979694303,1.1472695161516597,-0.11185702196720643,5.968700935893336,3.6526923487944205,5.941729568489452,-4.009380267372138,1.995573617909342,-0.77553957142204,0.6486607267286606,-3.0759927774781834,3.4856401648094564,2.281713733286038,-3.0859904839964636,2.1571532613567554,-1.7635820227103765,-6.991857993495353,1.2762083721153803,0.5414707029810585,0.7368534578884925,0.8252202860708527,1.6449811578639721,-3.8322327227538553,6.561756170002925,0.49445095045188525,2.539898380106794,1.8703980862835614,4.027419338851431,-7.680945985454285,-1.5109632172254672,0.9964540279530527,2.420218496729195,-0.009370781364948311,1.5925291721283887,-3.758109530945784,-2.4181339384066405,-1.8508025544473088,3.2512601014270235,1.847131063465727,0.6933072964880789,3.541769230321744,2.8889015354926153,-1.5871296960175072,0.5496776506980208,0.9009574668622343,-0.1738512105149312,2.3928043713175,-1.1834838016267637,3.101112109601833,-1.6707182395864149,3.1789378430114485,2.2820782525915235,-0.3753049137407176,1.113744624837824,3.383086697052705,3.7584030628153853,0.6954408248462093,3.3216828167369754,-3.8094675092534103,1.3880258735682804,-1.2395847983179784,2.9532708264378167,0.7942387159436539,0.26322956500764516,-0.17514956171913262,1.0395648330522653,-2.006831643029064,-0.22653330875298822,0.14040608124999063,0.8712924476584628,-5.912605629757901,0.08569661414191615,-0.8165495051929925,-8.242281283862031,-0.648220697604783,-0.7129835315234332,-0.6578945517216848,4.399429968726533,1.6276735453042315,-3.8208922877361693,3.9869842251005947,0.4695388785807692,-0.8831335017894563,3.5595430246216715,4.1207598702422,1.8214823325077543,4.638108580849503,-1.1513397649764674,-3.1851572106320543,0.1801381185390042,-7.099350587335904,2.432883934887261,-2.4132734344497218,-2.43871180931754,3.703624575090118,-0.628948291862241,-4.443423622290438,-0.3899237985113031,-1.7977945500034398,1.9263095780340835,0.5290092698003477,0.6826908709509463,-3.1343943038499527,-2.5841475694233007,2.351644974109328,-2.986548777655036,0.017692568101621394,-2.404628535502865,-2.861883895667586,-1.7607859030230355,0.9330108024024569,-0.8593078973869036,2.9785781727898732,-5.521507790533142,-1.1430734950015449,1.9732624113599324,0.3019462339851903,0.8068969893014156,-1.6439778767915383,1.510145736592958,0.045419300192929196,-2.4585032413879575,-4.788458552109699,-0.5404167126022665,0.897290199392471,-0.887780245530021,-0.07129595788863455,-2.0606192666330694,2.234890610145745,-0.8694210394026307,0.20803035983694565,0.7459260104398017,3.0235263421131404,1.5237076377684675,2.510097460529339,-1.3357285999098851,1.456047989251844,1.3022515126984304,0.7065031327646618,-1.974417980593983,5.360030167549124,2.8122326087976,0.8707578963444477,-0.7387280001878251,1.609959138504879,5.175793556184689,-2.2820033475722887,7.387291192709045,2.4385034683157087,-1.5467672576576044,-0.9417644169926178,2.1340033581896383,4.055985389800713,4.003152678540439,-1.5614663928496968,-0.8747012569919539,3.8266291501135457,2.296979311635499,0.07675014631932459,-2.443282914808903,-0.8630328098012477,2.0157059189437647,-1.9131386479145436,2.086936872378522,-4.273493209148999,-3.1320341785921952,-9.952530142119716,-4.253061999834208,-3.991046330458504,-2.711130506241883,-0.48370527923127155,2.357728238247023,2.431317875313413,4.675340542459806,-0.4534742003859156,-1.1443310239384168,-6.3931895824764835,-0.9938923241714233,-0.5179371260905757,0.6146950608279411,0.6367287382450346,-3.698149997512323,-1.4786167026051986,-2.0920218010456564,-0.5635544375350335,8.670879790882328,1.9293567211709384,-0.9024115021797037,-0.7737967288870284,-1.3083472691569433,-0.7226896334724604,1.1498950490335855,-3.0884378013782787,-1.9294758969272228,-0.9092999935685028,8.862703013018477,-3.4641904884571773,-2.4871743885317406,3.5894369175411525,-4.771776940039142,-5.450073797599195,3.892804778179528,-2.460488630654637,-7.732612866452301,1.563339603149811,-2.1572235544512983,1.4509820287133417,-1.852879113184211,3.3140011873019715,-7.4308305017254845,-6.685927963105963,-3.183458233869708,0.1408594245195036,-1.4997856464021688,3.396082973706003,1.4326089470428225,0.4722968179732097,-1.8257442941322855,-0.32039535841415334,-1.710937320767313,1.4486035722841657,-0.3235665053245849,2.537458777781453,-2.2360843108969637,0.4409732477350738,12.675055336163055,-4.151324134219759,7.496358123862115,2.58758848121031,2.57704632669474,-5.958102225528726,1.50092661718585,1.216021257621713,-2.9555515718853913,2.7829162292101124,-0.6252107733715648,-7.778176760604289,1.061538765182715,0.060703235697765305,-3.413372591019628,2.569277953582726,-1.6524681960410432,1.3318691330096728,-2.442139647098046,-2.1298049646325654,2.6592015465325054,6.646467645625619,1.9600140859817303,1.6849188317909034,-1.041358716721111,-0.680218113688479,-1.058267327087397,-2.223723455554699,-1.677155201283228,5.558238230485747,0.3715040463494923,4.577011038818564,2.6786940303093196,-0.9617839599081701,1.3761553350853708,0.5637515409806797,2.5667559633611443,-1.4206212367511197,3.7111475207153464,0.7880388689567167,-3.8129079614992563,-1.3180236354672812,-1.9617143530480263,-3.783318150603274,0.34278382268399094,0.4580980859070212,0.11795441354179187,0.329734687233016,-1.766094169851346,-0.016310654233659246,-1.2345363517577634,1.8450540965135256,3.430038917380083,-4.178785297650597,3.516669159746725,1.990740234839643,-4.0907868027334375,1.5063036607014149,1.9569093959122599,1.4278272552855913,-1.2555923196522996,-1.4677886462035707,-1.63509305975991,1.3026990707865977,5.113111257479536,4.480986917948408,3.112004383793919,-2.569046631478619,-0.2957662473261935,-3.8476516011451145,-0.5599288641575759,-1.5251080872768499,-0.12053660916820816,0.8848351788382395,0.6322205992732236,-0.9351908936503055,-2.8314630758435273,-0.843444638207859,1.4389547271510115,0.2744634430104045,-7.151306005944582,-1.9483264596432053,-2.306939098475521,-1.9826674890891982,0.3907599716961394,-1.1854517916629477,-0.2871073061790702,0.7028756464668744,3.033979496624766,-2.807164412339329,1.1873707571494367,8.132524321702155,-1.6196216629701006,0.6269910480409676,-1.034754520830333,-2.2848210955503223,-0.19804818296419413,0.45400385881875877,-1.570134949148177,5.265488315710848,1.0890699342486112,2.8407441294425197,1.951043148051733,4.019005778241261,5.421106563262476,1.4909881280181279,-1.654727440507786,0.924768295918597,-3.405774035890656,-3.7577972644271105,0.19875776228589057,0.6827860331444101,0.8420110195389954,2.404040134286758,-1.3392997452111204,-1.654974442966237,0.5758744083671006,4.023654015949274,-2.2542474416796305,0.42996752350063644,-5.008082828027518,-1.0543949765839389,2.547642687063098,4.304530774597164,0.5912103129918593,0.5376931975980928,-2.1753799266956713,2.7581017764715288,2.5466149761478505,1.6714198272054008,-5.896021991720891,1.4354549046372809,-0.47843834234478555,-0.4028721726677448,-0.3001324381120284,1.8276893289235048,0.5602640536180987,1.7295989583059648,5.732202199319846,-0.9201639220444566,2.5212744284273723,1.5502433340089605,1.02670725929765,-5.166990351762868,3.2133598438954114,2.522875782124914,-0.5818233562842139,0.39249294985513733,2.849471967225531,1.581610701504161,-1.9008360431990707,-0.8607088474960348,1.887009292854715,-0.8227101964680437,0.6047688718346714,-1.3955020423544788,2.864152215876537,-0.4849892157142858,2.685695778666181,-1.5550575581572912,-4.563733129560397,3.9885508615137275,-6.07519701122935,-0.8345481594133861,-1.9403223211567842,7.4425940811287905,-1.2691753984630938,-3.820114179097726,2.025875750578181,0.459862979626461,0.08860745653899797,-0.6643232265208789,-1.556676753375315,-1.1496514973726033,3.855201327161535,-0.48816221065100884,-0.2519779154913317,0.06465469486287823,3.65334196937995,10.70481286335001,-0.7525873439035238,-2.9313086472317242,-5.5881834547172895,-5.182889663185958,-0.3999537011054386,-3.5145120174626254,-1.764206754352835,1.6583906044424124,8.350932196099738,10.52896281346258,-2.797988945388538,0.21839106107821044,-1.1375971115946863,-1.927654014961695,2.447462175509633,0.0170222897554841,-1.1938070743843383,2.9198823520943513,12.123772846797744,-2.162194445099275,-4.562525272888055,0.28806638222065767,1.5110197182658232,-5.275103149462312,-7.908811876053957,1.3926611468526118,-1.304936685730889,1.463055915568521,7.502989750866209,-1.1077703465864666,5.847983662945978,-1.8355551720905858,0.5300422624760642,5.0232796041411625,2.5275372594279006,-5.508505067876317,1.9036681548532575,-4.825750652952307,-6.082631351946253,-0.4659939118674009,-1.1471464132979567,-1.2067865512749878,4.195931325470551,0.2940996039409906,-2.893037900730056,-4.1114582376609405,1.06102121073709,-0.3679484029462172,-4.1196880050463625,4.469950805932392,-3.032252305029711,-1.4410730520276498,-5.080946643374892,-1.9726968344988605,-6.989247261086664,-0.8816879308872478,1.6923431505735318,1.1175901863848379,2.358062912545717,1.956496235812923,-3.499525124362568,-8.185892808221018,9.758792713396632,-9.070032161153847,3.2397180014985505,-1.5252998386876302,2.4729571869509317,-6.318373092501434,-6.910849766354841,3.9253856102292795,0.8167577613382733,0.7311772032732445,-0.1100563137619092,1.65989880422119,7.155598459844194,5.820956822893596,-0.44253337949878585,0.3476451158796814,0.21282334096381336,-7.690043496566425,0.6174124950607294,2.3022486269408318,0.8266333992281706,5.7301002770583,-1.4329202235343064,4.805018666017675,-1.6711399279345371,0.7270296220361644,-7.452029146529859,-10.36072167029742,1.9125258026586653,-1.0001978906157356,-0.22488288710452067,0.3789358800583798,-1.492742002415523,-0.7633019989844682,0.34249402820354335,-1.445707693692946,-10.949749250781059,0.30970235087310705,3.4920560921610093,-1.1002231296978477,0.41010594288926794,3.4492774118310825,3.0434738575973332,-0.5200746968698846,0.9184811600434174,0.08965254664178382,-9.297675500892778,0.07441245817101894,-2.687110297954926,0.7109173945743271,1.7342926410533623,-2.560279808361331,-4.740745264455924,1.8682895726354494,0.028867242402665968,4.67970165270363,0.4383052370334729,0.422710384626597,0.8995626693656755,4.0659376278347885,-3.326603367263817,-2.4627698176034074,1.5810308547453882,0.9252028216144775,-1.5328666734061378,1.2457876175430773,8.59710847514642,-2.9446278515557194,0.17205301887719054,-0.8334729150977319,4.153713847058375,1.6828914423849288,4.206918579241575,-0.43048928692992666,-1.8279762100278292,-1.6921172701862475,1.4222324048969024,-0.3958675233594451,2.1425188298358795,5.4610842186553485,-8.68615641733763,3.5454365018609573,-1.9884348053935972,1.7335685316414542,-2.4665868986115407,3.4297763787776976,4.545923826132698,-3.722673025728331,-0.025371143233221243,0.24517527478686912,-0.8839737167656265,-2.377114086176886,-6.207132388092288,-4.5374521412395215,-0.5807638158627393,0.2747636891415614,-2.585791743501455,-3.9475518290495346,-0.39597719794759134,1.1008193427903339,5.472597204696713,-1.790984630562987,-0.09382699009314047,-1.0961747316664838,1.8277385177388048,-0.8635077098920926,-1.9292295987737025,0.5138563942323857,-0.15588154432948173,-0.949407294176178,2.102898500226582,1.882176797489036,-0.7474529362314907,0.9172906104507103,0.11566024890848535,-3.0624273357560354,-1.0505058886393173,3.0564780889973315,0.8992842220072571,-1.4873353379343532,-0.07648336549816714,0.6145865524283168,2.3706798286205135,-0.8754347762928982,1.0230829602244607,-1.0852236996521631,-0.4595577776529994,0.4185253286718275,-3.6364871099476126,0.5228877082244132,-3.811069453102232,-2.9078178366931913,3.0598009999513103,3.495882760435645,-1.1783713098182467,1.5939866685002322,4.514669523163848,1.375020273862682,-0.22602979538403514,-1.9696123139002149,-2.0525630917336435,0.6618824903019347,1.7718809905765973,3.0881591299648985,0.2256381520385026,-2.2358825157776914,-4.151038502205404,-2.7093420635019867,2.260210806958928,0.5664269750729445,2.8530489439298172,-1.315692805312746,2.69834479924018,1.2325464253702727,0.2245343991571599,-0.4505650578332144,-0.4591386492825233,-1.4347897204482492,1.2315920648966612,3.0988113676353195,-2.2797470501488353,4.318850086881981,-2.157159638799126,-1.119415608803313,-2.7086647275789524,4.2841049581767345,2.366735047493052,-1.348336219557514,0.7486007160923357,-1.8220369333279074,0.706713201965925,-0.040872014146597836,-2.5115101314678787,-2.5118607873845433,1.2374342571606818,-0.3584099727212631,15.29585479665608,-2.161954908162144,-4.788417278136036,2.1870359276241365,2.757883500609321,0.15534101844594103,-2.4221975169754457,-3.0497417436508867,0.9848086101265134,8.032394808094525,-0.83459673036245,6.52980063527142,-0.005791081411700474,1.5078477648839637,1.0118232281066797,4.84529537129817,-0.9779281612909893,-2.469607302074229,-3.57681562230026,-0.4004516485086067,0.24776019214551928,2.164597246283799,-0.4973168434425703,-1.387110359232811,0.023714403475115296,-2.0344522503245503,-5.542550104950635,-1.6626390214226827,-2.237442479888037,0.1562661355349298,2.317694454194861,-3.065278373115537,-4.052858202928383,-2.101297126134121,-2.9559765733796106,0.9534180146116059,-4.999201323387439,-1.8990887797807001,-3.555287194465227,-3.1858843791099503,1.3508785685975142,4.277204250346122,-0.655892238655763,-6.794771916903666,-1.8166278331183647,5.427170889094655,0.890326496123734,0.42175158611249985,2.665356514597246,4.521298504447538,-0.7233526408728995,-2.8940543785215533,5.1940058609865405,4.972557056433208,8.221926353460775,-2.678479576128203,-13.554216844834688,-0.962795174865354,-2.015017603404071,0.17006807824739267,-0.17626009662008313,-0.03088655174073434,-1.776196712571077,3.193582873190434,-7.638189323520317,-0.664522273773436,0.1569991884767575,5.072240905042746,-0.8502709896054986,4.75581128693417,4.772139507917279,0.016934363585712108,-4.629336625139211,-2.7921395119785934,-1.6007635224198646,4.215362661233414,-3.3565857189762305,-1.3834872786935954,0.040797678927752976,0.1990161793459097,-7.995487740701371,5.415776558331231,-0.21914249830169047,-0.8579970225636443,1.3549273954653904,0.8682337242998219,0.37352361295500264,0.2682485700413681,-1.07156238170054,-4.2718131017522,3.1551436186410364,-0.634366602852393,-1.1656065097777242,-3.545677638003142,0.2958977495188469,-2.2136241855997945,-0.8234983134729614,0.7181015786604583,1.9554880486382005,2.153430849804037,4.510745472088853,0.4801839726512726,3.627638662494624,1.857471761418792,2.994465500597528,0.5651542678650611,4.656444025159799,0.24905715380859658,1.943141035041,-2.9522685996852274,-5.810172989356958,1.771842168785902,-2.4254940920243118,0.8053759988765283,-1.3372753671525737,-0.8801122948103716,0.07922190889290992,0.586337776528907,0.8234248661548198,-0.4244415745234613,-0.3705293754008504,-2.8141845801312293,-0.44535613565425125,-0.007743787272157965,0.9378300902635758,-3.7611109739694535,-2.5178553287444227,3.9517820647178965,-1.3595630167619195,-5.2573335840987205,-0.7882156248206618,3.8573581707881694,-0.7267940790115714,-2.4322288159808556,-6.358962697633256,0.15913568461621538,7.017971766725985,-0.0578093115850346,2.332684180272668,0.46115127225927416,-0.37091245966388914,-0.5569792554690053,3.6503681351485677,1.864740716046464,2.111743890211859,-3.271272372655339,0.10087249515326048,-3.1820752735560776,-1.4307882355326589,-2.736610960872045,-3.371692416140153,-1.661571831665856,0.0720989576951605,4.975747561782069,-1.854519516687759,-5.320988367383624,0.8130145322610834,-0.8531378444595004,-0.49047651648273355,-0.5425110108114236,-6.9360441845552385,-1.7322648521224893,6.994575291801989,-1.750241500686984,-2.4938593571073544,-1.6623693782148499,0.1749468874834379,0.2935173457942314,-1.9232564400556238,-2.933077646978103,-3.8598401083971146,-3.8228281044857755,0.5805436921333952,0.6427033368760199,-1.347436563926744,-1.434513956425069,0.48215499738919787,0.4967512977468568,1.7958490549972395,-2.8847074957097423,-2.964455141122134,-1.6517372633308653,-4.365001435303159,-0.6365229719466976,-1.4813644463067164,1.2823917894627561,-1.2264113006162316,1.5473058380548546,-0.2150919836105898,2.6559642995080917,1.9992634482737917,2.6127539504174733,6.785296841634678,0.04332515227353423,1.5860846898879675,-0.24176041300816165,5.962992401512426,1.937323160105287,3.6770849954823728,2.8660577186216,-0.5303163880358455,-1.7391674946766769,-0.006729988812712525,7.62149197251632,0.4520184153934826,-3.709212720671156,0.8958848997755803,-4.615242387619377,-1.9284324487446782,-1.9886507996193268,2.7471109764866477,-2.0809313875738336,-4.517508654318699,-2.8093687113080814,-2.1222987877494273,3.4984326869142492,5.650694320402909,0.8829137253519916,-2.338456973591989,-0.8565787767908051,0.6516853895512338,1.0484799340029414,-2.0421891828156467,-4.927075149018621,7.3320238634729415,1.3237148070954061,-0.46682050142509507,-2.676954797995063,2.8103106864416723,-2.1306655207720624,-0.5529352980165048,-0.22828204149015005,3.6166914619891757,-0.47476671305379603,1.2394833259241933,-0.4788060855683737,0.731621531085141,1.7584260909993672,-1.6551858598206306,-0.18424137996975132,7.2427786685800735,3.157964937091794,-0.1367654169296265,-3.7621824219363624,0.42358995908030084,3.753038530849395,-0.4737169541891842,-0.15679376613929252,-2.207298460272023,5.596087742059755,-2.509739475714081,3.6638366340890878,-0.8728558962213815,4.215956207162077,3.0416577263030207,1.0091858607694895,-0.830300792655058,-4.12461979217611,0.5955265270421418,0.7951716355461173,4.979251436245073,-0.7662702987869046,0.5385954234077638,1.3016141838888908,-0.5197061170137043,-1.4527008330887758,0.5766286485712502,-0.7469920370406704,1.2736865895627016,6.143329493196453,3.604341123367121,-4.190362063961436,1.282058737553362,-2.907431251767436,1.3080736998457163,-2.146005071216146,3.9103968939353098,2.538281717502773,-4.733349629175761,-3.6196479889316806,4.3892115032163135,1.756433681117239,-1.0760928782149317,0.09393294746739801,-3.7374972022105175,2.106064263371629,3.076241943638581,1.0135115996233346,1.9137714902450296,-1.4768829105633292,-1.5985641868270162,-2.457153808757942,-2.9498112467242206,1.1600458613268967,1.8302631014747153,-0.8515979570884319,-1.4414838893075137,0.13200560569785633,-4.68742176197674,-0.721728051425209,-0.9941097242091981,-0.36293694725464576,1.2504669229515506,7.197477147685365,-2.394842154318982,-2.8425102941113503,-3.8331967078130713,-3.337869628828447,-4.968564789469816,0.4950127751051272,1.885346407657955,-0.5432407418507204,-1.60568016690689,1.4687734278701936,0.01220566514809954,0.28174547011527645,1.002144185468705,-1.5659661870103578,4.231418596895131,-1.2833337105517573,-2.6545373853208756,-0.568215192326504,-1.5520464062813635,0.5507065080124868,-0.694756788753583,-1.7907195953054516,0.9052364212232942,1.1639972982422733,1.5869485204190505,-4.082795659055329,2.5674547111826396,0.02097217812310086,-0.20912301420401455,-1.2808315985341299,-1.5937098227672772,0.13679656552662273,0.752049895428308,2.8003266186402125,0.990022860421779,-1.7075940108623122,-0.30488796486000197,1.187079370024462,-0.5878813884230633,-0.34453111227108657,1.0619638985100364,4.95010387245095,0.5213337862972867,-0.24690165147455864,0.09290295493015421,-4.870251200029782,0.9651326050123543,1.8882000822896696,3.0414865843371155,2.308389946578999,-1.751095979283818,3.000630150629701,-4.7511030168963355,-3.201009557260328,-0.021832856052882755,-2.600067099167663,-1.8628219502448589,0.5553707976235023,-2.195224346001804,1.3431347023589966,3.4135987431544246,-2.7206122244594266,-2.005419015247263,0.4098921835796672,-1.7116620881583744,1.0438710296650215,-1.5984956085078417,-1.0616307478418532,1.992477633811276,-0.1486434690180999,0.7499591057639117,-0.12404301077567774,1.5126417586051784,0.15187708941360759,1.2655877318154667,2.334127758636756,0.27353081751055336,0.6964157190867611,3.67845333460488,-6.682784160708195,1.6769748405906495,3.604097867045533,3.069672641325934,0.9448246451428371,-0.8294068711871675,-2.8340451257464547,3.8840063026295786,0.48380813939119505,0.8804562930042228,-5.002750245707762,0.5007984688403408,1.1166484217624524,-2.651489740228157,4.453699082201284,-3.0134197860046377,0.746987661022986,-3.8886171878733453,-2.805367402652021,-0.7923344029560728,4.376350815248017,-1.1280062886111593,-1.5230548995809734,-0.6980375929699355,-1.0536382412651037,0.005664098372015909,-2.9016022643360966,-0.14131293862901287,-2.4556318509997617,-1.1419238901432986,-3.0798692077638865,-1.1370504856409331,-0.036731401472096935,0.49675704475978355,1.4167497304459706,-1.644630996283296,0.1561688852492034,-4.671579553793552,-0.32933748275339997,0.7457073565358819,0.9840809518679388,0.47572341434875487,-2.542692071273,-1.7786057089220344,0.283672217893023,0.8595023554129375,-2.095130139233435,-4.056461460097706,2.406954696945845,-2.310842286108989,-0.1919386324753162,-1.3622401370517052,-2.492298105727248,0.7417792396664449,0.9957905927470897,5.138576135250711,5.503656337988635,-0.6459591691278564,0.30766087222067984,2.8146643864816054,-0.30440518525587706,0.23914013451283309,-1.5580809019683601,-0.6452065406979431,-2.1293208988089787,-1.5948196860474368,0.4898549619143964,3.0464717829079606,2.679492982730539,0.02742143440089076,-1.6114868536918039,-2.423433477357196,-0.10739996244317224,-0.4634516336572523,1.5061736580412228,2.9076721463371884,0.01368066884612622,1.5720827693411663,0.588837644731282,-3.6624727811519238,-1.263548476225208,-0.15452399707497486,-1.7739814045213356,1.5997184804080495,2.9283316921262643,5.317719898927603,2.3216759455267146,-5.487376983132306,-1.2483235617259132,-0.14537810478019525,4.014815016246505,-0.6796899534627009,-1.4162801641199791,2.406390869745545,-2.7069699062839248,0.3500448022489058,1.1915047007813633,-1.1514826805845926,-0.8979553840673612,0.49405580565965956,6.193635869863181,-2.1464013164762967,0.6588038556358585,0.466785742727454,-2.470800570275226,1.4046140133467728,-0.28432962801131567,0.5014542585942369,-2.0525117099867085,-0.010451765879506216,0.680637470724955,1.1520451995511238,3.435109960260838,-2.415340155528805,2.883094531952574,-0.904127961948269,-4.040840290576539,5.160529256568142,0.6858649102939779,-0.18695692202338765,0.7826552403060708,-0.48707280824808924,5.807293175823618,0.8130688072544362,1.0221464223385746,0.13355668533343104,1.5566085622954895,1.9209272996555384,1.7614617954886862,-5.868362805271936,0.9358226205253178,3.0759074258554184,0.06876390319278412,2.336021375268954,-0.05891649124686105,0.29459659406837285,0.4043365319595662,2.401619589823614,0.5238555084201569,1.1697829164773725,-2.326106176102825,0.4807584247965087,0.3724595847714448,0.9473262791071445,-1.56143464914027,-2.5313983886454765,0.7932513454144197,-1.878409770955065,-1.0617967339994918,-1.248487265046025,2.6901333306865904,3.6369260177791665,-0.26648357439790427,-2.013598726277309,-0.05238218369203107,-3.6698114806414184,0.6981805254710591,0.041212863843492105,1.7021735677750292,0.32138409652877065,-0.09970443338096363,-0.840951226803969,3.6178435962415834,-2.820031640517129,-4.1677836389072,2.867725174887908,1.5344087772051593,-3.4548734960617775,2.6550846752711443,-1.2583148807869777,0.6845048744404889,-2.1841524860055164,0.33158981438257806,-2.7145285356883426,3.4557607643660675,1.245709367254936,-0.8443500422248826,0.00759213250449379,-1.1785756086303756,-0.2499090106274079,-3.3569770857952963,2.959627047854519,1.282185647841783,-1.1245292147390535,0.832702307306214,-1.829606613393315,0.9867583434306854,-0.5844339149975072,1.1844601181958898,0.18794585871237712,-1.0132401187008473,2.0059174107605777,0.10066795748630276,1.3934736113266935,-0.12695292815750442,-0.4420076488980545,2.9482023414220344,-2.84313006742178,0.6196996280319715,1.207848790499374,0.8368196959594739,1.9160689984926986,-3.617670188613051,0.7303154283535418,-1.0698394098856476,1.2252139958430088,-0.10500689610780924,-2.348871934733508,-0.8562476195316442,1.635919392487229,-0.17686793856529479,-0.902075356009317,1.1659518174516506,-1.4492598568685862,2.008510876170101,0.5694256117316208,-1.0076788657470965,0.6482292851919658,1.1181320547438645,0.030664224806110266,-1.5050349714639608,-0.6079861657356077,-1.532539998032481,0.34980225603328746,0.2796112892738784,-0.08369255380253843,0.3418517722074735,1.4935063366780015,0.7664397937712278,-0.36717535330828166,-2.9480381972108143,-1.0772091528180738,0.37928363171566165,2.2816165598602933,-1.4455208675259845,1.759574724680895,-0.9956320484138691,-0.6254831291786243,0.11633090097300489,-1.797311030860007,-0.1741976190654381,-1.7039871356414251,-2.8849348026341133,1.10269184217716,0.2770203964116808,0.11725434073595603,-1.8971481430448853,-0.022245619514803916,-0.24014251054316277,3.013460042352448,0.4944403082642102,-0.3626297996099625,1.2173005266436767,2.659936692286773,-2.116155608839977,-0.6321173380165827,-1.7649735124448143,0.05950653465604826,2.331315295773538,-1.4561902131347362,-2.6429214087907837,-1.2514148752400303,-0.7973842501452728,0.7382517190283675,0.07033353162124784,-0.8319679180047236,-2.2590172379107267,-0.7023082488704218,-0.15192643341481388,0.08891413912024573,-0.7988904161193766,-0.5140990128952326,-3.100149717970053,-0.6916140008468703,-2.657716641648354,1.6647772295952474,1.5683753378859546,-2.431685107767582,-0.4156537753376361,-1.439112594435687,-0.7635857659905972,1.1556926334277502,-3.961363262721479,-1.0582694428343258,-0.13951926142605398,-0.4785336758268145,-1.554464985072443,1.3124832300491913,-0.2608791292798901,3.4566462526681194,-2.292776331159878,-0.45815780313273535,-1.9110934554381125,-0.6483891759675232,-2.1059385721236112,0.710428696338669,1.359225163977599,-1.4759409882100676,0.05770633266190172,-0.8932479344733475,3.265837498306004,-0.08288577038542258,-0.36273268432079014,-1.5134392712234264,0.29814272588754004,1.0956865770141233,-2.2872601296630797,1.064070882584414,-0.1790070811696673,2.834587393674955,0.4457939238658226,-2.9287964702459597,-0.37635878551165636,-0.6022765688665829,0.34017775062172423,0.7078443179082639,-0.8799175061580358,0.0908271218266876,0.051458936580782405,0.8341290424755221,1.1316882007345372,1.7910777703637328,-1.6488446443699165,1.9482599870153758,3.1743770392518793,-2.1514946569579902,-0.16860150966256737,4.227669895225782,-1.6713221278068189,-3.378215662549774,0.24896103551899681,2.059724561111416,-0.49664161592614425,1.2356038816901873,-1.3352257005784696,-0.6390356217690928,-0.27065675973083364,1.3199071032733978,-0.9184307067572447,0.9047694597356233,-1.255447932543464,-3.1163074736464464,1.6618180747985776,-0.9915339022529612,-2.872582629239524,-2.006570551700018,-0.6986893207676222,-3.197876555132893,-1.4124294810081688,0.328741605522164,0.5971690787167556,0.35025882665891656,-2.239728995472467,0.261595053088088,1.9071815087268174,-0.8327611177586177,-5.301298592013603,1.3210131822967788,1.11200825658785,-1.1057740262750273,-1.0084388888583686,-2.982553399635751,2.3700214153661157,-1.984353522113265,-1.0001429858431088,-0.46934487849032197,1.0467067980530025,0.2791660891373651,-0.8116117161933335,3.4337180928775104,-0.3066864540667248,-0.9216683227406706,0.23719684378003056,0.6341284466056772,0.3588489637296454,2.2795489461566216,-0.7522053646636359,-0.6693924985683779,-0.12463160992572785,-1.8064819010972772,0.9983446533930844,0.9169712262138496,-0.20175546726743224,0.6841782642349987,-3.113303523148711,-0.13645040088964816,2.798708140488575,-0.13504967095241155,-2.26325726478553,-1.1299424115252559,-0.6293197842111039,1.4456643928604658,-0.6248935538402949,-2.6400962773435444,-2.0825916751718383,2.4286617182166084,-0.5791756679516283,2.266286059563863,2.373116278037087,2.5314591659469072,-3.828684438087595,0.5754871892104335,1.6177132446529807,-2.752897996833219,0.4619395756733557,4.534989468948265,2.719866708727102,-2.1556863930592884,0.29214980501657184,2.6925645952996597,1.2097326471840464,-0.6960936824055112,2.038472611574977,0.4547296116948502,0.8868880427548759,0.5554253465659709,-0.9691389547247078,-1.4207178481264235,1.2077729155700472,-1.339051747717929,0.5862130459689848,2.8582616399398426,-1.7781170729066424,-0.12021726518181353,2.8188264133184626,0.24736473095624412,1.0647861737119013,2.499252119354433,3.2120931692462817,-0.4672638157890992,-0.055385411476937166,-0.9758226550150394,1.4565785316414717,0.3315422540499529,-2.1282488946949853,0.6567238007047039,2.7208858334914927,-1.8958824971429835,-0.7092230352605428,-0.7982797282027421,1.6939336001864727,2.381266955964493,-2.6064443490707894,2.4588805273335894,0.7200835630102876,1.416094645956992,-1.582295989434783,-0.6791237956862068,0.08646408848717292,-3.1072132908019148,1.2813160950084062,-1.0596011677859536,-0.12778204638705967,0.9432995197118877,-1.4581326185851593,-2.126590001387117,0.7925583320385069,1.493991420483389,1.4212450231637184,2.640964343385339,-2.3085195250845896,-0.4888611058744288,-0.22870535155360966,1.5272447277254109,2.3187604999089824,0.005358405484289136,-2.4341940828015844,0.20732352331267934,2.83855327571768,-0.47306051071501715,1.8394757836319395,0.21481086711493097,-0.4446055539516329,1.6747346094288587,0.6354372431823919,-1.8038095240931769,-0.3959952631150327,-0.07287530718529656,0.08650774725556967,-2.225929483092679,4.164805317279225,-0.9611902652657468,-1.5090008582250616,1.9182884773515454,0.5674015413593007,-4.452654741247956,-0.9861703131263602,2.864140124903602,-0.9834612700941006,-3.933491048888629,-1.8738585885742958,-1.789397359669738,-2.34693450493082,0.5816867522873418,-0.2783029573555593,-0.7988541687566957,0.5591849460400972,1.9919097875235574E-4,-1.051106517296207,0.46299535993984375,1.5673503047448054,-0.4891642956797863,-0.33671701366057294,-0.9309065865500654,0.6618235309144848,1.0843663508133632,0.8835264741579869,-0.9640050516304565,-0.06680959149930311,-0.40265793708841324,-0.09243836438062916,0.5546460394357142,0.5769332902226495,0.08623632335581895,-0.18168652489706058,-0.5038514599488966,0.8296625903330225,0.0809368633552164,-0.5548770223488461,1.9153348176532736,-0.7226964612050578,1.5616228084896309,0.43709823124696173,0.44077738258819965,0.9780831994397905,-0.06963736661390135,1.1616482770287648,-0.8433733540053476,0.08691067859240711,0.8642888647200103,-0.7277380744786043,1.139631060985955,-0.06230632595455705,-0.07901831610130329,0.14109679859843513,0.019440458230643914,-0.109786195829885,0.24180295332019675,0.6502918973412604,0.00713049200268793,0.7851374184992205,0.23528350862261774,0.32338118628528395,-0.11251028912651533,-0.8031821481154193,-1.1624935287028313,-0.6586619389074397,0.14063363242417087,0.769917563096832,1.398732778621601,0.5555371170238851,-0.8822589261168751,-0.7649413099945692,0.7113391290889666,0.20968298138663807,-1.46332441436045,-0.29367382836444317,-0.4106813570416284,-0.39675650890568487,0.7675279496344815,-0.6617735981394808,-0.42135071554812425,-0.5384341625472903,-0.23879105002690418,-0.5816870609288477,-0.17278339448356478,0.7487977242009685,0.6509375839502087,-0.7903415989312058,-0.711355596390689,-1.3649911313885346,-0.5111410190634499,-0.5240458834880759,0.5958741884134424,0.13096890189889288,-6.023673655245349,0.5132096005069341,4.9772939821389555,-1.7399196557567513,2.889454844389236,-0.9967892818253085,0.6998803427125874,-2.729951232562702,-2.713781357981112,1.9683382548917743,4.7648535534679635,5.102302732442142,1.6081600606129414,-2.007622645805668,-1.148534231578356,-2.881763461540719,1.0567508119897002,4.708370680517325,0.09628828610922746,0.04585319220384175,-1.779828528074759,4.025402043106018,-0.23382702865118726,0.13662257748473175,7.820855415804148,0.7995634766892328,-0.5958570735293207,5.0840529651843624,1.491831432219867,1.00474100764897,1.1806620371838759,4.996231058974981,-0.9328136824088002,-0.8178923754851171,-5.812615854917656,-2.4620687825660106,-0.6905482930089382,2.526995854361534,-6.188032376356878,-0.020191846802444156,-1.3118449927137397,-0.9905604600244132,-2.565516390283829,-1.33845283140817,2.272528717994196,-8.769659363383882,-0.6285639652533068,-2.417561766996087,0.9846988324691927,1.2598197411907504,0.3627942610865427,2.0636486679649813,5.466528632475424,-0.6152291015268447,6.767898827799185,1.6507763680018748,-1.8795899841973578,-2.7795481501234187,-1.713892409821296,1.6661588639058098,-4.76712659999789,0.013781294227332758,-4.09601621281028,-1.514749879640455,-1.697224807488254,2.4531816642482065,-0.375257174429051,-4.956204531588335,2.0459705439803444,0.3479784795347097,-5.9828761408568125,0.5118732481873755,6.18106542973931,-1.5994014682902185,1.0938974527193648,-4.655185701124084,-0.30525504744158655,1.2955486171082897,-4.529441417458388,-0.577911629601764,0.20098896803894206,0.3440852193890359,-1.9240875926610868,3.2227093288154927,0.7128549604107517,-0.6870425169281001,0.2403674362312925,0.14830121879358252,1.729706489585291,-1.4788982056426023,-0.08830192429395234,-1.0111544999222515,-0.9356642332652337,0.008766220667582432,0.3722307384745793,2.1822313960483384,-0.8057415829210592,-0.30332940966082483,2.142069679483065,-0.9002735162587265,-0.3845331452622387,0.23442853200232439,0.22381510128110232,-0.03520959123337324,-5.834295907592482,-1.1752173224775742,-1.0441432011930025,-2.770113679671718,-0.8342279997524826,0.48820701887374834,0.0782853004895784,-0.5493577277323979,0.6900463630496958,-0.770308859326401,2.9955959574903193,0.13370709443690254,-0.5156029537699439,-0.9398919023306163,2.133877887126418,-0.16819398508283967,-0.33883181149126357,-3.0782764966430762,0.4041798707498133,-1.517977569982765,-0.33145851834176204,3.8560458871372423,1.540225186965662,0.7354665673284376,0.22388180381507883,0.16502336750539268,-1.2440603171202047,-0.029902572415873428,-1.0107672647742478,-0.06896056792019274,-2.502514887768462,-2.0283560795124402,3.9513651418559275,0.7527249027399456,-0.7381261032099536,-1.6773753028657694,0.26967716438526074,0.24086430775087164,0.9631031043625652,2.516330331244088,-0.47038313484090977,1.3964130783673967,0.30538567496364255,-0.3728602275200851,-0.9785831009116873,-0.7932534420977417,0.5382051509386009,-1.0280536337711461,-0.7109224932304604,0.20688702113119897,-1.7106375557003415,0.9512549411285509,0.8200546952571878,-0.66452429060847,1.5524698939490378,-1.304055367983777,4.938620743246266,-0.8775188323778493,-4.138710589535988,-2.16504198506791,-3.488500032089558,1.257563299648715,0.35706715900766894,2.9558392177651593,-0.19058752950207972,-0.16500762424317744,-4.6879397787671895,-2.619544772059618,-0.7336932783042779,1.6154070081529512,0.6110398398030789,1.7008010013135701,0.637098286214589,-3.442986376710409,-1.591472017570442,1.4172170985897956,-0.36026029054532216,-3.523782402528931,-0.850957978344412,-0.8047028977895516,-2.33175204661366,0.20560590218560545,0.9406033203987894,-3.846135441065701,-1.469012178645463,-0.31741396289675505,-2.942606984706133,-3.1278359914140106,1.0388548477901227,0.3947253161501833,3.779992232276688,1.6642468804249377,0.17082174282854123,-0.8824277563495123,5.347279733568567,-0.1025648685716326,-0.5372676060696999,4.99874351002889,1.6919954703297166,2.2980836997053986,-1.4707136437311956,6.0950326147623315,0.6559680770089368,1.1407798016119892,-1.777664776162346,-0.22552036648893217,0.6894176525780176,-2.317005918186644,-4.014170379499315,0.7950449349498891,-6.323254189588556,-0.09318609986444969,0.5158749130942377,0.1813782880574569,0.9663826544518094,-1.972253080420497,3.847592948637456,-0.9850702578409941,4.098882895042382,0.012632039346363123,3.6118230950908203,-2.8313361132106776,0.7642558012484744,3.722934832921569,-2.5840279184616697,0.7983290251919218,5.5646763917616155,2.0350632352150426,-4.996481422753599,1.9072953202660752,-0.8483968219090913,4.135334919568043,-0.4023999192270696,-0.4079280196306021,0.957533639008352,2.4301004336899257,-1.6999176447505324,-0.19554186505322343,-1.7051457156950516,-3.268896823838454,-0.19413371231258783,1.6922418421683967,2.0267114516722047,-4.140033242364649,-3.3931060071070944,-1.9344988806642622,-4.3672706603902345,-4.2176074241768955,-0.28537225647819003,-3.0797698545367402,1.2182500609404543,-0.24165321567140188,0.368989172050972,-5.455334220323899,-1.6264748037588317,0.9713241013023766,-1.3174311004704586,-2.6176389275922802,3.976532176153951,0.047516892759795475,-2.182470916599779,1.4316873656860587,2.4964378622026606,0.6814128198179649,0.784002208016211,-0.5926098802231616,-2.7672061420308753,4.264350751931538,6.556759039770069,3.7921379703229983,2.6870675032989673,2.095655466900661,-6.46314595329648,-2.1657924607741337,5.244606643049639,-4.210722590701946,0.8360251095802118,0.915166930794131,-3.432110827682459,-0.40349095933585727,-1.446772834457604,-1.324275386558139,-0.0732262110602433,-1.0082509958460917,3.317514877486455,-4.915155149797952,-0.7338318555646921,2.1201512674416163,-0.7168766272541912,-3.0862243865538455,-0.8445205511946146,0.6773295783084561,-2.30667227772713,1.6965000128150067,4.206042456471553,3.90722354165337,4.044996970983987,-1.1750740849579546,-1.7701886171635395,-1.308766503567271,-6.506619973890479,-2.118120713275614,-2.479102998884559,2.1761788526640866,0.1696141596324093,3.1684688908037164,-0.5356507535134256,-3.115494578862533,-5.64998475611167,0.8068823137482315,1.9545503050586885,1.3058403534443896,0.2566469565969969,-8.25489444793775,0.3286165299877292,0.47563371957759737,-0.44572811555236286,-0.15558622313937012,-0.9807146682574197,-1.0146260109751986,-0.7754922528733876,2.8026326613152497,-3.4217525356498815,2.7731300653077393,-0.8649660738864482,-1.7382212527263312,2.1959985374733333,1.914915271775671,-0.558486419899892,1.7920707529220072,0.3055498808140984,-2.4741651613679694,2.0056641079549147,1.0837507344615944,-1.14483739546346,0.27237389381609334,-0.2554354766760571,0.5373016289332273,-3.398502173400802,-1.3764173956084806,1.243914926757664,0.7252553849517809,-0.5970954021245041,0.1944945443691203,-2.1716151327953424,0.5002770743359232,1.1894399851507547,-2.5452368731345247,-1.5243725349134691,-2.200673272224722,0.5254228649334606,-2.2430382037979952,5.977956999370251,3.5857579879542376,-2.17708261698568,0.15944695151329205,0.238296771263041,1.0376505624668555,-1.4629981294815506,1.5936498784284459,2.300186052879169,-0.3156009039013024,-0.38436713563999464,1.71626781224856,-0.5761446039882835,1.4019862856007224,-1.0503193543249636,-2.086702926615762,2.0778059516868286,-0.8085220219718285,-3.2462320023350624,-0.03538883567347314,3.37826191059237,1.4012776986021664,-1.92097390606772,-0.29257719510077923,-0.7225264236133165,0.5567660766054633,0.6789729662379443,0.14173254614395175,3.5986063876167553,2.047323461854247,1.5445478498782685,3.184380958948799,0.6635824655514087,-1.9035246976623594,-0.6093068910230891,3.1412562942254136,2.217191559299968,0.2620453268638971,1.6428755734034943,-1.206064440314097,-0.7102746689096641,2.754700859590722,1.0660832546165153,-3.43883476994945,2.152766254063306,-0.577424446363909,0.5227178463225558,4.313234096330312,0.6435467748712835,-3.9418810665919257,1.4807472893016747,2.1561179703483657,1.8844265208984559,3.6470312176993005,1.4713468747426912,1.3286442415313846,0.2510791473223759,2.5902020856314776,-0.8475638380328638,2.4397021947883597,-1.504954785655764,4.590142406231679,0.9091111452414125,-1.6388079861455123,0.657493186740668,0.5939989402705503,-1.1543665638522036,1.6256460161199646,1.3927446116251099,-1.386670164175941,-2.0832738082648166,-1.9401935242199082,3.013280790395582,0.06913635967427981,3.2066838422025112,0.32470921346275533,-6.07316685965416,-1.9035296821322967,-2.568581980763538,-0.9615525627504923,1.586127713097565,-0.24721721623137194,-2.2548945269042426,2.502002804224587,-2.3905062935517445,-2.4572018068421615,4.80177663398047,-0.22585797425394405,1.6562389599587601,1.0119491951323205,0.9713157620397022,-3.4139854298460723,-1.957577345641303,2.66765757501811,2.166971315903619,-0.9019605817490624,0.01623552305320374,4.141708125466009,4.300155789869649,-0.04432084717443693,0.3080030060548314,-4.269682470727167,-0.8014473918568312,-2.900568814620046,-4.701402060164994,-1.3175317475320363,1.1777804028227616,1.066351648694572,5.004266517766611,-0.7031291948596902,1.3730945901851157,-5.846368720568411,-0.11217213837488009,-0.8483547327751725,0.8401839691182134,1.4740396129244273,3.490721560673441,-2.428908904671491,-4.072474199612819,-0.8256234595094978,-0.6786553597948817,6.570838956594396,-1.6725898311216487,0.4486855872626784,-0.3412591040489552,1.1545910946982425,0.24228589487383914,1.0289120146559905,0.19562602072535057,-3.3267232568707454,-2.278461850508697,-3.186477366993218,-5.086746341967715,-13.840637764728818,-1.2230588572907206,-1.9525439065189218,-7.541812140375004,-2.1882433735676563,1.9870606952161498,-7.72700928300428,0.15977918851072764,-4.102335618762295,-2.075894305806635,-0.35443100842058,1.015374285585296,-1.481338909750004,-3.374705725859195,0.14641695633275487,-1.2128252642797914,-2.806838212090395,1.2066404913765314,-3.9413908280838448,-0.5190921070420159,-0.37701035669902283,1.2006446725977191,-1.9825329192671564,2.845458112779024,4.105905265636664,-2.575922033354856,-5.033243640185517,3.067119263448901,-4.646849455251244,8.061647268487263,0.6850933100383947,-1.4867633083980247,-0.8549865957278249,-6.433410844569425,-0.4211851344536704,-0.4473940218459011,-0.4550276771799809,-2.3349782560805155,-4.550275218207363,5.049946519961353,4.008289013247616,0.8856134486255475,-1.084495062492751,-1.4116095816399445,-7.547278466507593,1.2710932654319578,1.748094622714404,0.6810842595772193,1.3143873784717364,-2.6525473529161134,-0.39621466012878054,9.774696221087167,-2.555159308049337,2.229920616626351,1.917504943260447,7.464483803682378,-1.8247069514607124,-3.541130382570046,5.491952463796313,0.9808251597796405,5.540189907045905,-2.160365816742638,4.784699186571049,-4.130140953843499,-0.41061031689116406,0.6961622195848803,13.844635782143953,-0.10785620323283931,-4.078369779853973,-0.23997832299307872,-1.1784751639610391,1.3182871658833653,-2.095670904198594,-1.5571083047240069,-1.2863962202215138,1.137792972002363,4.896402825676058,4.577207808367305,1.3907049407616463,4.935971194863653,8.029334045295629,0.5461732165401166,5.063445490730236,0.31064162264901984,-0.9489423549376241,-0.9873190472705698,3.850642429842642,-0.43424474126168766,3.9301512600611668,0.9673384726264285,-0.9807074542221941,-3.3193055579390083,1.8190394399394274,-0.42345325391681443,-0.5320877733334678,0.5790715818408405,2.287447278184435,-1.6119889160629437,4.898793294296367,1.4234601152472917,-0.27910561701318026,-1.1172786426088523,-1.9748891144155012,-2.3681835859055345,0.10088941232482353,3.4135569092076086,3.1972537214252696,-3.988304973270922,-0.543534332190893,-3.3157458363509664,-0.43018082451217027,1.0306996918890243,3.635408110205013,2.723366123968711,-0.13369995933979617,0.517947353387675,0.9211876537606323,1.6736857331670578,-0.473138971602514,-3.787099602380593,-3.844163862114009,1.5686699005542915,0.6674353633115012,2.6426800846045166,1.8693854543234814,-3.7143069571133744,0.9952238591501958,6.5122811446887825,-0.6835701393327767,2.046434447139072,-0.35483605984497113,-6.086647261058584,0.5153630447600569,-0.30430774691254747,-0.4565280682175679,-1.5183504978135576,2.5485593110144467,1.8646922704029678,-3.0770015479251716,2.2324148774715695,-2.4344938627149633,-1.966501147702835,-6.856598309504701,4.064183427343209,-1.1482076665428191,-4.080716648788378,-8.967024510642993,1.1720944118563295,1.3554647011480996,-1.7182033923810183,1.1107017876956353,0.05412281428578271,0.13625943261269702,-0.1773309571966925,0.10191156965014585,-2.1238337721623672,0.7886963668201915,-0.7624017109097297,1.0328894131744397,-1.5151351960320738,4.607556764368269,0.9448575090876513,-3.0406236623384393,6.649077629914108,3.6428406749683595,-1.6684725631524568,2.241284934309344,1.2420205170682,1.2819840893122298,-0.5307627831035157,1.105255802341023,1.7667960854579563,-0.6736219753745585,3.1801683045243387,-0.06453247648485706,2.1911003906781246,0.8522058982090222,2.4173690515059123,-0.050708242535306945,-2.4290182731035412,1.9372210311427127,-1.4831396643898402,5.261346238411663,-0.9844935003642379,-4.8676839200263675,0.9205227159262922,2.9006600664318283,-0.6433404107969001,3.2666697507047915,-3.64378162596869,0.42362818238051936,-0.6933255207533007,-2.1046292405650844,5.359322917881213,0.9562170842818791,-0.9834686484956257,-0.3195184822160132,-1.0658200381830323,3.1700047548966177,-1.2733817635571134,1.0095664384470824,-1.9767164860261282,0.22471350966142495,-1.6681915680327175,4.778132181078769,2.536424211308909,-2.877364029299449,-5.687784865889064,0.7363542749259768,-0.12521550142589727,0.08672553016144892,-4.519342677937784,0.32629720634086834,-2.4678378228221183,-1.4423871283174738,-4.934833241927058,-0.21583118324586736,1.1360041852647529,-2.2508488549947563,-2.8509978194986565,-4.024899974323461,3.6433237408005086,2.9694745127274733,0.8246998858701438,0.8459253191322921,2.145856683558551,-3.7238179056659915,-2.4628344421314305,2.523249466142176,0.23444818020789873,-0.39846869875887664,0.942787173165986,-1.5095305895158224,-4.249322756770341,-1.9058554986301215,-0.7574744558739397,4.379881313789942,-2.764882468098677,-1.7614266844445974,2.4236804315389198,1.1396465077486306,-1.461498017549086,2.0576275589667024,-7.1173715686362895,-4.451932652164287,2.936349085407883,1.1052983651709527,0.6296600920948628,-0.2508246992893735,-0.5235886690820086,4.97434317857292,8.104839701381922,-3.6172902658708086,1.9809225082373239,2.2177515773342984,0.44948526868017225,-3.4702217334808947,-2.261320038842658,0.45993131593065,5.934184954622645,0.03813206741267318,-1.0843536573867643,2.8125407443287567,-0.9450367821894757,-4.760208469054954,-2.419655050317882,-1.7781884795729455,-1.9393638334570509,-5.463478857738112,-2.3537149190736697,2.3161842717029506,-2.9323325850404793,4.405668655484285,-2.8551463807530095,-1.7575962895882262,0.2885249086701711,-2.7119288108529136,1.2039126922294248,-1.497127671119567,4.476785806766708,-3.066522934360333,2.1365160784943273,-1.5831625744829574,0.6065337621952298,-3.377132863777273,3.3017929193948716,-6.553298443589809,3.969189902784703,-4.122299231765375,2.159484819330793,0.31395072380110867,13.901225827436129,0.3088429455791235,0.9507651004236345,-1.1734218617077958,-0.864957335292472,-8.980861535847357,-2.2732083474823597,0.33370705515463356,-2.250403016228386,2.3625300152491593,-3.1638945261713953,6.015005865720934,-2.650738560672767,-1.4178085810475878,2.807990974462135,-2.7331490360341584,3.1057888421983844,-9.665745581428805,-3.0793473909637137,-8.939423998026964,0.876533128871129,-0.679428803082835,5.07169836902578,-3.755639542655564,1.0380691555188133,-6.557306945178725,1.0755378862319676,2.7530572675149654,-3.9171953499276833,2.6834873424138115,0.21593124182584458,-4.195094824125145,4.8348222854942025,6.396471841029559,-1.934202807777023,-3.0751103933156254,-0.7300924041332962,-2.33120046408443,0.9715612837761202,-3.938761112388576,-3.0370957508960537,2.790358884514692,-2.617071169236666,1.0781226485590027,-1.0148386978271515,0.298017198926798,4.667700062799953,-3.8343067508082385,-5.535269705391821,-0.7429879298252372,-0.7009579169247416,-3.9783038233839916,2.129508525007871,4.193920516686008,4.121799146675456,2.285953405560974,-0.2094118083318505,1.3948422134207201,2.7131022574735817,-1.7071227242835145,0.30768217645712487,-5.006835644276627,-0.4847478678234796,1.3381591569534714,-0.3421425197347526,1.429426630498594,0.8399683899218606,-1.0562843545132186,-1.4761672367195142,-0.23289254871991,-2.254363228880902,