-0.6918678705970147,-1.537039879671359,1.2680186203330794,-0.07287653576659385,-0.7204390619824154,-0.1035743714245496,0.40159146971117893,0.2279284167412691,-0.5886285920816953,2.3180197181417994,0.3526620820203317,0.4195762847346113,2.222529471358524,-0.25112727225482756,0.7639546702671037,-1.1665190311235083,0.6502356103238832,0.4056364327692341,0.04710714652730758,-0.47294155638951285,-0.4938205502022221,-1.1051972270662198,0.6668842529384783,-1.4566159965184908,0.2388360646585694,0.4740923714895325,-0.09148990219487681,-0.36802958623398807,0.4490630377001266,0.9328044792844896,1.679657509223439,-1.1962464768487655,-0.20326871001292635,0.19285447865233485,0.8192684316128007,-0.5148078709775697,0.4511517201067137,0.9583852845746943,-0.2635424128080731,-0.653332430061081,0.8953624996532212,0.4595353538878669,1.6784147242690475,-1.4285054270838777,-0.47466883249972763,-0.7903186739788657,-0.7404038652444213,1.745803686217516,0.2698132969662423,-0.40144715606994624,-0.584846451262645,1.0957898109654034,-0.32485691552437235,0.17593057909983073,0.6841645994104607,-0.7373197204519489,-0.9167323650838661,0.43147876357324,-0.36680512861468945,-0.8697464548377459,0.4717074491393282,-0.8935209335327653,-0.3168527420022864,-0.5935692653143033,0.3470745521273419,-0.5980272872135383,-0.08746996947160586,-1.2828827748506595,0.8899710511233482,-0.05270598966539704,-1.1680684794607783,-1.20644332997122,-0.1851805859557585,-0.3588904497916835,-0.04039087568708343,-0.864367667552193,0.23445614083892605,0.14908477241956739,-0.049812806035209885,0.44590062265995695,-0.6945663099611041,0.5793750639236538,-0.4321592863854091,-0.2417041766613291,-0.4754036583928083,-0.8739549818816943,-0.5472234749643586,-0.6910684668248063,0.33091486704854733,-1.1668808845949183,-0.16458320773118446,-0.7866784244735298,-0.09887756603438248,0.2546396958800754,0.7130785729539342,0.3436113539072531,-0.9357971634997132,-0.515830048590792,0.2981241678965166,-1.1615075359431686,0.8808005769920186,0.624683910181087,-0.33541812971416174,-0.29719188717586603,-0.3104962184447055,0.05068271587456258,-0.43115087894119947,-0.23561445680357135,-0.48393163738076556,-0.14733920138406395,-0.974671545937515,-0.8515077919183824,0.641076119448677,-0.39263287014540954,-0.6839783385395729,1.0554011135953008,-0.5909431732788966,0.7788466402212278,0.3111934770232198,-0.28669839838278416,-0.1535291819821079,-0.033784931120380474,0.006399943759449049,-0.3225409194826294,0.23351724385098782,-0.42931857226681985,-0.14713655276816837,-0.12954756779089835,-0.27090046734265716,0.21006919786407918,0.29489206453622785,0.31779392009148394,0.30231035390999783,0.9156201510475696,0.12123060255051643,-0.6604714238746698,0.40148249039123607,0.07460584354103493,0.627524042424258,0.04464330489702529,0.8208873866370614,-0.14627065252092114,0.7692775973061963,0.8562561551176279,0.9898203411275015,-0.027666391917187783,0.3737498008834052,0.23058979657540116,0.9523936659998858,0.9125583167560531,0.7921514178863797,-0.8827788949109069,0.6029742483056597,-1.0323046425801317,-0.1308039733318361,0.4339437342587494,-0.06371158986451814,0.3347190048583862,0.3577154055151839,-0.60178830873991,0.036118584524353056,-0.6257067578612489,0.6809053077057291,-0.8096113033972082,-0.13297464950916862,-0.031079871166542684,0.008056414771257677,-0.399497466727801,1.363521162130962,-1.1687074867176128,0.11169314489955688,-0.6996163826904385,-0.5379963476906281,-0.253450243336778,-0.34279237400807694,0.0029640662566325754,0.4744129843565429,1.073966175433874,0.9299138837385836,0.25719892878882633,0.7217109539789388,-0.7260409750257263,0.6485839415740486,0.8409178173533944,-0.9151111614321027,-0.2454685602379154,0.25368744046768693,-0.1236939871156231,0.008066281768673309,0.09900753179923572,0.002252081287107588,0.8520193112004405,0.06987703534200404,0.2988728040973943,-0.2887666959394346,-0.9099974998012949,-1.1969148671394791,0.23582497242405986,1.2707077005897525,0.933132968806158,-1.1433030972782348,0.06954830647319026,-0.6903550320331996,-0.43915146917056963,-0.41441193406063476,-0.016559441513113414,0.7256715777899769,-0.43604236078722136,0.5289613943722786,-0.6649329949069547,0.7890227098854604,-0.3548560005064202,-0.26454601048006887,0.046169975670196275,-0.19868187039955088,0.8890145405708171,1.040151021252959,-0.04054233046914072,0.6726672024226044,-0.14195682113356037,0.2868597253629789,0.049934193996437844,0.45566641816785625,0.5085586875369957,-0.42150574952146524,1.3133899556786772,-0.35838164615078627,-0.25171415703833705,0.7256689394634482,-1.40773019557674,-0.18684898965984523,0.7295472051411434,-0.3068550679365457,-0.46432414952147294,-0.5904985048001824,0.6244547184782774,-0.709960213864812,0.13154311544532019,0.7143077240566734,0.27408256342613774,-0.04356969538426958,-0.0450167869930883,0.6448991653022389,-0.6903014799739837,0.5370180747710603,-0.004855313702126067,-0.04806722114513674,0.133104263593565,1.0635502225074562,-0.6190384831582186,1.7651982663262487,1.8185361386867696,-1.2680850670980295,-1.6970572453675916,-2.1716381748201727,-0.6845232520304252,-1.9312555296775087,1.3548449611548576,-0.403478698915702,-2.8292836524905125,0.6397227474498001,-0.4392090412996417,-0.7185781160723826,0.19726798122379413,-0.7324118832699009,0.05572275675633472,0.25151703308805573,1.304807664387693,-0.8151259153048795,-0.17803956005942295,0.46009423372291997,-0.4428638026378049,0.18232934503844078,0.7034252363024294,0.0833668299863682,1.5774141756609994,0.8684127448915963,-0.3071331362442604,-0.1782980341074317,0.4442941491176777,0.29108577307401967,1.0248188058415029,0.8106831869844389,-0.8410431880461221,-1.1627466205925743,-0.17545285070658306,0.7772346817095224,-1.460657447739835,0.6698453186457732,0.046218638816178007,-0.4440663679308619,-0.7537420296682853,-1.618345970154235,0.5112581470926738,-0.9919557770735601,-1.286335337646133,1.046969123705682,0.06963492522693242,0.6617153639722949,-0.32495475907054516,-0.608805994215761,-1.1758068830292427,-0.488462474142175,1.8392500664066065,-0.16824543491680277,0.8755576187712347,-0.5487285993664972,-1.1502608483803956,-0.3190838659918517,-0.22110696857136974,-0.44753128244722923,-0.5655364270843884,-1.3813469961789648,1.1884911306440389,-0.6388463927551615,-0.1790529905747793,1.9121158758273888,1.1736280618762343,-1.6910478853881785,0.7998480588360304,0.5000195744627477,-0.765491998866546,-0.5110443574701298,-0.2965776176798429,-0.6617958237930477,0.04257543050004375,-0.06192362874868323,-0.5810256941230174,-0.396866759058961,-0.6341725605583121,-1.0455015550750826,0.29625360195741096,0.5750634803934221,0.9391197422248014,0.7884911299197946,-0.03716759826099245,-0.046363439565041506,0.31307995658737364,-0.8387572271823284,0.5158463348446941,-0.6776358090154733,-0.6440715420022275,-0.07742193328241155,-0.7652093606244498,-0.7047948084456168,0.17575376858088834,0.1320631801587117,0.585966068211632,0.29040509598314473,-0.3693024853913612,-0.2628188303000289,0.042745722764908574,0.6771430335904068,-0.47010691868734295,-0.2557844414611001,-0.30835967746341164,0.4566316060399673,-0.3523403766710488,-0.42779198402252855,-0.14610988817381623,0.2030838690009498,-0.8355519187567542,-0.2695527346971875,-0.39465723006979686,-0.20178688347174126,-0.22680685247922655,-0.22080083739042075,1.3904195841485039,0.7638345093365965,-0.7884246136933665,-1.1518892595720451,0.442242509487915,-0.05174233209709271,0.9173945373084191,0.8863676667587154,0.5427747512098767,-0.945012829093745,0.9133810927193812,-0.06355226355687134,-0.0023699825414545193,0.08738370415627435,0.3484812621388143,-0.5860564065633076,-1.2316702790420648,0.4513782673473165,-0.6665691499593769,0.1077114128865764,-0.986407359717288,0.9829545284796146,-0.007465062502426894,0.04053891178046927,-0.5145658369456014,1.9358220858324429,-0.8548140626279508,-0.13681119927123622,-1.0478330623550847,0.21017849284039292,0.5261748902330486,0.27364546692205105,-0.35175422347494056,0.3645600026069633,-0.5553029146658148,-0.27609955891825994,0.6769393046811962,-0.5318270352599512,0.3468501467323159,-0.16592507660490285,-0.872156346663292,-0.5367811346886426,0.27676893704031036,-0.7031566669175658,-0.8177228949487081,1.2926141302925023,0.28888626338477513,1.086711035798753,0.2036556641671154,1.1975345263745043,0.3197612022412033,-0.3040100038850997,-0.6059742759054121,1.1306138789290723,-0.7517782792729906,0.4872479785347921,0.5121613782434998,0.856519283702345,-0.9988770436074924,0.2951821869017781,-1.141580350009807,-1.025858389278085,0.42743040944600297,0.2468826398470947,0.5682354126556209,-0.4200993016687409,1.0242713240989063,0.3175961812988214,-0.6239480739448069,-0.5625800706179528,-0.9368470715928263,0.15169725349834884,0.11444053807889767,0.6252246450341318,0.9272373500073732,-0.24976450762731522,-0.5059202055801356,0.6110478421082971,-0.09612105074346963,-0.2976266745190117,-0.26714999188778527,-0.5488661551447728,-0.3248213238185839,-0.5404414420101302,1.8286650494807044,0.5617532776592246,0.5117707880147153,0.7804672743722283,0.9787441446283488,0.034550561690841655,-0.42386288384115417,0.009213894228861031,-0.13915269567490177,-0.5494339421078256,0.9158736466310998,0.5986224178527147,-1.382001686873624,-0.6266863050761649,-0.35323318685056854,0.7389506028333533,0.06794701369546795,-0.17361246879455566,-0.7871107901377641,0.5610543939918797,-0.5787254129254144,1.9167243487770627,0.5833916218621724,1.6337496833048313,0.32765175042719324,-1.1325926515696843,-0.2893063544707616,0.5082676178442513,0.30983497884268274,-0.8868917279788323,-0.2285274292548667,-1.4925244185978912,-0.5632087089294096,1.2785223450999117,0.18006365255478404,-1.1958774106336336,0.05799613315415777,-2.2499659247836634,-1.4776557267090726,-0.7165819717913495,-0.5391871519992029,0.5488510460622373,0.30869250095954504,0.6604485125358515,0.8815544281174452,-0.5315876777633219,-0.12887015774964786,0.22877532524816876,-0.9017898122408871,0.21938145730722386,-0.9284838947098527,0.5604950107495376,-1.4348729109658336,0.07737550621727529,0.2780056375843944,0.3225050865963996,-0.8029733686586354,-0.1341382813828152,0.9065258697163578,0.07732891255681576,-0.020717445739890875,-0.14145197927909003,0.1565753169670985,-0.15303496921164247,0.5242532632692366,0.8995127530349084,1.314168193573334,2.038283385821549,0.4096340647495062,-0.7030410165030283,-0.43918462905857686,0.5880688715475951,-0.6533330658964902,1.7238883620369554,0.13882370892523563,-0.7532319595629927,0.05604009966733464,-0.1732081591296141,-0.7287295667251048,0.8979864960900993,-0.3307180458571531,-2.2039527755751314,1.1807030719846134,-0.3569755895079384,2.0746614456991512,0.5585494942208279,0.09165795184766286,-0.4354033105613022,0.9667328672313314,0.672612930087426,1.0124527388906748,0.10464631437258926,-0.9036365854167925,-0.8422088913435448,-0.6010997754434063,0.20046861936044277,-0.5648651971982219,0.39211997137791427,-0.18598495167993218,-0.2547800037090525,-1.7837447269512339,-0.8256925557167415,-0.8701293913448738,-0.7221291347774048,0.6589995269945458,0.6838160304406506,0.4811907484026657,1.0427879187411406,-1.710653301402991,0.28200032255152585,-0.07501993059866452,0.4212346718658472,-0.4333382703316788,-0.8564139355942538,-0.454187769981087,-0.28815214971071884,-0.7222134440587603,0.7779995234272991,1.3578388876669476,0.40888758663945146,-0.6365501130380992,-0.038913363319797084,-0.5975602600411589,-0.513426422332586,-0.5898716757146392,0.11772084426698136,1.258626713820923,-0.022270484218901362,-0.22842685964382045,-0.3892246022728991,-0.7536105057147717,0.17532394925209877,-0.5366079471271538,-0.07742173998250386,-0.1802920211675649,-0.7207835558973823,-0.1425123184761913,-0.20202675935398468,0.005040259318105216,1.4102130561777515,-0.2760140611160672,-0.4610541608785922,0.8107563471972142,0.47379462624486063,0.6642563215085653,0.614114004553815,-0.25934530156124064,0.07594714142792804,-1.265450188401199,0.1545796320425283,-0.9355860493149886,0.46865037971968704,0.9650589406177723,0.3999959699016659,1.0616782232283253,0.3201408883766768,1.6222862774263165,-0.554520048400516,0.7087415115539885,0.6956085569239806,1.0267159482401207,-0.4706471521010221,-0.6418567514995175,0.20555927161948312,-0.9544662198878358,-0.6178179974405629,1.253553769341518,0.13754932087656008,-1.350243744325697,-0.002415976856548872,0.6293835917404349,1.0811125224760885,-0.5996494991248529,-0.5025056844907441,0.697004600702447,0.7028942416842454,-0.6068771213420494,0.59900499169539,-0.7725753595094703,-1.3769786159654878,-0.3128879156277273,-0.21133981533841104,-0.6703805773141928,-0.028808609062599196,0.19885282033637858,0.32070708883547316,-1.0000089962890235,-1.221624889894433,0.20793690546528404,0.6885340526155956,-0.9116974295512031,0.5539012791376795,0.29819674475205876,-1.0717842124464698,0.9536332353484732,0.8151974601231256,0.05205436747873673,0.7456038206210883,-0.24638155635816553,0.09384531899142845,1.1496123692464748,-0.1619282432277316,1.1260573138275531,0.41181586130942605,0.47739196159702674,0.8977121715650872,0.5759310702310474,0.3108784804460403,1.1762970621418691,-0.9809234433083249,-0.368135319423585,1.3281359885528825,1.187784379198631,0.8733317747480963,-1.5515109922333086,0.4273091612904898,0.5934779137771611,-0.9217084914609112,0.28413098829660477,0.762741054125503,0.5692837390573084,0.4925857296672738,1.2461743782323722,-0.28849251832987494,-0.7928054645589404,-0.6587176562353926,0.25322817188301006,-1.1025165457795478,1.620962808835054,-0.5295683826651987,1.6185344536987734,0.1617997568720775,-0.24450138017462972,-0.4424519138010983,0.7098222642886038,0.3893284991669651,-0.2913140957276565,-0.0341850598599488,-0.9061672400797626,-0.6015410331858958,0.31125477337477625,0.856922486510345,-0.42639861410124935,0.4038539570274655,-0.3511236666713614,-0.5007216466844037,-1.0345488143112096,-0.30332176393559446,0.3241200869026943,-1.193663203391152,0.30744335179426424,0.28159553522972564,0.3486198790909426,0.8520386806083087,0.22901759945012326,0.3193251906838417,0.4925959498195352,0.8131245928346563,-0.5526232994520469,-0.4688800194015629,0.15584482775519914,0.916163878374632,0.03349962702149377,-0.2520353655913616,0.7010419030155312,0.2877458103506044,-0.3310083720732835,0.0010924800610817628,-0.4518718916277985,-0.38443511965601634,0.3505807844325231,-1.4096063587517214,-0.8602305400122011,0.8857301609396538,0.4106640662010071,-1.4084457679779028,3.2148404369481343,2.7602295710887974,1.6337738214985529,-0.3389533280352252,0.07482815218882657,-0.09047058353780316,-1.8462315383066208,-1.2498622223204892,-1.3675974813897995,2.4769321605285337,0.5324141517187315,-1.1638011375749604,-0.7387113642172565,-1.8927173876557732,-1.1358915873850832,0.8910436135419629,-0.0902723206317453,-0.30979802190560424,-2.09107575776519,1.726073654894204,0.2867790989858149,-0.7048107057263213,0.20258795647593925,1.5792938112736747,1.7323756037803293,-1.462607357176973,0.5169269515324335,0.7542235750029197,-1.2770155532873655,1.2701061448345141,-0.12007260255378636,-2.4099005988722584,-1.0972632945230003,-0.11722976884018119,0.9774180344127668,1.5162706222265516,-0.7134634849455573,0.04357410327665256,0.05172595663394965,-0.33535022943547216,-0.20409661964378076,0.11143748691332069,-1.538565335698521,-0.08474922754521144,1.3541562504768498,1.468939855016399,0.6144133619689806,-0.8782044138762334,-1.4717254212787076,-0.1460221304322853,0.6202323625376039,-0.7541418544020568,0.8231394147127518,1.294523413849271,0.9213489446573637,-0.46071378303429855,0.13135676446143635,-0.6735763767648977,-1.2197108030918873,0.14368575202160205,-1.7688161464263163,-0.960459969694928,0.5614436196985088,0.7936976065488055,-1.4175909289133886,-0.7373152597500973,0.22747638709189358,-1.6455456424420767,-1.2954968163065526,-0.876963819513216,-1.9914300872096127,-1.356938723000619,-0.40204187362576177,-0.9510051528744338,-0.04170125580120402,-0.11683665903363948,-0.39446655708727446,-0.22840636217933183,-1.0051106619324626,0.7423235798686393,-0.8397648938124374,-0.4553439016313985,0.2208261081415464,0.3310888679091459,0.18553394685376814,1.3233452230050784,-0.15918664442104993,0.7095183686998376,0.11093185991337691,-1.9406899708897838,-0.29493432980500595,0.3183002562222097,-0.5919578370640066,-0.08836062592329937,0.5478957145543097,0.2073479506448109,0.046310376672758474,-0.46359746223053827,0.5255707193175356,-1.2955857956955474,1.0215446762561822,0.8268291192130083,-0.37710319795954067,-0.23607229759565487,-0.5765785538011977,0.7381781292267582,-0.16531695634948,0.2286417760519397,-0.3414157318136953,-0.742114513086287,0.8984676656636611,0.6574589193167951,-0.36848419324722215,0.9981676049099645,0.4374175982638611,0.19675772698438912,-0.1717149258624216,1.238987625300743,0.5890197373144734,0.036582072094612825,-0.3567608256864168,0.010042124343685207,-0.22489074843763412,0.3367860900824562,-0.5877491680299616,-1.0624297566223395,-0.04485188778644455,0.5716444146608163,-0.4401293373867426,0.05816057712084783,-0.8999859755700097,0.7535531691821771,-0.964221891906366,-0.6979986744456118,-0.3735642634749398,0.5619655886838022,0.47551160652253416,-0.07977738968088453,1.42404513589668,-0.16504057839531278,-0.4276847001526792,-0.30760324999289396,-0.596778080330654,-0.9972970496552619,-0.0776189891954058,-0.42344532402449403,-0.7572173122379953,1.1040188949820928,-0.7267381156109561,-0.3046749101873869,1.7426438432084281,0.6936228936491409,1.3153537953400118,-0.8648026687666315,-0.6285593821009378,0.6788626090126834,-0.24785699277804515,-1.279045220977758,-0.14899495567414245,0.5402071230252686,-2.4317339145425096,-2.182886704162145,0.06436673916112162,-0.11082584350120449,-0.5455442991283377,0.489856666705905,0.25496029163380796,0.013639570628100877,1.7062243592327737,-0.845627156705281,0.5786967544731509,-0.6491831297678636,0.03126753841110942,1.39648144448604,0.013629053226102179,-0.37504391957007166,0.2842683295868589,-0.4609986685096366,0.47403096339234385,-0.7313709064199573,-0.8348554112155931,-0.838955623154791,0.4818759993471057,-0.45867434023251474,-0.7366652867498175,0.17649203553579879,-0.39779789024338247,-0.39947881243922495,1.4603015859821247,-0.8895676665488654,-0.09899804133491365,1.96882257648403,0.46394394883997697,-0.2809833230176883,-0.22005054743641198,0.05861518941292968,0.7198610933885949,1.1364569358710437,-0.19175415334716528,0.7143648583246149,-1.3528743909280991,0.4518045641934225,-0.45347856198154324,-0.8960229467119234,0.047841001374429704,-0.9267148805770649,0.4002210237141691,0.31149698252940716,-0.06721214151270467,0.19453463293589904,-0.9674147129834328,0.9179618299606361,-0.9077371934460724,0.25772706905422926,-0.1365919981471013,0.940109322038191,0.639755827322119,0.0879082042452232,-0.18229832061230938,-1.4476533448411615,-0.616014373384197,-0.3668941334407501,-1.9639915888235742,-1.1489907123625664,0.982213600021761,1.595216105821237,-0.7253866688918043,1.0572278855589263,1.0550292112400808,1.2968329323728824,0.9276328928348109,0.4452218673514826,-0.0672718734906779,-0.5394961742718821,-0.3438098773885125,1.1577653228092397,-0.5486688477716047,-0.4037184299473359,-0.9491312834819694,-0.8141721048433163,-2.9361314453299654,-0.9272947891891342,-1.1140767590684717,-0.9889404693683547,-0.09658688291249903,0.4974177693205203,-0.9436309922681251,-0.009835180094909536,-1.5918937735420227,-2.641095925849688,1.2226455985963485,0.22514815297333857,-1.036805177708996,0.6489598542157407,-0.4028606490183181,0.005815834027566558,-0.5778676126559761,0.8895612213011136,1.543882346852608,-1.2143820328785933,-1.7888092717089263,-0.2984064701587548,1.0378142146516989,-1.711274695473946,-1.0421345879137693,1.2794711599879482,-2.4499120250472304,0.041207637383708196,0.5928567626252012,0.4355143387075498,0.9058830798317399,2.8321670384366597,0.5257402858490124,-1.482838140652336,-0.8632344907317905,0.31354148138613225,0.23434614118582647,3.4285299113402328,1.0432922029340737,-0.049769222608129306,-1.685794792006165,-0.42876803105167244,2.8743063451573985,-0.34075009927843747,0.39063244157712596,-0.04776963262364829,1.6140088571334077,0.2661001822562026,0.47041425925684727,-1.0162321060273123,0.3567013059377247,0.19719325948171157,0.2702870343189299,-1.2050864912674926,0.716175808869911,0.29634581860749004,0.08894413080385966,-0.9141690726776822,1.5217070631084963,0.7832536624793524,0.003469699530059358,-0.9866168855495551,-1.2126422013606646,-1.0619606815895275,-0.5645618758078983,-1.098714008531527,-1.217692726818014,-0.09746003056165115,-0.19887373012293352,0.748423931574155,2.060259370740421,-0.27714392983640673,-0.3865424383214094,0.7552197644317459,0.23738559544084317,-0.19574881651767467,-0.5628294248467691,-0.6809879901462432,-0.2500451955349401,0.5937951865274177,1.690118755853269,0.5861765876965879,0.13445058283569297,0.15944581509799885,-0.728545496592099,-1.48229048790872,0.9811445442691568,0.4107907922303,0.660495545289967,0.6540850872549642,-1.0285315407650197,-0.6750614844768787,0.7719240483604111,-0.5645447852845946,1.1109356642648325,0.8861398662471706,-0.42744453512832503,0.5258260652792613,-0.10904142458326875,1.0724400036197317,0.7957815811364505,0.13917212352425506,0.6408321054200549,1.703080785460183,-0.692187956077949,-0.7428974517009029,0.41808452043824657,0.5950335577335548,0.24507791999560596,-1.0396313238449428,0.09079477946572138,-1.3581328659261123,-0.055758548449347446,1.6529391622469607,-1.3691778932132317,-0.5246672095523345,0.21621539708802437,-1.5536034619794106,-0.04230445090226793,-0.14788653978430227,-0.10260902492465575,-0.5155770015193111,-0.991992121512841,-1.0158950408270855,1.1815695763926488,-0.6458565319571911,-0.8870732780278671,0.2778201365821775,-0.7024115060878838,-0.08063233613902519,-0.3807636299994517,0.11940717149748853,-0.9617350195226229,0.9369076233621072,0.2051485103525695,0.6368729913093704,-0.5915193161729835,-0.25767060373936457,-2.0914356289003466,0.046249562128658855,-0.9149571928684412,0.9419824152678499,-0.4581151187559038,0.739174532119817,1.0669434380216694,-1.7230884474348733,1.6915375449798202,0.3807844703367275,-0.7778661959917167,0.3369772513144091,-0.9758861042212373,-0.0030042671856022906,1.1481823582961672,-0.2103512185996275,-0.964271248705417,-1.8475052264311287,-0.9795740268503282,0.08322374069804284,0.08742483250589039,-0.07931113418276568,0.8603055592316916,0.28454947938940245,0.3796573806010078,-0.1570542666130066,0.3109573226251138,0.09169864535628591,-0.526459704620946,0.32232129309790025,0.6420611919851582,0.7673899167776814,0.25384054197643846,-0.0711783773855952,0.31565715316679405,-0.9339446589653944,-0.321459604630779,0.5701511801643597,-0.2412548636775081,0.760356490252919,-0.20974657510085898,1.3595046854786736,-0.22600176371976743,0.41586875737442813,0.8419600050622462,-0.36065912614983625,0.46791854097899965,-1.3840389007547405,0.6476156649581919,0.8192316040843981,-0.6279972323824807,-1.427300843553831,0.9907942391501767,-1.863345086615065,0.015153286499244866,-1.5800541048837062,1.1246816365874008,0.4648498503269742,-0.443465107293786,-0.733317697288747,0.40828504246115843,0.14057100987801993,-0.13814158085386513,0.10850561124344472,-0.6487596717772138,-0.05223916141217415,0.8205864316496215,-0.23552854892776165,0.3740924572610146,-1.4373035950477202,-0.18684560699148464,1.0500567845283588,-0.47870930988650473,-0.017250021880740228,-0.440342686416437,1.9339001081345972,0.5434462784002934,0.006308799205288218,0.5953364690236576,-0.03367835114831008,-0.7083933371289484,-1.007647957866026,-0.7017305834401534,1.0966611459239666,0.1303316784536782,0.5347122233834259,0.9245166086331612,1.654994117763515,-0.7899363028753019,-1.7390794099968845,-0.7114904771923363,0.047306864088494806,-0.39677140638935804,0.047844298648516484,-0.5113112739159029,-0.4513731405493209,-0.2735213210249515,-0.010079181908354147,0.2807204458773944,-0.12016294814959291,-1.174247243953112,-1.1620191391034493,1.3331025170295925,-0.5410167768417423,1.2764827578129758,-0.5177454549909892,0.9146819498953568,-1.6778392852281445,-0.6523307398047898,-1.6200310857227338,2.2555241248772315,-0.3017369014712909,-0.033770033456366,0.4139058631707607,-1.213921405375653,1.2804853237185698,0.5935276243264503,-0.018648994084880275,-0.3311924703435356,0.8978052836786601,-0.5167619350937301,0.6868041897387468,-0.2163413183899204,0.820844755636747,-0.5234043470399282,0.0871911948387456,-0.8565331106812568,-1.4808417302482981,-1.0669404767561443,-0.17028130154730642,0.9138999617836457,0.7156940067094776,0.8343226946372976,0.48009753411409767,1.4414803587335616,0.4718523455015673,-0.570979545363957,1.449644810344977,-1.6276268851518163,-0.8891854660564146,-1.4773974480908925,-1.5038840032946807,-0.12660052634882096,-0.8065885501277444,-0.8176697666766763,-0.3889167346642781,-1.0649930839870627,-0.15325664514320694,0.7886986113901724,-0.7018185422279503,-0.9510669911167805,-0.34947071074330244,-1.2723788756905778,-0.2615958147335376,1.4821803419447892,0.6366159292950255,-0.8330715000052896,-1.000033132975688,-2.163973075492666,-0.9663611573581806,-0.6213243789714765,-0.3644605954541046,-0.7459053152236982,-0.47958356674822294,-0.5360291578177245,1.0976200771713622,-0.49714622139890235,-1.342148119714711,1.6509947167818226,-1.1012920828257613,0.5251117030097636,1.5777588051010427,-0.35345482653443133,-0.26471564774309964,-1.7961552776701475,0.8095445956136059,-0.37702423039802613,0.4390078774890913,0.25114867014612174,-0.6024747972940039,0.7859300446138012,0.7598960262340191,-1.3579022151338407,-0.15172641136667953,-1.13956925840551,0.550145059236831,-0.30062931450697233,0.9138412432673527,0.908495520265115,0.458035911886172,-0.3643896220551639,1.0942188592281876,-0.794646587114762,0.8459259627191176,0.46433024477137846,0.6384112186942081,-0.23906113159624043,0.5326231074202915,-0.20663828874035817,0.06440846589173393,1.4575559135785545,0.12201037156739358,-0.19096442189689972,-1.0582319033132568,-1.2311660383957308,-0.7257284550093928,-0.6581946698624126,0.7291752818754529,-0.02832795269525488,-1.2168779146582456,1.0169337639003377,-0.5672353957909091,0.8771248651487801,-0.6940723929572529,-0.4025715329723178,0.4534493233393204,1.040691239670071,-0.7320132271638519,-0.4877345496147948,0.5878773048825622,1.2046935878275271,0.48829290524793756,-0.40181446936062665,-0.494515737407666,0.3158729339004761,-0.3535797713870417,0.8889923033285544,0.5528187186308249,0.349659915732677,-0.5871774799295788,-1.2611341384623587,0.7303600986432376,-0.10649183986455342,0.05847118289686312,-1.1782414926557032,1.0432133206047844,0.2940606427609514,-0.10498018933284843,-0.2647319430702309,-0.8085111388930203,1.1701871900086727,0.20005216327828548,-0.6462240290750658,-0.6162713478077199,0.09092149638331985,-0.05220829301544684,0.35370596604454213,-0.16934794930654767,0.12999668993774632,-0.2459769678481402,0.05374220591157934,-0.6288074271044756,0.18351110039436122,-0.026219818913562672,0.8798332479265457,0.48315036411995965,-0.8798749698415277,0.17188735906098568,0.5885300800387285,-1.2162527697921015,0.7641409204383227,-0.9159906338118933,-0.35304926027029304,0.051829973057056146,-0.5712148439719733,0.8494734554061096,1.2938388157900504,1.3957432676223398,0.5519644992144659,0.2934968063686209,-1.0474157951987326,0.28852195235700295,-0.18927501717675044,0.11167249767194348,0.7003781497595141,0.1873649132552521,-0.03568028614429051,-0.3045003082454599,-0.036979446962125656,0.8057808750933856,0.019367421012157177,-0.6839332999131552,-0.5615983214559539,-0.429006753464658,1.0451260513230065,0.08291477916120497,0.6696658764416297,1.0894214371599442,-0.30656003158475686,-0.5245636957994249,-1.0014045841306314,-0.9427396643410426,-0.8182263740354628,0.3816914893572419,-0.31764714537817035,-1.630974901544867,0.5248752154537989,-0.19036765448819518,0.26253844466087284,-0.04437976955648538,-0.45270659711667965,-0.07293086256458668,0.4234190810381158,-0.5156049916926521,0.4563953238475595,-0.20743024453719663,-0.6067078465280675,0.5580673962250848,0.48276034519189953,-0.29841626652175324,1.7748459552024258,-0.09025496154017294,1.0328409726658943,-0.4852901943285408,-1.0208426255065712,-0.5078390264931398,1.2093907372959283,-0.3018812358046444,0.8401624239789566,0.44535415954235225,0.1875818549154497,-0.46651932036528243,0.46379153793733147,0.16491032465760433,0.9477255390749241,-0.02559958915507145,-0.041289485644722276,2.454656511663333,-0.6123378997262401,-0.21501863458467527,0.02769247432733974,-0.8389975111589442,-0.6785982975367153,1.5503188910950894,0.47149456795614353,-0.7075576791313337,-0.9320858906758432,-0.012125843820094042,0.23418413902951457,0.10447550099537506,0.13074720780661106,-0.17710985411799268,2.1307233271971295,0.19952760621389753,-0.9904143590576336,1.12701850056686,0.26495079535480565,-0.4063700844204897,-0.409023912763653,0.87459632891722,0.932725314786431,0.5393805417136097,-1.6138986741297285,0.2684081966145019,-1.1837647512816618,-0.7636682856262884,0.16073683676214406,0.38186289772637055,-1.2971246607556912,-0.710287482897524,-0.24021520070529043,-1.5408559662749473,0.6720229041526914,-1.2277783854576896,0.6672733966397539,-0.19544993250986326,0.7981128693126515,1.1092466953691977,2.177830155607628,0.7446237497882302,-0.33332227568228884,0.14169927454588044,0.6213590973132315,0.7027257981918537,-1.1866986740615733,0.5337127354945029,0.1978652641929229,1.1981001941236455,-0.11397749399137871,-0.1488344409919917,-0.4543041334307011,-0.5971354876734754,0.5055565839601801,1.3123488153537581,-0.9228349293580805,-0.42529550826203016,0.4789832161144185,0.3935709463751644,0.4580052339394783,0.45848583019902234,1.4695016928842324,0.36620155967602097,0.812005012106264,0.6034095437243487,1.1648240113204817,-0.6075825475147816,0.21689466121119239,0.5061299837603732,-0.6954453946410498,-0.015043200775718971,-0.8488969563453996,-1.2575763663157529,-1.4371168715501232,0.16285094555834773,0.41367709353288634,-0.6501023883069148,0.09830429377899857,-0.6648975073108245,0.16751357330489322,-0.06105322377255614,-0.4591711257557931,-1.576075745446679,0.06459861236197253,0.7966528850942576,0.7115160148041016,0.8635223241430271,0.6741574986863349,0.9574449661576947,-0.2122807457016835,-0.7136975998583798,0.7073419915234476,0.38731652237965697,-0.8626607335275832,0.17098935310942193,0.17368242265501063,-1.0004440914632613,1.1194860349302418,0.5451037308574871,0.623802714959708,0.5220345769039201,-0.569959752731883,0.9133326122120226,-0.6655404876590778,0.6726777327077795,0.9841949868198918,0.8994337980685418,1.092595186061144,0.05259503553970267,-1.0294588872132957,0.3910403686369102,0.03834592252665942,0.1768070708634955,0.446221984038565,0.8953609223676567,-0.8170872486709894,2.302522991285332,0.11851373819914209,-0.7867605329727503,-0.664570351403503,-2.0211241052707627,-0.6728699659877726,-0.31456900348781686,0.27531388154180136,-0.12850136750235258,0.8270890348009823,-0.2405203835335051,-0.6315909531322621,-0.14636336132573496,0.9375889157369078,0.18914930898511745,-0.5166582036748769,0.254319697357792,-0.4123262554859933,-0.7429651040438918,1.0978621599961547,-0.7600279813861334,-0.6050770048890965,0.5827397688901634,0.7964647478591136,-0.9477048403717441,-0.48358179598546874,1.2675757430206027,-0.9963571913812206,0.6278819060057029,-1.1426701621528554,-0.48410860788349663,-0.9972871210764795,-0.817508471284591,0.2709623797269742,0.08998258033178631,-0.8747890772783166,0.8717777013531011,0.2750259764855987,0.5518790768776303,-1.149199136602326,0.20799897843960513,-0.14914620788655292,-0.8010551393005887,-0.4630317265507628,0.9124231574257503,-0.44326572419358523,0.9493252335851315,0.8635051722154721,1.0430357813693172,0.4967492780052792,0.7266949056508692,0.6953527099936534,-0.34566840267703736,-0.5337610010980041,0.34645365954847374,-0.5663721675275603,0.3961290228935572,-0.29716460775145054,0.03999748946332618,1.0776183273549915,-0.6302671627765081,0.5238247682521675,1.44417002178642,0.42275557343990283,0.23715107453031256,0.16732694864536196,-1.0886758528917302,0.49046835111145465,-0.8292977397268795,-0.964870866564733,0.9102650835951993,0.4084021595243467,0.5892840768486872,0.17694971908188498,-0.5950234949678788,-0.48387000968685023,-0.48825953220439866,-0.46330876597930054,-0.11433889527358512,0.27780598662147976,0.5098338120236896,0.46878960430801786,0.13307589958050317,-1.5050205659413156,-0.5442187763242111,0.28653054724236443,-0.6167759264458502,0.15270468425325387,-0.5976306830491164,0.8404669574621108,0.30787318995813634,-0.703882282747485,-1.0117568002257458,0.5897020989889799,1.2034002029920918,0.636225352036144,-1.1255232920778329,-0.1484484744887549,0.6417804952329154,0.3929680001339815,-0.18551854964899472,-0.5306110753599301,-0.14662683883071195,0.2565143303864448,-0.8563308467842534,-1.0640047405152926,-0.9619648392820244,-0.22824921859637426,-0.0026246584546004157,0.9468858237189668,0.21868882605162024,-1.0771458298258156,-0.6460285900800705,-0.7025541632602039,0.03367742403469824,-0.3361610166518495,0.6850582069679951,0.32984393554891556,0.1782639792764872,-0.9214342105326048,-0.6495626208426029,0.25852795942333395,2.2438729296557427,0.7452836522258862,-0.34646844397889737,-1.2408555633790468,0.8415679116380983,0.4245174465265779,-1.4481227270637331,0.997781742826995,0.35757077034963614,-0.6368177538798393,-1.4275317284364348,-0.5190557062039658,0.7259009411638588,-1.3476054904526389,-0.527320001484369,-0.3835673615879317,-0.09406528416471074,-0.3315427594081309,-0.776509095342322,-0.20149067208414861,1.5302586198751458,0.04284797337892206,0.07635411976574591,-0.12680695329607153,-0.12764287565294213,0.8657669373413865,0.43527779217907786,0.02655486517667165,-0.6846693599640463,0.4878291359370305,-1.242050709651021,0.885061991459429,0.5570982922036678,-0.09969943099933413,0.30541801571581123,-1.1763551017112202,1.1851533761391904,-1.7232243584261187,0.7009796091319934,0.4000527383238288,-1.228283420292934,-1.4916288149078185,-0.8732906468676193,-1.16454028015699,0.6530429798387153,0.29732797657856874,-0.8199863913904211,1.035665858108505,1.1033420033107952,0.9465528617862471,0.5670266679377847,-0.09785312499780463,1.3683989723254806,0.481511494814137,1.0325006899415672,0.24624094409581523,-1.126617625872285,0.9921595087773145,-1.1200569844498691,-0.07038289878353368,0.7585468209519485,1.4118229183408726,0.8100301684180768,-2.1882076239468504,0.39017073087691667,-0.6072736220074672,0.014713558305857933,0.7780483614294135,0.3087495445472308,-0.4757605194868015,-0.23909368659469404,0.39477881334585135,0.054322717543703734,0.2562464029331115,0.4416013007464005,-0.2277945545210642,0.7562086651881598,-1.399808993697525,0.7187245586499098,-0.9129933882695359,-0.8830671656834281,1.330183955806732,-0.7118880169148974,-0.5665870423447767,0.5906061797577637,0.1369278790916872,-1.3309296969988038,-0.3938080298787513,0.6259500225356895,-0.698119378680985,0.14397738864667844,0.05021572962542204,-0.15140348612275575,-0.4343591441765876,0.34138362766650915,0.49465810591895115,-0.15297124344306998,-0.34979043579627545,0.32554823035185776,0.4233417831993725,-0.8616054644080999,0.6652675225612491,-0.12067285367224498,0.48509167714418633,0.5648031221970923,0.20812759254810975,-0.13685524896821322,0.057980642209958556,0.3270060428001942,0.945254206015214,-0.3767477131714038,-1.101123312261452,-0.8188791637874683,0.6229203502135408,-0.20358139823735458,0.38295652685484594,0.008353260887040833,0.5572910233364327,-0.8562667965560424,-0.26416074117288924,0.18286872442747035,0.007131341730937674,-0.4180939716704514,0.676583160665978,-0.3543267488463457,0.36439786659784773,1.0087596752746515,-0.9582729528684618,0.4139201773343604,0.1746940018304954,-0.9266376973841832,0.19309870339757776,-0.6764186319434258,-0.5166516272237884,0.10572651743645421,-0.4303982785392714,0.9382094075692741,-0.718061003976942,-0.8882886032935015,-0.7852343866930178,0.6809811029311423,-0.31418311838354473,-0.7151147317592776,0.2550591417227941,0.5572213577142356,-0.2661847603576676,-1.1126587034949502,0.8279090561077729,-0.2953768266430821,1.2447037727219765,1.085515110999326,0.2394063839337408,0.9264105788401377,0.9061237438141996,-0.7532584686097928,0.8656819251387646,0.3443358648199146,0.6645552036703891,0.49876011196854636,-0.4411833368384091,0.1451874958103166,0.8289115080171576,-0.31915781550353606,1.041775243674639,-0.1307801070087633,-0.6148870451510726,0.39044441879487385,-0.9901692012560541,0.38298378264602345,-0.29264235733795146,2.1845005326925366,0.13934744735089893,-0.36459517008185166,0.46992399964672754,0.7769828532267559,-0.3741973750258857,0.2728214742916528,-0.4075144478982818,0.7238884677235262,-0.6393008447836166,-0.7149586940872777,0.5512227195034081,-0.5865103481222157,1.7297886472783282,0.3619545008060193,0.7564762358917587,-0.27784952506614496,-0.9196065537767604,0.4694200151898114,0.7229570894769864,-0.2730136080315986,-0.7809857950728516,0.5058631027678521,-0.2855263707888186,0.044451716755183716,2.123660506282641,-0.8396138110322735,0.25729869330437266,0.12677424145794575,0.6656114494280709,0.7817579189056582,0.9293249024937489,-0.2765678412220517,1.2392991867939778,-1.3116636487456053,-0.6747268480359637,-0.3287777257490115,0.35777251856979225,-0.7132847365601485,0.23992657423135483,-0.01645200278878763,-0.8454262051681322,-0.5069576689009317,-0.09527937641236947,-0.9940225563794648,-0.7767447449008646,0.8321252134004666,-0.4139617042133105,0.8764589607621485,0.5353543490060895,0.24481847542173385,-1.0544929150833229,0.5644330906934892,0.17429697127358806,-0.9102929870279515,-0.6188486194484651,-0.4184137023693845,-0.6206116587967733,0.7479042092452941,-0.6492818289893483,0.4861501833470686,-0.6050454695751926,0.770998042836711,0.9686162604107845,-0.6450092064375366,0.9218451763055541,-1.229840136717377,0.47014454111197523,-0.2717460657769234,-0.9208140356184057,1.6070230503037708,0.39158633563368983,-0.45834081729361104,-1.2261242011048952,1.0183659768152191,-0.03236332386767399,-0.6094342455122781,0.08412188540123335,-0.31153873080114697,-0.5632199133935898,0.39043363703297534,-0.834095135283798,-0.64228504558816,-1.3743625553798093,0.39793299180196084,-1.7424182277369933,-0.08868999766640362,-0.1251048492482176,0.8888485351598724,0.1307501442452606,1.4149423576802853,0.24776050059693963,0.09274717248873121,-0.42485516386533145,-0.20130981787451574,-1.4123186728637755,-0.5296812691415946,0.4405840129845502,-0.1834704954834981,-0.8164624660038168,-0.8345283320621324,-0.31762671028934497,0.24112695387758556,0.2004858709956667,0.3143591041602911,-1.6109768136886993,0.727780224382692,-0.2567004688751993,0.0245078315385149,-0.36337684371803247,0.4860494135453946,-0.26627246962091705,0.35223370771873763,-0.651545578881212,-0.5244358970074285,0.4172730037453388,0.10727183391210442,-0.22471859849268833,-0.3169412054392183,1.3677191193805636,0.30578516311326376,-1.5464798447083916,-0.5073903039550445,-0.17674835317874799,-0.6130053381477824,-0.38634487889868924,-0.2622115985050882,1.3557265651063497,-1.1646413443387655,-0.31727365668318275,1.0620858094473558,0.13873761551602665,-0.737369407045479,-1.0732116353559464,0.6542790084590333,0.4800922490254039,0.03679072230981009,-0.3519336787599,-1.4014019985746449,0.9570988110684229,0.004548114265974442,-0.9538448738165406,0.5052202886657796,0.2107892363896702,0.07253842795348933,-1.8444198843953823,0.5454114501145912,-0.6830231024231693,-0.9943630634719208,-0.8172193152804332,0.5783134889972675,-0.4802504278132936,0.7486255794629113,-0.3058546423042561,-0.8000678136401596,-1.4558256483417875,0.49550850764020493,-0.39562513634421376,-0.26516908951404217,-0.6368514007975957,0.2930077173010072,0.8255021708483434,-1.0176485486880416,-0.866470311568481,-1.0087932520666163,0.8281986080141936,-0.11320902531858572,0.6785843568883432,0.534280475563117,0.027334381421414738,0.2470310319276335,-0.28621855458763673,-0.32921042340691636,-1.0324997884039697,0.30616023938213727,0.2862999431556523,-0.085630414467721,0.2676382604546524,0.0630228676155318,-0.8996028856863264,0.5631368711065295,0.9093280151836448,0.5945230906860606,-1.200649489380568,-0.04021047494774997,0.6459286667505253,0.17327100121408912,-0.012140475317613008,-0.9665578464148313,0.06405261778968595,-0.06611651392391173,0.7516652983722436,-0.42285213555946116,0.7267854622013479,-0.5331434189492299,-0.35023418051792504,0.7356673063242062,-0.5356391945851033,0.08267203540240857,0.46280221260691073,0.7413151769651904,-0.9016066460517493,0.6101900498783797,-0.5178813037231825,0.8197375841279669,-0.5858746027874255,-0.6602333635693732,0.673851875469399,0.14872405864146068,0.7991205877985108,0.4846568144448831,-0.36960132379325006,-0.24831953543248778,0.2522955768900053,-0.06738439465332066,0.3918521524861815,0.8197492223284989,0.7089489771566814,0.8481749518775673,0.4510477863629153,-0.6676946357262966,0.6852511311597317,0.3417002587479882,-1.0916061157708539,-0.4296417984228088,-0.12162893322761303,-0.2977346476907051,-0.854384571124841,-0.3708466868935925,-0.9609322621788822,0.9686493411112904,0.3769563719540496,0.18373523093449057,-0.3474390166133263,0.004009551595909266,-0.2747336634705359,0.8804941244853475,-0.6482408440144741,-0.10496940592935508,-0.04164355048506506,-0.2685288844907084,-1.1224662401052357,-0.32691154457442795,0.4313612125414665,-0.8680716654195065,-0.2661123656580358,0.08595266183486747,1.0295787093126318,-1.519332989651344,0.10971758341665704,-0.5140302966793382,0.7742507876642134,-0.46998811244391614,1.1380521256744323,-1.2980461261205571,0.3969629991857249,-0.903659556488818,-1.1294928634170083,0.26032556950027386,0.9927544703258846,1.1218301040050644,0.5592967655390549,0.18542668259014547,-0.71987619090861,0.5615019575346722,1.433692374620437,-0.14905607609681487,1.1335738322890507,-0.4818467008670195,-0.37490089754338896,0.35250771806503617,0.6318968059841358,0.6486305000755892,1.0337151306810703,0.03429908131485275,0.02090086250467833,0.17213289636119042,0.991668516143088,0.15417648894443983,0.6692218283745572,-0.9789827312923638,-0.2637967998197598,0.2948370510000109,-1.344570066915214,-0.16980598828430224,-0.07512357594990655,-1.079254536577433,0.16045113248126464,0.33942474548477625,-1.5096786292277722,0.5488737718795981,-0.47587835051979144,-0.42184682598719236,-0.20791641528877053,0.671782242349043,0.026477936919641256,-0.7643962518623783,-0.36434044192061843,0.4673240180709742,0.7127488886114071,0.09312655527703904,-0.2179312367621992,0.925063164126495,0.608394484400927,-0.5814713263657058,0.9546561918323924,-0.7832093850825512,0.5610032494384869,0.6405195776801604,-0.7614036096080683,1.490465593501695,0.5875263125679209,0.018986667448822957,-0.39974251628128715,0.19874145917981706,0.6032807067270968,0.5158364976770491,0.4943157562610871,-0.6669809460210226,-1.270377988658701,-1.1692286338423625,-0.2917849861002445,0.8885585095065626,0.08894001850151767,-1.414496546957357,-0.31290672545449144,-0.6754448309655893,-0.9899735477227329,-2.123560214622725,1.6327662349452086,2.999994998928061,-1.2413004818865263,-1.0486692930834274,-1.1088714078651234,-0.5056275944734345,-1.84687355192945,-0.6366378131696916,0.28668254754813977,-0.6460683476347959,0.5821856505595042,0.01379071837004039,-0.5968195660219809,0.8057069175145394,0.4950511905672568,0.17755361794580227,-0.06333620594694012,1.0957724446775488,-0.18892851370453784,-2.13702733711215,-1.6509609183761829,-0.6507451568297646,0.5708435112705631,0.3569750099992551,-0.23620204556752866,0.8211661474160737,0.9029863747007221,0.927547482990984,-0.6963240468052736,1.367699232523651,-1.0086300290100942,1.7236592573590335,-0.7061829405209002,-0.31826601000189925,0.00612375060508278,0.7879080800307524,1.1832970963673273,1.0326666785828842,0.21134602753455878,-0.437240714125499,-0.6788140771364761,0.16613955667438005,1.6923969653283608,0.28125104526328687,1.5982828656450767,1.073691228910148,1.538847664700468,-0.06850715324168516,-0.346466699175283,-0.6603280287479902,-1.4999748247173108,0.3495492624197258,-1.7168248076948742,-0.800283944426192,-0.7489777861690262,-1.8949004165409082,-0.7695398442774671,0.8487555971545487,1.0397715483926921,-1.3791142929891853,-1.6801442194479184,1.319715913917891,-0.6619209809656723,-0.46923876996208785,-0.23525076425102676,-0.6765655524684073,0.8092030587075794,0.6215973929090037,-1.037677169469905,-0.548781066108038,0.8235604164298701,0.8008440625917679,0.3675353609763349,-0.9249198321932303,-0.6842939488882949,0.29752453486226604,1.0200435210766963,0.5131860921544396,0.31563310369567493,0.6862726949422367,-0.6333994667788252,-1.1745447633732626,0.5176637593674366,-0.2000711891552135,-0.7006467270070444,-0.3491386050685855,0.7917931447739068,-0.5466458054318749,0.06015182541624379,0.25304563097431065,0.5582044710437528,0.0735201443328816,-0.6756323783538393,-0.6501388901214988,-0.4096866928581173,0.05255443352020694,0.5677753907470134,-0.6507657194405511,0.24499022514251012,0.9382859459836475,-0.47236874627686026,-0.9162308179645627,0.060259955741124104,-0.2646181913847275,0.5409667565784038,-0.21126659908553602,-0.9374858378128827,-0.7039938400634473,0.7276202823077913,0.2794001918005366,-0.3804738100971803,0.754589807594583,-0.9595812240174316,0.4270690126447288,-0.6254267882549817,0.010092543468545942,-0.26363948307860113,-1.2670575190511155,0.17985857964219748,0.553086951758585,-0.15087498569738989,0.23629245019564052,-0.16480745247055,0.01648219836265114,-0.9836470882188346,0.30840341523527326,-0.378492189259918,-0.740169849663688,-0.2787484048082907,0.5096573630419455,1.042357812105515,0.04283826957926343,1.149893578359476,-0.4052333753599761,0.997683578817336,0.6954079199870903,0.818020758701056,-0.5836051537758278,-0.10909659410515193,0.2588623162280683,-0.1452200018286731,0.5834300607078383,1.9885723932119088,-0.7365157970176315,-1.262360789206785,0.22800170411104576,-0.6477785736001744,-0.8573259369212729,-0.3563887929907042,-0.20759195573708358,0.3464577344453541,0.13252470170114128,0.7041995486165272,0.056008520050398525,-0.6250121908279954,0.6273286363273572,0.4465178357230295,-0.15917982942374911,1.5548117651624933,1.4370330538477747,-0.17287847237286685,-0.9946516236042222,1.2797861325561282,-0.43461285012620887,1.294027300197315,0.6646539034047874,0.9186309746021168,-0.9343700481897601,0.41598569787582745,0.01848704235070296,0.6120256047160896,0.7979658200410417,-0.49514730294156545,0.19162009847062839,0.1897492407905084,0.049779709797030086,-0.5909256685088164,-0.7754649017545154,1.3655778767910955,0.18130152103206068,0.38306206574287244,-0.43702799024285455,0.6692876523848139,-0.42064863157496113,-1.1271453812699705,-0.612561019569945,-0.322238307575453,-0.5457375924204592,1.0008585386171795,-1.2421431409759467,1.2937668755467582,-0.013817732295627102,-0.8753782679192089,0.14036943800315693,0.11939621238872217,-0.013132453526442794,-1.004212455584052,-0.6475205160582777,0.8420471210149939,-0.9003243804871559,1.3265963894497854,1.7290202747798977,0.20998094798040745,-1.0747872589171767,0.5207200088833259,0.7011314274886801,-0.38032205865472357,0.6586472331429657,-0.5955596415244626,-0.5352883498392944,1.1449728222949693,0.2734377299200755,-0.23103895274801958,-0.9926678834014958,-0.44647794518254,0.04072450584438269,-0.3885530440184067,-1.1193078898462607,-0.6481466396408209,-0.8968876384739327,0.17288388610949282,0.6584052840110901,0.9785394583097784,1.3101897094263248,-0.47184917762365636,0.1683126108420164,-0.45700122817040545,-0.876168282737135,0.004817080632795091,-0.24633703487345576,-1.0862880652300808,-0.5041794648889899,0.08130748023020994,-1.5443882946219623,-0.32423454108900107,-0.8027414616490804,-1.061608327068863,1.8460051377636988,-0.19792667804543107,-1.1882804935149927,-0.45326687735792215,1.9492751842478133,-1.3902875376212822,-0.222096622146803,-1.6065120804316346,-0.9610893130569306,-1.607446097156213,-0.6673863474454327,-0.874680135859517,-0.5354560526850548,-0.9508434003302336,1.0768083816744756,-0.29372340573592587,0.4484670787796049,0.07761872228849416,-0.5143748322190685,0.7144503112952375,0.7496332569760761,0.28741012612716116,0.2892438152070503,-0.5962709686852723,2.210191606300147,-0.048546212847249824,-1.4780619440367375,2.4579880303386012,-0.3422191917567602,1.4630085194768725,-1.088204046722972,0.3113079884344887,1.425873383969455,-0.7539509158689419,0.6421597244953328,0.2229979312046423,-1.0547113871784624,0.7487359636053617,0.8691832699172429,0.6551396348790647,-0.4884702454812532,1.0382456505230142,0.06819577747658377,-2.38897567671155,-0.8245350294481588,1.2434823162449617,1.4681014783688546,-1.5763863751914913,-1.3526453561033573,1.7552599287165147,0.08860583182231101,-1.1527255245097838,-0.19697236593561576,0.5677277535900039,1.0212031801784585,-0.7318671185391967,0.4744285928331049,-0.3409442874158577,-1.7372139529836967,0.1347156538275645,2.335963004071898,0.2698693920949687,-0.6454811582873359,-1.481559477439167,-0.14561648039066663,0.17651911869346695,-0.336366489520609,-0.5401675318033401,1.0966809333268228,0.01770847549584566,-1.4848918197494074,-0.04547194635730858,-0.25766023396253673,0.6983541916684008,1.1611112123398946,0.4430119701182517,0.025548243871868267,0.6807041820934522,2.323368288378892,0.1127505482779662,-0.08825910803129641,0.1774315440539413,0.25309007508614173,0.5620035148941301,-0.6228333760396915,-0.06484359458287164,-0.11419175483001007,1.5249276560800218,-0.22249179191653334,1.4460742658362384,-0.2767995938683315,1.2528882821430622,0.1192787094500378,-0.3617398847564524,-0.5208136932791178,-0.33101031707883793,0.5624697739862472,0.41581134234403166,-0.6691325490649059,-0.7664275658626789,-0.9510644762535426,1.0742190038851633,0.19098993977576642,-0.34914804318269094,-0.935535619519155,-0.04747198818624041,-0.11405601508166659,-1.6574568200648914,-0.7611090586836007,-0.22916268135099685,0.980499383375251,-1.2939067056771243,-1.1758893574131213,-0.294537018607867,-0.22001652790587578,0.14711398364506492,1.7642112622090493,-0.5379263066637372,-0.948976932065089,-1.2027530280833068,0.17482914944209046,-0.006338256357853347,-0.05127683743089195,0.5159701288450271,2.0202660710876064,-0.3973253705401916,-0.41484735458743655,0.4349619614580171,0.0013993940408845661,-0.875024207310191,0.4228101904347563,0.9450868410383714,-0.07730029143275476,0.2345752565817454,0.7872723602819259,-0.14180383678322883,0.5094923792156839,0.5179998817689382,1.514341514778802,0.33543006672671716,-1.4088756411028776,-1.0198246209578312,0.2381843953369277,0.08829703785922817,1.5623793393825502,-0.09712734058225547,0.47493668643169873,1.2115072307323385,-0.5198215900870174,-0.6752230066190716,-0.05636290312142096,-0.10528270874020723,0.22022629750288997,-0.47734558707299324,-1.5077912865790202,0.7336873891513928,0.5955489745474253,-0.40052866752924315,0.8658271682987565,0.3297146033756125,-0.9796736721766546,-0.30270188193124997,0.44189177827896065,1.0327036663472027,-0.3983797390375671,1.3025446499508306,-0.7012025092838037,0.9008480871997137,0.06666117886926987,0.5023222144525301,0.7810255957788951,-0.3521565430004061,0.7510047886050302,0.4835760167044312,-0.37511168221911084,0.31637538330239856,0.18240748647022698,-0.6303587604907045,0.34362993308738116,-1.0988662948033974,-1.3886042469578628,0.9133054660786775,-1.4917281972709118,-0.977014213600631,-1.2194237214705703,1.2211602133122794,1.2515507522689242,0.5302013760556227,0.9364688688044412,-0.23626092617158342,-0.08142723368049741,-0.5003113843712539,0.019060523371149538,2.179096340572947,0.9050166378286836,0.9448714058450742,-0.20158854963048892,0.6146124632488176,0.19367793623122412,0.6181686602521661,-0.4114370063638916,0.029940430719340848,-0.6687399318425948,1.3391351802506597,-1.2762248240563678,-0.9098069700738058,-0.8399768158999936,0.6359378799990473,0.8242965604057843,-0.07095804625093809,-0.20733049080492677,1.2054940169675143,1.2822948411468886,-0.09185156583222273,-1.1081437183914689,0.20899747051293746,0.7794341089764742,0.27280922691442716,1.392679374928365,0.09279550233732368,-0.9891219133492264,0.2854206574850819,0.3949594495069631,0.8822634059057726,-0.6706100214418218,-0.08062731957386288,1.712040109978492,0.9765502940218123,-0.2815812544372899,0.10454820093261133,0.9324495534658593,0.012345968320659125,1.0597749820968936,0.30824067858596826,0.36457855003195205,-0.1762584244479406,1.1359329917499263,-0.06279697157565263,-0.6571674132952763,-1.3147401492256774,-1.2298534306754203,1.3583359700252788,-0.9576043696491466,0.36458133291533756,1.0080017587747565,-0.7505162202457455,0.659813267982399,1.378001414680345,-1.2184280373869223,1.0737952563019972,0.4122422882094817,0.4512182210549027,-0.553883809486448,-0.29370102347487254,-1.412200062480024,-0.13261415263389384,0.7164999420156359,-1.6177061635845975,0.731776193512412,-0.7083568645464384,1.4211650540803673,-0.5718042462686309,2.5793926692631746,-2.31243050831802,1.146559851642941,0.17425154610376342,-2.3642712244734976,0.7919178617956744,1.9113074185618362,0.5649923968451143,-0.5990296634553648,-0.14767638322528873,-0.1549480572085468,0.7900668469277125,-0.49041327755324443,-0.7262886428456868,0.9056304992108575,-1.2088904225050587,0.6625073531313457,0.3133709416315282,-1.0808714126876853,0.0969616794289169,0.07166777563413136,0.9011200769587802,-0.020298931949205457,0.48584962343477056,1.4053594567985654,0.1894339425007443,0.47275549473552897,2.3382410413665573,0.966238400626134,0.888657824081497,1.5874994884474565,-0.4590866608432265,0.6118873393131207,-0.013311194264730476,-0.799269773889504,-0.06919656248263374,-0.5249339083546931,-0.7743338502077585,0.3011703240430506,1.513243990935486,-0.5197365594859444,0.058703548989617965,0.2601216686721517,-0.004270029317789288,-1.4694774999816953,-3.2916423062375535,1.0739411347067895,-1.2240763228159797,-0.037697854907801163,-0.2627704731730293,-1.1836813813695661,-0.7113814389550894,-0.3822410990395417,0.6961538591283121,-0.1289865339640442,-0.3121758293240473,0.15444650414010908,2.10728051403305,1.3809793253149552,-0.21575287245860164,0.41238376846052444,1.3191016124039685,-0.6243511205918659,-0.16529351257882025,-0.7363417290462174,-0.29306510600126945,0.9483673980182713,0.3261363207862195,-0.40002998659963435,-1.1158252238582664,-0.6614147103060732,-0.26558381952891646,0.7169497961957205,0.6622103658944739,-0.6737748928453838,1.0378250928685802,0.18623300705898685,-0.04658463174786862,-1.2152782163887723,-0.17322349728166306,-0.7593692021469649,1.411449408904544,-1.1753914350221168,0.30802231428635535,1.5006961187487136,-0.4108596987089141,-0.8892319749994798,-0.7364984408767101,0.3087319082491189,0.49652687252296746,-0.9272510182429002,-0.18004975156191766,1.1386269120398687,-0.22996244498350782,-0.12922827920948335,-0.7362452507209059,0.18953780415383054,-0.6983923939757061,-0.48639816851703604,0.521835957622797,-0.1053837754243386,-1.0278717713603953,0.6394512065257147,0.7452917858589164,-0.44532837859837426,-0.23483921988681883,0.5318227149772667,-1.483501445632217,-0.6315329274549326,-0.42827742648510575,-2.0316131430263558,0.43540069989375507,-1.0672439189710112,0.6437286048897397,-0.9936847683048599,-0.02361828852158771,1.3918575399825388,0.151951294624966,-1.3057357609453284,-0.9221904230763026,-0.09840713713046835,-0.13515693145024027,0.5845968494418907,-0.9825849424254439,-0.11060875825139439,1.415067635445435,-1.6609498442591262,-0.9437448207615525,0.18778561231240148,-0.27075519270158327,-0.0064503381703699915,-0.2128405012258549,-1.495015362265468,0.16949262143089777,-2.716120239359315,-0.7522960106507682,-0.29867259662198786,0.1919139166204669,-0.8643766983253285,0.5406018380379317,-0.5593402618596587,0.13803887864652267,-0.6096979695692277,0.08684603486092696,-0.37007993392587407,-0.8463752810445728,0.5712469616767915,-0.7243594850639664,0.6582729981296506,0.2527754133523843,-0.21813338748127695,-0.7702625466470658,-0.15623252232908408,-1.7521443594337536,-0.18536133018662496,0.42672881068003177,-0.10219734356123159,0.6755912434432475,0.07657759653761523,0.057553346223052776,-0.897130928546827,1.0818386803466309,0.11800409229466102,0.22329295950975125,2.0849231077952277,0.311554863569696,-0.549858966742467,0.9508738921336085,1.1050571883109859,0.9949192764488495,0.6711111899243363,0.19665197248742097,0.8376268275814336,0.5219721518487435,-0.33270927093031283,-0.12850527906084142,-0.5643808868104458,0.2779702165470471,0.7378587306511744,-1.0586356230414826,-0.6632770617067831,-1.7293523031277735,-0.7578556262157154,0.07208146992501303,-0.5279493279032338,0.21805635401523527,1.3410623338808854,-1.6401650672274086,-0.8376368954313329,-1.3462382548439287,0.3828517228253888,1.3693744935866976,0.46688467704224584,-0.029243563838935185,0.38922342254455544,0.5857524671260674,-0.18813713670629226,0.12306391382103586,-0.3891517000091836,-1.526052806727462,-0.4250403512228516,0.023206004917852026,0.04314615541335293,0.19187375086971825,0.8501040207914843,0.2537801098386431,-0.2293833485871803,0.9431463298001631,-0.4254419679842644,-0.30932039625688157,-0.984868867093481,0.341123774257719,2.4540529944191003,-0.5393661718460709,-0.237382319298953,-0.359075859005238,1.1109265587449104,-0.10852318260432142,-1.953467584036923,2.215692201483226,1.2632927698629834,-2.2209266032361334,-1.5441855788698151,-0.5824762603080614,-0.6814576830778255,2.3278965254029065,0.16424868012999794,-1.1159846352570433,0.37692717379985935,-0.4155983673679148,0.5103597937331648,0.9034881968919168,0.9360135159349801,1.3411153153086806,1.013088084184673,1.3693366261374003,0.7426991383011631,0.11905386819002978,2.481273671194714,-0.049831033337930264,-0.03759636738517718,-0.03979027740726833,-1.828369267635179,0.08674829279660612,0.4185794960599031,0.1254844217667159,2.3625878912936917,0.014977328845398492,0.9069087580499932,-3.596593647182088,0.683346071112829,-0.655868583750829,-0.4277594674666204,-1.4785818997363636,-0.2831248966749142,-0.5472223970153899,-1.0167161149090935,-0.650398573517938,1.1556978077217694,-1.6706061912584995,-0.9062593531011315,-1.6306844663596847,-1.8923379530717133,-0.6601614155049873,-0.2950665263883835,-0.8174129038019026,1.8823921154295762,-2.0331780898349945,0.5086966020795131,2.243154127098713,3.2728700365458505,-2.517362433368285,0.3594348738636173,-1.15509466409819,0.9539681960496976,-1.156493725627174,1.8403853923782643,1.4896949469740286,-1.3984409370989896,0.34133820385041497,1.4452671938742254,-0.44430436603360307,-0.6986625903605237,1.2939257695143174,-1.3272174271093908,0.5358447754505792,0.7162779511258947,-0.13798160534888126,0.5598263918488559,-2.0982912249901324,-1.187565642691049,-0.31616394899228845,-2.7220446393751487,-1.228615974339925,-0.055717507317051905,0.9009257582574198,0.1370174238125402,-0.09851567249754674,0.4422474494201041,-0.3112627351556001,0.22060208826570252,0.14141381456274216,1.42343913326103,0.1812362043178582,0.6354057682711818,-2.4135191500999102,-0.19704340174746374,0.07596953540318716,-0.48072757453792136,0.9255014662813678,0.2832123615646779,0.22588017090481025,1.0018821938927924,-0.4065143242850028,-0.2216100608012726,-1.5281605577847628,0.2954984084562754,1.087292650262549,0.022912823486564954,-0.5316767918180638,0.5748340498241059,0.5894980720727777,0.8764951765953829,0.05192933683445751,-0.028779904598248373,1.90787656988856,-2.4690489238605644,-0.278719096281296,0.4043578594351796,1.3499274196807947,0.7747764963185386,1.1882539488278394,0.6860416298323871,0.6148065529353175,-0.30304077466591967,0.9075490559123036,0.2170005027372644,-0.778684976880247,-0.7688356409178658,1.8314749242980846,-0.11811613073330383,0.3486797848291869,1.5882073357370783,0.838596748374086,0.5580582668096148,1.0098880328960593,-0.0811548358178853,1.302174199307282,-0.04264113902549527,-0.2310570327410131,-2.4076991845014186,1.9231981366711541,0.3515492806040367,2.2383918667133424,-0.27179828914481935,0.5674313490850325,-1.2630145104852237,0.4379642480665404,0.8891456335500691,-2.5341642304654046,-1.1019261137534921,-0.3509070864414386,1.2470508449414408,-1.06464308221715,2.0909993331833596,-1.5258521058201089,-1.1485716634172756,-0.3659529427550784,0.7741901632378356,1.2876116584169748,1.6197435995853737,0.009907904831236715,-0.906602568996615,-0.1550654829328751,-0.746335449405017,-0.9678501032444536,-0.4986246077180234,0.09038589555470675,1.0136867543394192,-0.05184631247281729,-0.35911431149293965,1.1989503571287368,1.5280578526453932,-0.6932156151335823,-0.036850270198584195,-0.3329548173414029,-0.981509662559073,0.29317148558584044,-0.709300084806053,-0.9312540368333687,0.26748864583773985,0.5868801424950961,-0.16226079313308148,-0.6331824837000039,-0.14264753630491434,-0.45544297761908215,0.021307784172338896,0.358385305340963,-2.1294086264750884,1.8005788878195714,-1.0823600498051926,1.064502299709094,1.852671135630769,-0.5372653760179443,0.49722118541862803,0.018041691547128782,-0.9009759575860867,-0.5191226634652104,-2.0486748272825417,2.3174441281041034,-2.038566079101906,1.086203417563585,1.4933048638970683,-0.3147070620153145,-0.33659094226492026,-0.45548763170404405,-0.18208965767166854,-0.001761162201329005,0.44968447582377347,1.0157388206872988,-0.06948361343543061,-1.0448776735084455,1.7989484630564008,0.7820262088751265,1.0273739383317104,-0.44875507081091365,-0.0895643928439438,0.29831678257860667,-0.9810591289915224,-1.4467187985872156,-1.1946099673334991,0.1066507672400635,0.19628618897528258,0.09513148045534914,-0.7981339655658298,0.11131177971240404,-1.9143162563482707,-1.0966619515537772,2.0070200737514634,0.999719458383435,-1.1002892582262025,-0.2122603243411003,0.0914834137390388,0.5499598568318964,0.2478772511956902,-0.21016911138103275,-1.7377300819200625,0.619406279876047,-0.6372328337611891,0.24376814290689472,-0.6663933734959011,1.3259447717366473,-0.6895547341231776,0.0023033613112262157,0.6090300494972611,0.7928503357237144,0.7791732133184816,-1.2030657076856492,0.7677257495557627,-0.23908024375004314,-0.3264708383024611,-1.5334644089268465,2.475507220132876,-0.049593484174666476,0.9525874706298902,-1.4323910472772072,-1.7572232781003112,0.40769323420774456,-0.11998822835431965,-0.12907589431582148,-0.9388200216277551,-0.5928640137631025,-0.5026098680576984,3.4207974802554655,-0.06577050675766687,0.6299104407785737,0.17110546468538712,3.1273971004734444,-3.4693244456692733,-0.4409320367955827,-1.596790178608061,0.6618463571158116,3.7359354160029445,0.04721384699648179,0.841277425783394,2.025205970747186,-1.453734570874526,0.17595788760366335,0.5383024286423764,-0.20166999986260675,0.8709939689150795,-0.7264476690585703,-1.4217621744189228,-1.2581080554174002,1.3540358222994116,-0.43542184629962305,2.004747292736101,-1.396699071600255,-0.4636036551593177,2.8921776656492866,-0.21107301084037453,-0.13111018026985446,-1.8991905102497597,0.05288005205931028,-0.17926515725465383,-0.5552572811010037,2.2405771928429625,1.7116238468701286,0.13514611448050787,-4.053138318590284,-1.0683314846948386,5.120601229965259,2.705185189429125,0.6229267481329744,-0.43700823538338185,-1.7523867622542173,2.6460634884336964,-0.24486200481943107,2.684334430434275,1.7787726986998664,-3.253381667621607,-0.6733869529082148,-1.2856599439636502,2.263740865298708,-0.5818795045118207,2.2961337474534385,-1.8016540785104695,1.6446192413432454,0.02997544290455406,4.511827222911011,-1.0894509399557017,-1.1410491469131132,-0.0018159612344837573,0.14981240109012,-0.8240653117807728,0.8865791615540042,-0.2414745624605287,-1.2479727289690183,0.46758253988002696,1.3598350308030895,-0.7402987388089727,0.057527516959450624,-0.23853941407816232,-0.42258167894621024,-1.4103238503457507,1.505229221397027,0.9120860999953037,-0.10096336253434686,0.9522705152003605,-0.0501556717399544,1.2242067553204312,0.3752173499601541,0.5238105315861006,-1.9092120601935223,0.1686204615945896,0.2702090917023489,-1.1789125535261435,-0.9972943023554498,1.2178629210962377,0.023543733122694147,0.963560913373269,-0.38213911345512575,-1.6808314355139018,1.2371490114081722,0.3109884284058419,-1.4960671922581945,0.144348419101053,1.0389451552294742,-0.7913961602934466,0.34964987310962203,-1.015596272427158,-1.1209909810224765,0.15427407478919417,0.7371988319251525,-0.21116930850040214,0.1247667506357795,-1.6048167779392215,-0.5098920048542944,-0.012950322911235062,-0.28715690845246183,-0.23526593564049822,0.8864562698522352,1.949079370132626,0.6863907743560939,0.5874963551163793,-0.39555706383358485,-0.4953573811944137,-0.265424581395383,-0.014370241867928166,1.5287876686009323,0.8519790599368663,-1.7207418278531024,-1.0640298612151697,-0.6465109330647248,-0.16758065897444316,1.9459875975643806,-0.6171317275920073,-0.5628644701353122,-1.1355545713890798,-0.21128933436693342,1.274434737856251,-0.664658470241092,1.483807734446673,-1.971197839217921,0.4714287891230964,-0.6034287164934318,-0.6105020462014622,0.93876998079155,0.5469305681320121,-2.49651017306076,0.5118090794477251,-1.0229351237988507,0.7166468984153241,-0.31625934873382094,-0.6270361932001378,0.6390625779917817,-1.3883488049412847,-0.061325714117153304,-0.4617468059856145,0.49909412996563035,-0.5550036418996939,1.5334168445534417,-1.2207255006104953,-0.31271863928002946,0.07548987237042248,-1.0880354622341197,-0.3050498455081838,0.07560893122270884,-1.1275296113787154,-1.0742839941662485,0.27298968770586074,0.18199924274967705,-1.2387575179359325,-2.654056953707445,0.8695578816967703,-1.8757132826608702,-0.22715209867184571,-2.578490681009189,2.725841579039109,0.90099761028339,1.5593869961580844,-0.5378769825501,-2.026466359357241,-0.6675708138419746,-0.7278658955009619,-1.0462312961487719,2.405954060785682,0.3267353409468845,-0.08875088160606089,-0.6067460177986216,-1.7512892826751807,-0.025620724503727044,1.6243361098602156,-0.9291793842239691,-0.5649253972887825,0.33250766034637647,-1.5002723413747152,1.2445012432431197,0.9086290893800676,-0.5936460887594339,-0.5847977948587351,-1.1418871042879863,1.955698861366312,0.940937206316692,-0.30703301011102446,1.7300961121611405,-0.5337703449356725,-1.057109442737636,-0.49201144614906733,1.654856449627054,1.4802189606172105,-1.419926406330932,0.41954843319587365,-0.23471974637158946,-0.01674037185058574,1.0801263552708866,-1.856086818083685,-1.2737556796475693,-0.5204653970329616,0.26287018469738366,2.824923526522499,-0.8422523186953199,1.5767651324509075,-1.1042944359818458,-0.453273308291536,-1.4084777103413744,0.833569146635573,-0.813523620966138,-0.3391495737876277,-1.7400443114405753,0.7469140443210673,2.2376670073618006,-2.46490261450294,0.04304539027347189,0.1260451938898523,0.44829985570137654,1.4956205533074782,-0.21513511931989956,0.466972721983497,0.7614817960571937,0.2878434767430648,-1.9677014572801041,-0.47698748702035065,0.45521215599070974,1.3407042950611068,-2.6231310163095647,0.4031155242874916,-2.1203031997552113,-0.538053502076193,-0.8806512792627881,2.3656160384381115,0.6854483183948209,-2.0585456370847655,-0.9799247749024655,0.3914656408988674,-0.6188340862112195,-0.7083531108797655,-1.6285108069934184,2.513513767121658,-1.448073991690631,-1.0624238447151035,-0.6248416951220396,1.598222584775535,-0.27680203592487285,-1.7141605768172226,-2.7101258912707036,3.07169160106873,-0.10038062826101356,-0.6349098292112241,2.94150481020283,2.0692726022134607,0.8785767000900169,-1.3729151365904695,-1.5364070594520134,-0.8978988015368176,1.039984197411085,-1.7313527475506911,1.2485633938455953,-1.3529382412734743,-3.7023635067809826,-0.7646060861063607,-1.5993339259644388,-0.7701301835564223,-0.2790373868788997,0.9860426325473102,-0.32902386070826,0.05288689294782509,-1.1826793815863517,-0.8198451254766738,2.8331129935810315,-0.15093126729253953,-3.3717041879895913,-0.9609788928323363,0.6217051912556841,0.5915940690894005,-0.13402410942322884,-4.341515070288562,1.0662978724181116,-0.17549832684704728,-2.5448790709174456,3.1882832933687193,1.4305073749922896,-0.34796969225561836,-1.8074444331827555,-3.300139354164634,-0.898067641576994,1.658051529704941,-1.8882645674414409,0.6977566410319216,-2.755175513003638,-0.5466459074519665,-1.1931759416067425,-0.37065013813110365,-0.429480189295963,0.45483525867563107,-0.5859558611184487,-1.9298682300803192,-0.8942338460815822,-0.732516380888228,0.1295557083077801,-0.339034812605301,0.9664447778146357,-0.003228099873105087,0.27015879723022185,-0.8713199613484653,1.4599918139923047,-0.5618061634113264,1.491941130018454,-0.27414962781526503,0.1957867321554514,-0.1266478079311441,0.666727821462678,0.5768971860581152,-1.7315552571364266,0.9132316668344617,0.04058587814415576,-0.6386908514012894,0.9514891008855798,-1.3966690431447772,0.5644814743876932,1.3506661563809281,0.32829786939872163,0.03817547163972713,-0.6662565631429739,0.06295762352796148,0.958719196935172,-2.2389536395255045,0.7892686721472578,0.4967732292001136,-0.8203309857012041,0.3584855152613184,0.6418533070276298,0.11756219430886285,0.6287400145565086,0.3760684856115108,-0.27182651890641935,0.9501352576502039,-0.8306674950759633,1.6824635279685047,0.9969646859722361,-0.22549795958610633,0.6470757019242713,0.6512350569554443,0.6007788069565259,-0.45226515523306543,1.0186923452791965,-0.2391169445506331,-0.8575827029928861,-0.8193617732715491,-3.3303449060897217,-1.504892106581057,-0.18712118026214383,1.4302951693659582,0.7365745115663117,-0.46378809370591323,-1.5914486583660976,1.27888450866522,-0.2740142821359898,-0.7382589413106267,1.7227823362572317,-2.344406481721103,-1.2979302802686281,1.101271529343235,1.1759943280573097,0.9520454494454582,-0.8451355390131653,-1.921457499958968,2.115869114150813,-0.1749648032799433,1.382627821888401,-0.6846948209438904,-0.9606829729842042,0.5588246116445296,0.6866421129370521,-0.6227219271793732,0.12733219249950728,-1.1696151193793056,-0.6755901151072251,-0.9804356406313497,-0.9133297899107117,-0.37477932679183323,1.7694700143933733,0.011406327846288807,-0.12133387384763542,-0.7593667856451348,1.0201779096726422,1.2006192480790152,-0.23146778845062302,0.1808248569489553,0.5657571787008597,-0.23432635035910385,-0.14188486462729158,1.28354150701701,1.2141292642993948,0.5048912308571029,-0.8637656003212361,1.5762219817438095,1.4147389049880599,-0.9787180606452626,0.876717832314803,0.9185013751036026,0.18158072052776014,0.08041090377570738,-1.122171686063636,1.153433698759066,3.436781699319469,-0.5388055083253973,-0.21493817025286602,-0.644379338368033,-0.39383732388141063,-2.445613344336581,-1.0991884996621482,0.4239554947353377,0.1500083322598234,-0.6681488689421665,0.561916978313598,1.146987079682875,0.3738331222838721,0.6113484844138538,2.9454739181955247,-0.7083154439318764,1.142436324294983,1.5050273819211362,-0.41010697961237225,-0.07094834845293217,0.1674443607752893,-0.7639973834481254,1.6351490003994509,-0.7019476430938444,-0.9917801221130855,-0.04637584396387091,2.59730093553354,1.099845644821292,0.06868653269584767,-0.7039265539957889,1.0666022137452826,3.4419105299213295,-1.4947283673969591,0.7329730759246563,1.726361984267863,-0.44712481183766256,-0.4166384980354721,-0.40658221450843907,1.3740625672191245,1.880764618246575,0.724182263459166,-1.3505247037163786,0.40026725675679875,-0.9627988305858539,0.9220593821194825,-1.1419026156120415,0.28916477329190726,-1.4237116702114203,0.9952883304732055,-0.28632265984118,0.6103248058968592,1.2657350764844963,0.8478187821321559,-0.10026312964592596,-1.4024796005492497,0.8071268304237598,-0.08108159602194967,0.059953434979816186,-0.9382637715313393,-1.199795982158236,0.9717867739297747,-0.25895024393980787,0.7694737568458324,0.4946833359607157,0.21539386011334302,-1.865651958199787,-1.1615299856555474,-1.6439999434293167,-0.7938102973761115,0.6146827617206502,0.33150484814243153,0.44325991627024086,-1.7851228297416866,0.8517807725587365,-0.2493592373037221,-1.5998729999339296,-0.25841055723889916,-0.6632863626303417,-0.6833040336201365,-0.28247101514821443,0.3287801640800229,0.010032848725542087,1.162326683879765,1.3830286151686801,0.47070050514176875,-0.9689348123165905,0.06534129724886038,0.6696929598746911,-0.8389568799474794,-1.3694696169328007,0.04230329630244981,-0.13696214388299988,-0.04456480003015835,-0.1566820446878301,-0.6334550593614391,0.47152537216960005,0.4229446508980061,0.07703054171830659,1.0227233004513105,0.01813671604410552,0.4181613021193786,0.6924023072659905,0.060656286700513415,0.6794287627542744,0.6127335765339617,-1.3057798435346255,0.7416000146815651,0.4372722742653949,-0.453774228800325,0.6358848271850727,-1.067897501712449,0.8865067624856561,-0.6741022552155441,-0.3085094146512399,0.8153924342394648,1.4784064754786348,-0.9061606256071942,1.1130169920967257,-0.11010162485568195,-0.7192525123891922,1.3734301288059154,-1.3688366588972558,0.7558212227756963,-1.4969840149297935,1.502619841696248,0.13410386300429517,0.04069992915233763,0.07223455265389132,-0.30598907860428765,-0.3150132537702468,0.4675544739498118,-0.5718707040415902,0.4030274834711758,-0.12712588112833853,0.6076605014570476,-0.622128893517152,1.0233983628067636,1.7875231565946321,-0.5486494151744539,-0.762410546530354,0.12467660075249036,-1.209783172296266,-0.339720670491049,0.8671521102946319,0.7967204422083606,1.6445879511623243,-0.26896998188790566,1.0974451145144875,0.39541866943303006,0.6151292387170081,-1.0362535446302963,0.26659206458846035,1.4323374113398097,1.322818829950165,0.496134322859063,1.867238381025669,0.8158637452296096,0.07428452507061177,0.7979581548463205,0.09153160234663157,1.551186363564544,0.21606605892668293,-0.24645535595212914,-0.9917974152694053,1.0461592591469497,-0.9077392404459457,1.6215405258678735,1.0794386830163076,-0.06241043471107296,0.018875905166383336,0.13252898008092,-0.6475852429812087,-0.2663619880779564,-0.2851771102178299,-0.30691088387705445,0.24154044593002455,0.06759456347912435,1.9862176681079635,0.29764813859514727,-1.0999454109605593,-0.4179408556477681,0.36224417943022996,-0.5954482681621264,-0.8973673893175554,-0.30300807862697887,0.5802820522306017,-0.3828499949736339,-0.7026694460500096,0.5830928856823812,0.9707085243037763,1.086847442291862,1.3980964290254612,-0.08236545648456915,-1.3976672017115859,0.08582775236399576,-0.8793090234987622,0.09253472680334814,-0.39350482268910536,-0.8393992058233485,0.5990355701778315,-1.296288921140362,-0.4084754433276508,0.905892038355706,0.8712801730467572,-0.9763624842578702,-0.7175346582240933,-1.074730520735146,-0.08561102719714787,0.25135384691741236,-1.0806977716240223,-0.4862252933130347,-0.7181940941729757,-0.7825884521959225,0.2844961977545961,0.18350474373918818,-0.53629972406685,0.10077852905283616,0.5189833156040724,-0.4558461341049322,-1.0210623406251425,-0.2842256220912454,0.5562580550705458,0.12382025282796878,-0.6285564200108666,-0.06914219500976293,0.6279016789378771,-0.14538116036210497,0.12966476822585518,-0.7036610997019803,-0.6309294060679902,-0.5622305382268219,-0.40318324713287695,0.38216079453967544,-1.2642679140471222,-0.03471961828740896,0.8068066630434446,0.36325797129849285,-0.6275199423960605,0.4732240662312931,0.8168463490166488,0.14524353984915794,-0.49306759398515904,-0.11636837651235618,-0.7173834121577451,-1.4810148721273326,-0.6268868540746497,0.9231212000962145,-0.07413808153093909,-0.3067394847668102,1.3778082419523245,-0.28240029237454317,-0.044902377939897466,-0.5496533169933939,0.20795129165678505,-0.1863090102388766,-0.7118282824545673,-0.23663458488648112,-0.8193399540761398,-0.4263303249809044,-0.2529474315895811,0.030528751012895764,-0.7253889831648935,-0.6930242326034566,-0.2685768710972736,-1.1871074247680422,-0.23301963472665405,0.3988009679917304,1.8019000832982635,-0.3711292769962254,-0.3299396907682388,0.20574124265177668,-1.0712542848059436,0.3024122871344392,-0.8126052359691105,0.24812742906535376,0.5671146378362812,0.5104221764363426,-0.46962183079178466,-0.38565011880363265,-0.27231836034189344,-0.0485493329260174,0.818294960617208,-1.1991932813239718,0.46780674402389616,-0.5340817653172679,-0.521924386859758,-1.2174915593980864,-0.9095906550375822,-0.3534852533984159,1.3709155998417972,0.3291759303950258,-1.4021088565812838,0.33597042376110486,2.3368782031055364,-1.1224689427504781,1.2178900964954056,0.8215758895979131,0.09720370675204167,0.031278108118272745,-0.5315631831125666,0.06327717623306552,-0.14090989440617172,-1.9347540853589673,-0.9460270469518931,-1.2517360447283967,0.4758912963912719,-0.11057742766455647,0.4919505972855849,-1.0375267717848717,0.6006643643382646,-0.6595031903779465,1.33982607239934,-0.577959481475288,-1.5963886736297561,-1.0089492780017113,-1.7266246394663811,0.4385159089593401,-0.47308604940757104,-1.7285041848247762,-0.8572725355709723,1.532141862818804,-0.17251652127709288,1.4137063180255565,-0.6398583382105575,0.06709547071515945,-0.21748721900361528,1.1894507079924057,-0.6456527082896516,-0.13348931765452224,1.4912113612474962,0.839424310723366,-0.5888662190225605,0.28891118239908925,0.1295557607264802,2.8254309492397063,3.289895120791989E-4,0.5008159444923265,-0.5957778760848293,-0.06854772264313247,-1.0129100051107065,-1.186535220452318,-1.0829027662845656,0.8609388164417422,0.014542192343646692,-1.1111454569175219,-2.7482247553753956,1.792975794883341,0.08874952306321587,-0.5184691433899643,-0.9766899828448635,-0.7324443685024493,-0.19213014526095892,-1.323311689997942,0.6971111834601652,2.1402477529020048,-0.12275257701035361,0.26656878685531765,-1.8161530564238004,1.140454508079205,-0.40883960028763955,-0.4260524621478611,-1.1583753687102674,0.9014054616868413,-1.4101489979410635,0.9493398624181184,0.14350859688501447,0.19694132361450478,-0.607549905012314,0.44674491316663734,0.15018181030013356,-0.8953003092732129,0.8415667323916203,-0.5622814405390771,-2.273995185898824,0.07921273057877146,0.29421767978519864,-1.2726342705082943,-0.7834038996365486,0.42169312933762665,-0.836630028014703,1.165246407420807,-0.6626586548396635,0.8986837904541719,0.5332240833923695,1.0747849664135913,-0.655707985485234,0.762933412883421,0.43192884406017834,-0.5227354196456873,0.08301442401262123,0.10566247366314423,-0.6287187352011644,0.11048328130065478,1.0737144916738937,0.7053882165388775,1.4731898063493807,-0.3523969213001334,-0.7120067296385553,0.23578418383130656,0.5924328279524902,0.08829528733962148,-0.6515421694928145,0.9175223657323869,0.04201801042819284,-0.6340079630539951,-0.15238528883984317,-0.07648097992525413,-0.21959665752806742,0.0762636808520495,-0.37936545529292853,0.20611630327529548,-0.1438843008588005,-1.497554020489516,-0.6390365697929854,-1.5878326988017504,-0.2310816548703906,0.05317366315804009,1.1192389397368316,-0.3811991988386995,0.019442677297154123,-0.2824485041353091,-0.40613164320131323,-1.5609840509547355,-0.21354631741414717,-0.5682183170076548,1.2844348848142257,-1.2188406831183516,0.23557608982640615,0.29896173072650917,0.6099162009546469,-0.785198538875656,-0.609434691078635,-0.9615464279901553,-0.133669275854548,-1.5956991520038064,-0.10018809911433299,-0.49542509152810504,0.2683008921538441,-0.45519998700083975,-0.28554038420965977,-0.6465522376203584,1.416488917703046,0.347018114297477,1.8524179363611648,-0.3773525105710504,-0.8974570079305265,-0.484241761751641,0.21820110732685885,-0.8003490611328871,-1.918890118803932,-0.6028666974200977,1.048335046853409,0.2995617608087793,-0.755460581551975,0.5762291694597271,0.10184012523949453,0.5442943331555968,-0.0036357599687667757,1.3136171901916298,-0.7018024910566534,0.3370782783769511,-1.266912296501326,1.1528093301504074,-0.9657768611478812,-0.9147570415538132,-0.48415077749700064,0.21897177904108317,-1.7056184005760804,0.47150636769583376,0.8307642006242476,0.3382536623312216,0.607658509821347,0.02491393322834138,-0.7880415662087425,0.251290328576528,0.3695884591121306,-0.24543497823207175,0.5728643201173627,1.7572979491633054,-0.38840017155989465,0.673190182921813,0.504768336224879,0.6968340858241171,-0.29597668631825413,0.6414094336604789,0.06802181105237375,0.03375051787528602,0.6106479685957231,0.13920977298148032,-0.39601579915332275,-0.45893363820340044,0.12528962880998304,-0.36182412021154375,0.7332800434471817,-1.3853330032141007,0.242922780415739,-0.6026347560033976,1.7342017880498755,0.3056389599996554,0.11362376111272632,-0.7710496824664935,0.27111811248814294,-1.003944896004697,-0.8506628068299363,0.7776302797580066,0.23743541249298197,-1.7449827815132481,0.85455771821094,-0.2457046661341633,0.6940765454379961,0.23334934694306644,0.07988627877474958,0.1546805427010184,-1.5157832863684173,-0.7682959503178998,1.3193599387960269,0.8291294353454728,0.7260563140938472,-0.6917285066213007,-0.5573254608887389,0.042943421464136676,1.1301685299295527,-0.43528981639305175,-0.006056658852633221,-0.8102130520164041,-0.47470846312858056,-0.4231246210142985,0.7457512497498563,-0.48771183931448536,-0.5754493969869554,-0.49609580488011185,-0.10518534051951348,2.21379245229604,0.7622234282912888,-1.5129063631510518,0.33165511626686567,0.7480851540139014,-1.7556245912604276,-0.5794237767612452,0.5039546687568864,-0.3335055563594995,0.49017990920368437,0.2595520068528852,-0.06071088486597908,-0.7942933229070601,0.16577223269626712,-0.4492353880092541,-0.5897482674984259,-0.20616359379139454,0.181911686289897,0.4050241844805939,-0.9675530042374916,0.7077316128067861,0.016965683873066226,-0.899164725832949,-1.1276075701206807,0.6336413033516765,0.6828849779392017,-0.31901383355279783,0.5554228201707108,-1.4708573392284265,0.7955747106732097,1.264541133683707,-0.7249269335978302,-1.7432647060561666,0.1732662559772121,0.21295563869384845,0.8309155725604241,-0.6005461904514039,-0.6078263738060469,-0.49771591003115234,-1.2101601014213315,-0.8169530547902036,0.7212666403575094,-0.4204294535581419,0.6233108497500757,0.36697832832569616,-1.1035651999943887,1.493508876842119,-0.29008380042542653,1.782248769862423,-1.5590676406162758,0.802707715116725,-0.2149792183727612,-0.6163220242044685,-1.896154443072887,1.0364534286595577,-0.6765157684191483,0.2470813359160264,-0.2638777288875359,-1.177727671142596,-1.2736797114517906,-1.534187253347766,-1.4447458148705918,0.4501572908795905,0.3501080224393057,-1.5875964177066053,0.9508156578088129,-1.3272114216781694,0.9397401320925085,-0.6580174931018269,-1.2266187816111318,-0.23055372327734022,-1.1609339572398365,1.2510269183765685,0.8346722397238989,-0.6828080988557959,-0.592567598939936,-0.2320834301968012,-1.1851380201041644,0.6826972810669714,1.0589744025569148,-0.009144714652709184,-0.4092008331130454,-0.9340866087315273,0.04627189657923454,-0.5970164976387414,0.6458544701363281,-0.44820637511364675,-0.8939410516020514,0.004850881681294779,0.05351614330091372,0.17164509267501468,0.5812806934496559,-0.41971367130985526,-0.8562618408045275,0.12259375965049181,0.5858202979858839,-0.26866905884434966,-0.7718045621328379,-0.10744308082360396,-0.30518804013380824,0.2391289205081408,0.4362850553175295,0.38069442100607537,0.9307798704393493,0.7827049955392501,-0.524535905332079,-1.383618116688461,-0.20621144203087774,1.1107567249722627,0.775765597896537,0.7295366219646666,0.9377620110598321,0.17102742485326153,1.133765738039358,-1.0312662668125738,0.8296013626779277,0.5361192577885789,1.0489954802774288,0.1839407061406005,0.7580582146172035,0.5990828955027028,-0.3822666279950542,1.1128150680806652,0.26664908214097927,0.3915935190783793,0.9551298640634,-0.21008938098127997,0.1373231260883405,0.07338236343425401,-0.6362681987897046,-0.7233928683762364,0.4072726586966148,-1.0269899174110264,0.33905209072071557,-0.5317220667223204,0.8151148019628374,-0.594134775822586,-0.20549424832290056,-0.4154040782632857,1.546750159373142,-0.8359596122246785,1.485564903194242,-0.26143346282213914,-0.741735501326194,-0.4436977564271728,-1.1146446869843725,0.4410682563055478,0.7618183898413351,-0.22865563676477046,-0.4958343935920259,0.9299018115883068,0.30714372818451996,-0.6079507857619546,-0.4505560809034612,-0.3419534085364264,0.4343460035560393,-0.682974183607084,0.5195775549282776,-0.4020094153608192,-0.6588424809535637,-1.0261638665314106,-0.7616154635614787,2.3392183521040777,0.009153391423755422,0.3698257732172479,1.6723899358532412,0.4708665163577867,-0.8742740143902478,0.11834450038737525,-0.6766476787697441,0.21326089293105122,-0.26574178347272476,0.5344263188026895,-0.23045439121267167,0.6463386250395623,-0.6032114107844286,-0.8448572698978059,0.7330214851136099,-0.4892963393069677,0.007909852966524474,0.11597733150713732,-1.2110491241889787,0.22021901990872314,0.35348800866696495,-1.1442855283904374,-0.4632306992907701,0.15428340071005656,0.3955758532091379,1.5343424173261127,0.07917800655346197,-0.8544401893149769,0.5781250757467589,1.4516025559395491,-1.1565882198681086,0.810109025727413,0.5034213119870858,0.8504111086620755,-0.8549016934606726,0.8092551294667994,1.4145436839220549,-0.04738180232042761,-0.40410969954507736,-0.2123675075275636,0.0704340577756044,0.3484129270620348,-0.5693335255923384,-0.9836309164288108,-0.03280007129486192,0.4465681737569971,1.0955180877646593,0.20061768993198745,-0.26077432974725157,0.14487604278432442,0.8078185824999339,0.4926019420204463,-0.6846293986265237,0.027159458120180717,-0.3127054545542973,0.21018002572852562,-0.23747019196927596,-0.23051135246300009,0.014962887692621893,-0.2791232318669339,0.24728373496492004,0.6735807028439982,0.14520026945212003,0.20945839367597374,0.3588863291905694,0.268672075838237,-0.21771983590671473,0.7545495114486674,0.45252837080666863,-0.6916065893417456,-0.8361702564765374,-0.7625191779800958,0.8460307130318058,0.5180826553279901,-0.14517215740479816,0.003376532241327579,0.20141280808325812,0.1347448814720721,0.9793254115292142,-0.701226701011005,-0.6311369256098374,1.426053017492252,0.7965286502712522,0.30213654524263095,-0.9104810179809368,0.3352648901016953,-0.8632957807263789,1.0072103026946382,0.03439887366680483,-0.3540788723238528,0.34498122946062815,0.16816756975465397,1.7000840466799294,1.155576935784371,0.43426562744029035,-2.277641264710668,0.8093930736235492,-1.8423453189528858,-0.37899635691193234,0.4189691622026325,0.7182942338025311,1.4966595901222473,0.1939867912016169,0.04567784326566533,1.3710656672147765,-1.3879776930901007,-0.21803382700544327,0.8485919411938413,0.24295506297566738,-0.7820435888041727,-0.09778097254764649,1.2881428258852845,1.5465512302971889,-0.7526261617340322,-1.8712577517612363,-0.6388399063307549,-0.6079959582459776,-0.9128869654304262,0.4305703206207453,-0.4779616632509637,-0.8346259140546368,-0.15066337535461363,0.7746767374779945,1.3177681850667946,-0.11625143292422943,-1.7394169887373032,-1.3134280295419096,0.7947465701128746,0.5869465234842828,0.49544303779367155,0.375745338937017,-0.04990264849797233,-0.6549526532363061,-0.4001680286359013,0.246646695812076,-0.01603795696562772,-1.046229980791903,-0.6076650586280622,-0.5411095230210791,1.2143216907091914,-0.2969422125855887,-1.30599287312606,0.4438158234636229,1.4344745604181712,0.5141554625621861,-0.7195500580987643,-0.14691045490958682,-0.5063829070494248,-0.6442792094745722,-0.3945040576776857,0.0604679413627927,0.028738855965511026,0.41862886282724476,-0.15339496133295796,0.15468568280376063,0.8276219724161464,0.8291248801351909,0.5157472708305436,-0.5099920115876841,0.9166373476942462,-0.8321902817378635,-0.838086719678279,0.24480907109812242,-0.7728168840282725,0.3750240005562554,-0.676698209486992,-0.42238188544710614,0.9478221622887618,-0.028725641743850297,-0.21446720452324772,0.3472118504882759,-0.10172549176653149,-0.7681795299821299,-0.856047905300403,0.5561962639168377,1.585059222211144,-0.5732463207576004,1.570638149073811,0.31799146281284996,-1.0318511354825373,0.44938988769495786,-0.5565326912014803,0.4848621323638779,0.8459482858986164,-0.11393048065296081,1.1554292617827364,1.3042220513239997,0.5299730222902223,-0.21715742890341028,-0.4948631875789564,1.3704322974786018,-1.0485423045592457,0.9179478712322428,-0.025297570621413717,-0.3901557554957198,0.4887970416477123,-0.40400557324105396,0.5081469003461863,-1.0692610803532199,0.8320042902878884,-0.6350885258551725,0.6087741016098237,-0.4329215593393532,-0.1824144396891268,-0.8408384150993774,-0.6878478516177732,0.6765052657812541,-0.07419126502510362,-0.5952655474568821,-1.3237391554379214,-0.35144678028783183,-1.6455275475448163,-0.9664205153360425,0.6142975718652043,0.10065780075500456,0.14504563200368112,-0.5480206942351393,-0.09609042546871177,-0.5858040606343576,-0.2723792231439055,0.7622890844337434,-0.8706170361638204,-0.29864127171959004,-0.9767848538702454,0.41709265301980225,-0.38792586663351125,0.016398670836332337,-0.5209878948147735,0.24937203591382937,0.5832421141447682,0.11688941804541368,-0.2632603846371221,-0.2465419927998308,-1.215887029934134,-0.8662893473692741,0.8222463750365002,-0.8361874144719927,-1.035402737242701,0.8369456514435264,-0.04610772834885922,0.8581335466610722,0.9139467742605089,0.8818371640669624,-0.31343966426935677,-0.002949292131417292,0.2730506498279557,-0.32163701977570547,0.5063583646766819,-0.34669840053485074,-0.8760683468424189,0.7464149491200256,-0.7343646288771287,-0.27239174521552095,-1.16243467557976,0.5695428661109116,0.663360323883365,0.3932599288314493,0.764794955095432,-0.07037422079478807,-0.7798129222371757,0.03776468563478026,-0.9816434020393786,0.7621844688397962,1.0209095856298314,-0.07232068398946208,0.6541449189890319,1.0931975944690122,0.03776157679968791,0.05169139552860549,-0.11994262539687088,-0.04208766802995862,1.370815605142414,-0.5280774480099671,-0.8443013935964863,0.9743855306745273,-0.966448770383226,-0.2737815023514092,0.7019386404402983,-0.2458779927831618,0.8350402638529233,-0.26895319068441637,-0.1425304857670161,-1.23998435234887,-0.7619742786996379,-0.2559189915244189,1.9921607043418321,0.10078423182766477,-0.35757136298358677,0.7904749852252794,0.5798206858264676,0.2990318097703425,0.7690802384466244,-0.16503974833861798,0.8366675895737076,-0.48800200096147117,1.670618733430255,0.8582609221768158,0.8990801876329211,0.40345169356567295,-1.4439885794940384,1.451509923129904,-0.39029802962486787,0.2750461389494718,-0.07670815524234167,-0.2543289231524477,0.8180185478762325,0.5407997311481157,0.47573216238584126,1.1395065132202091,-0.12621358584957404,0.9070825320479803,-0.2597688961405308,1.1176539961165308,-0.5851091713104283,-0.4206502347366322,-0.5277029588411024,1.1555829049001494,-0.06119402567699864,-1.4085490096003035,0.2977587303841243,0.4933642404600625,0.12705042520925797,0.07546110890324514,-0.1856584514606896,-0.8151625717918105,-2.2942457980683213,-0.3154866638567194,0.09876832769048417,-0.6944897390495558,-0.18019116218301376,-0.044230066331595826,-0.21733785125267455,-0.7903417405610601,0.48090427607206576,-0.18938336117551519,0.3714668530044317,-0.13627694668484266,0.8962738963185684,0.46427645415995195,0.7617052537755153,1.9784389212046583,0.7595289142656764,-0.2194217968217344,-0.28656066024148386,-1.0585780315654163,1.3874608943629847,0.8538583697584712,-0.32847571301663026,0.27634656086897164,-0.40714137387607835,-0.42574066094430585,-0.3284051552607386,-0.616156891755242,0.11623973401490045,-3.0294080431711308,1.4527314457410159,1.0481298250901874,0.08548136340685222,0.40107709336435166,0.11035582164828617,-0.2325514286764733,-1.7274897683532329,-1.3210634085251465,1.0769848458466662,0.7493067121082412,-1.101938462613468,0.8706404335420251,1.9580102750095902,-0.4902973155896273,-1.3264517223112577,2.8735207621856205,1.198366597406098,0.4056407237588427,0.32196965434377106,0.8813749542084097,-0.43138484889686135,-0.1549088056265242,0.23398826464570502,0.09232729471924014,3.5934399441655698,0.953493718524566,-1.048050477476874,-1.1731337334819796,-0.12139594496897335,-0.2157064275354205,-0.42856236058920055,1.0453753171974394,0.9986558689706675,-0.677091299218502,0.07355874183944845,-0.20747568707373543,-0.05378255729072965,-0.6394800545951855,-0.904201251420187,1.7954089505742528,0.6040706004216991,-0.820759168582647,-0.6633969699599243,-0.4493224152513989,-0.42775541034188463,0.09995157430839154,-0.9518980349133266,-1.217886889969317,-0.268356598993744,1.1093387770278822,0.5251704860113762,0.8965928638720132,0.13727951444783515,-0.4791566339307565,0.15020411180154777,-0.10305413093080731,0.5947213345300865,0.8731413144996768,-0.23248656792074307,-0.7994109211944389,1.1814233664277285,-0.06206247074929275,0.08130295185692574,-0.617268208283772,-0.14434936074668273,-1.424057074523091,-0.6445357599382412,0.9102343886335599,0.9956707354509178,1.3757818723002775,-2.330698029235676,-0.1646542805092266,0.540729159143635,-0.3430207256533496,0.8098299374588728,0.37291267244177595,0.680166791922231,0.6693579935014851,-0.34582794062004213,2.4187426363560958,-0.579171352927638,-0.23573358263828895,1.0281054557266913,-0.2186045202760771,1.1941441852593109,0.4078830378962594,-0.23679512712884881,0.3347189526004385,-0.5701508886998441,0.26846031702478657,1.2455387484202298,-1.4392933333400406,-0.9179200388298385,-0.39167792358674614,-0.47227513211101,-1.5874740282536712,0.2936850508792365,0.6192257555684415,-0.7042011607844195,-0.001103186684643759,0.4295577770150943,0.13294121827106808,-0.5146720610802892,-0.07289409565116163,-1.3208146661827456,-0.2405507969178798,-0.6206611419089637,2.124630295799534,0.44432077549487053,0.7366663430693687,0.8670721963473185,-0.05003051715339388,-0.5036684997693,1.3384754235010765,1.7147125216125985,-0.6951413083392725,-0.19642911932078186,0.9829128427393209,-0.15160373039167913,-1.3861540747747798,0.5250922658412982,-1.2212051834978217,0.4425648811041811,0.26528045928904287,-0.326057061538301,0.35718725075168534,-0.9960635802569022,1.2678998509558919,0.5689605294653697,-0.04580006476684574,0.7602689504601822,0.3469908001843565,-0.3087719806658466,0.5147085341232764,-0.17292451047851967,0.3290909615385456,0.2677319071343106,-0.3477082334817461,-0.2555232440733677,-0.2089246806218489,-9.54464815905182E-5,0.10599880747662223,-1.1678643220516658,0.36521888993477747,-0.6649221603911755,0.3766401395107491,0.08733713609276962,0.7025227116543473,0.7924827642390369,0.028896251187482656,0.6938650319321297,-1.4364753059760182,-0.8521476343714578,0.35333554168199033,0.261724313504639,-0.11684815167796007,0.4545651116756494,1.317529076720343,-0.41716528633932926,1.4334914249284112,-0.1145161717324038,-0.8527957514158664,0.5211479978003704,1.5829673933614044,0.3401684350388251,-0.6743514603971509,1.710069912402818,0.8177792246326873,-0.18062439215468615,-0.38872461211917003,0.27521259346316024,0.03752299378299949,-1.707565842559654,0.00426301849287678,1.0568295593449377,-0.5847601612396308,0.046488831646793294,-0.14506013870212542,0.5893797321181521,0.465997963685891,0.5966089829037989,0.8144935286755821,-0.7524630302649938,0.07338362656806295,-1.9628982561781607,-0.053470144934259105,-0.8766489235252743,-0.6311704284984296,0.1143843428499216,-0.9790112219731961,-0.11475805712262643,0.7633167415160814,1.294894607567511,0.5634817727617922,-1.3495800189291767,-0.9875203002107189,1.5187321238760212,3.788033267328373,0.001131644147574438,2.4825369066426264,1.5646726803296478,-0.8235743655921024,-1.3501983215185904,2.932765247199224,0.010246831660454614,-0.29629798240800437,-1.7370066008439562,-0.9454442303999195,-0.18101362306691984,-0.6102433220475115,1.5058876733126616,-0.4205518668426447,1.245524810980414,1.6318309616226045,1.265807697572903,-1.1731389061561492,0.011265456844378184,0.13143981008068023,2.9352470832545823,0.3617779659238565,1.327979568166066,0.8796404423360993,1.4234191927434185,-2.0391794859505796,-1.0886651443403768,-0.7983073573217453,-0.4001539438747112,2.657070827219155,-1.9576505875184582,-0.5948948184065947,-0.8778293962194238,-0.13687813113094005,-1.2339378558815746,2.936340963774577,-4.368355328985921,2.3424889350263305,0.8281254002356302,-3.340286615039622,1.9208135973137124,0.8128633794438007,0.4781202351584258,-2.015677892490597,-0.34991829562589144,-3.6754504214502495,2.0725191956342472,-0.014775360798814663,1.64238483275291,2.3091736864620485,-3.218355838419228,-0.007929758688427522,0.2808583119776703,-2.997834868073422,1.4409109718780215,0.9593285155469351,-4.42012629216135,-3.714916593326422,-0.023117365987166353,1.1226305943471853,1.1061756903050954,0.9444703703220675,0.5202884468344599,-2.1627225520800146,0.23160923320701685,-2.086227956909242,1.7902898802273333,0.48856701055723367,-1.0043202898633987,1.4853106420273963,-1.1005269469189514,1.9126420002020939,0.383145484513184,-0.0716721858857868,-0.545121985915647,1.433732954184775,4.0860542643550986,-0.8713364487599586,-1.7468662853469559,-4.007288955484745,-0.13964602415760657,-1.6978974908399758,-0.5817458914203767,0.7587198403448182,-0.557614908722132,-1.4578947356555831,-0.262441127674184,-0.27425238653747286,-0.3965842631600327,0.4524836476291089,0.28367923651802107,-0.5563212996919474,-0.5647776290499672,0.9553950391058388,0.9141128507635482,-0.05712787075207976,-1.1806287466911232,-0.6579072788610913,0.23733670111986394,0.17244204691128254,-1.1346610569822113,-0.6929891908410065,0.8214615393100297,0.6748852701270571,-1.4873052126517514,1.0214471948813526,1.5751579225797836,0.4897655263244802,-0.23645473949184842,-1.7888421718613552,2.4042903865417595,1.5744587648729194,0.17052058757534583,-1.64073014883695,-0.28152044174110014,-1.961334108236571,1.4249073218845527,-1.6542644380676002,-1.1146094326274847,2.6297142800020543,-0.21526291951835205,1.5359561880557258,-0.14176371061275075,0.6553529015431627,-1.2822816637137584,0.5980401111059527,-2.680596608329275,-0.008398493675081347,-0.38704207830243886,-1.338679908781879,2.4014786820907323,0.34707041045883347,0.00863789573825153,1.3510449922610006,-0.6444672915272162,-0.9630033542677097,1.7972571340583015,-0.10302826663111378,0.09430562632500933,-2.079796030653715,-0.10091953993385859,0.566980752011627,0.32963097046866857,0.5708606321662546,-0.21424775649095484,1.5437820993575,-2.469941857249652,-0.09267402812023663,-0.6144601723726507,-1.1650523268669741,0.5355051302140621,-0.41293956127320286,-0.13993411795758767,0.44055134429589454,-1.1656675826481595,-0.37322638406787506,-2.318821811570171,0.12495233980366188,-0.47904579020636123,-0.12366622599240958,-1.3333794573747622,-1.2566049782399649,-2.2999475835724117,1.8946711042975752,-0.48432546316562225,-0.4207374957797672,0.01658455506618227,-0.024539141986594785,2.4000732190984726,-0.18587668097361268,1.040054016268713,0.4114506116250622,-0.6811133585435486,-1.0767046088685692,-0.8615637363790191,-1.33320568858017,-0.36154652387123704,-0.031780945209133105,0.38531076941804465,-1.4825239048773258,-0.616124484698317,1.0728982677841614,-2.3187706545047577,-1.2435100035856408,1.0705074075078007,0.23885203721383375,-0.19728736846306527,-1.0344303262783008,0.904461826534216,0.8445753231128004,0.8676772083774752,-0.4541906589291994,0.1443775502609633,0.15560696094479898,1.2120096209187898,-0.34187591721756444,1.301187609957073,-1.2331737542408805,0.6780817670477547,2.6412104088978423,-2.042819134418356,-0.6168423444529719,0.686230177585886,0.9463912707082291,1.240322681026978,3.833516266908729,-1.2079596980368157,0.11367989161605245,1.3992231466539375,-0.003012947785231118,0.8693818907732725,-0.3312432737182594,-0.8172505916051455,1.0986873564646158,-1.2133998763015037,0.5759478082205529,1.8915608685488865,2.684882288909744,-0.34254669175978686,0.6016325223632376,-0.8609136739809767,-0.7399804840039574,-0.32729935674546357,1.0982977309733397,0.4824350918210888,0.06856596775196193,-1.3053130849538368,0.09888699504988047,1.6176463859124763,-1.196189711874824,1.1199867727095323,-1.5317650810807393,-2.4724315672014594,-0.5906546130622579,0.33879267291299725,-2.432661211568086,-3.1056972429038803,-2.0081292606911307,1.8458334090605735,-3.5308579960252726,-0.17562265508310163,-1.5133633009584857,1.603227986798928,3.365565323085772,0.7876030383108914,1.4681733358557985,-0.6069191610052406,-1.1060851869159969,-1.971853651240199,-1.1194003201562606,0.3814116649700291,-2.272822487473456,1.7152837650214192,-0.5246897223017889,2.610747521480422,0.7958512594184806,-0.8850593181082127,0.10156485994952459,0.21642077657867076,2.304165909115357,-3.1874817041395773,0.9118469713173973,-0.35381583421146817,-0.3268987932724153,0.04854113390570347,-0.01421217345819772,-1.743104867777641,-2.0948998125368825,4.2184692943851445,0.14454615421997058,3.011480672925424,-0.9431869993558628,2.9528380059311115,-1.6762361952362348,-1.1155744088765003,